export const data = JSON.parse('{"layers":[{},{"weights":[-0.2708992267409589,-0.710505439713173,0.17666766992206775,-0.674600838107489,0.20710697365745,-0.2897823966654905,0.3149617215636572,0.556193606287965,0.16979214531061118,-0.905034278896107,0.7075347561421468,0.40173520905640364,-1.1373815168534818,-0.20120166304880827,-0.5512804806081126,-1.3681719877981229,-0.1487786855789777,0.6767146481335562,-0.35933384702277266,-0.07089357360816331,-0.7798799708929107,-0.575567824158661,0.031736033200850736,-0.20839802310675326,-0.05452819050461018,0.1373886760831018,0.015587846088308962,0.28967668419750503,0.021503225643378757,-0.19551464693444917,-0.02434471585732183,-0.2532228693944578,0.6184758919064616,-0.8070844245509194,-0.6535647882862285,0.1313437448444442,0.28067600473926,-0.26520056071242887,0.5012157089510721,0.0827548679325075,0.6130446407542236,-0.08835509657597165,0.43434732550768246,-0.21409002415084374,0.28733001818590814,-0.23724943337192417,-1.090401873389776,-1.8700293391803726,0.08353255479105827,0.06853832741099822,0.11808415658565993,0.19016437909249365,0.003345947496668117,0.37857956903001844,0.053154787964978446,0.7926841663473191,-0.051048707510370175,-0.5766588577844295,-0.9805011220108266,0.7199912730929243,0.29697158566695764,-1.0400186394580622,-0.8425146566228563,-1.6258917738578473,0.13428382254323584,0.0648424156183521,0.09269199226479914,0.17814172191548888,0.6658801699666815,0.20125947410818767,-0.45485184506240006,-0.580793002814939,0.9835542809460832,0.06381474092068867,0.9757156995535893,-0.1631327844410336,0.033233826392365065,-0.049729935012197996,-0.26688127659996674,-2.153257715089998,-0.4441858022237648,-0.29836847711387476,0.2696535639413932,-0.4652824600583343,-0.6627855983110247,0.305164138701784,0.10523951221517294,-0.11657947314337977,0.37392555944465594,0.2259769692625187,0.5147906451198263,-0.07223681118847891,-0.2299968223870822,0.27617901535582934,0.06929124847861938,-1.322198254451037,-0.22233216795680122,0.487178437773039,-0.12231938393746185,-0.18919739137418695,0.3356876840440993,0.858883953334962,0.012000213650444277,0.16248821333300242,0.3469792004900659,0.22834802215232017,0.10752565269402932,0.6577833638717309,-0.3605277453979699,0.5440784778405068,-0.3908548556387486,-2.1145436652794074,-0.021497386034326087,0.24395272753576452,-0.6650585709357624,-0.059303217150625934,0.6520503570432352,0.5090223341925337,0.2694929152156017,0.404468701896617,0.09073241861775433,-0.37814908758502236,0.3547150252960758,0.4363444071168856,0.26297045182750883,-0.2309088644446353,-0.6228437336348515,-1.6519953172608963,-0.5702893832864372,0.373962756058445,0.011699024620315447,-0.1113227259715316,-0.14636123889069788,0.788956143127673,-0.04637499569689454,-0.3289196651726127,-0.5143245217384178,-0.31800720873200616,0.34687401452342204,0.29215796901066304,0.7264849348498853,-0.3475932167391862,-0.5393550791135109,-1.4732210979672582,-0.0305123594964351,0.10870795946445895,-0.017479174391635672,0.18614173856296776,0.40508278307546514,0.25251208268191416,0.7088784215318719,0.3303775349895152,-0.14173778407462417,-3.480907520443217,0.041228981287683535,0.07446441151004381,-0.831879465271653,-0.02149782606179325,-0.11927505741158723,-1.5076367839977145,0.21067088042492713,-0.6678461530239629,-0.7465598710423115,-0.36087830944086025,-0.15410642613202336,1.0197442776313936,-0.15792246779765598,-0.14649798766696176,-0.24040639210090617,-0.28814487628477775,0.07366359747065636,-0.01626001561345208,0.28515399069275404,0.32851552169388015,0.27425673934592315,-0.9397240306882881,-0.07377964935314263,-0.9074866741726293,-0.040069354238515535,0.07982500340289903,-0.4347186687414556,-0.8137836530670185,-0.33001578222700617,-0.8000497066552894,0.11502984671315736,0.14725108648815047,-0.6632518673596354,0.7177277073086283,0.3149711208710402,-0.2452690321660002,0.033599205490364444,-0.5256316203532423,-0.8983050214317668,-0.6010149415651457,-0.670650579804325,-1.0413979481031415,0.9083085723676514,0.05768123219803338,-0.9256200462868278,0.42847057373984027,0.12593469973038962,0.0821391062929147,0.05983143905314682,0.043106183309257834,0.05811587798530089,0.09854299003211174,-0.07928216081088714,-0.845055358767926,-0.02127835756258834,0.18059751996770843,-0.4247794409657062,0.4748006754973416,0.2917559349613952,0.34047253736259014,-0.19073623242989562,-0.3273454703081312,0.034326569160070035,0.11437547740167951,0.437182441773869,-0.3527696867691644,0.08816677584276057,0.21954872636325226,0.34063588462941463,-1.1541703706648756,-0.20331796129538768,0.08878886898635378,-0.5192221831542639,-0.990109719515519,-0.6118928591734547,0.1479281967953321,0.07118491227750051,-0.3414247829767853,-0.26490687036350813,-6.726472117059759,-1.5627293914105533,0.3944478673114032,-1.0400748798836916,-0.5998841318247863,-0.19745788554448027,-0.6458761591772793,-0.2771172616031336,0.19170350376982126,0.16507582322781256,0.03998961712584235,0.2737914878245264,-0.6464620003498835,-0.25801255819929153,0.06527191170642642,-0.4329145806635145,0.1427609650541274,0.03868959560591871,0.6710876301667035,0.39484196636716773,0.6953584872654315,-0.4116260581260656,-1.5975977670016723,0.008974497523450552,0.34028445965974036,-0.06351615943555984,0.29984917228737207,0.5744104814354898,0.09566445082892676,-0.13478901742651342,-0.2067004963009016,0.5415305951016159,0.10877320038773941,0.48650331128586494,-0.32260463011892315,-0.5175392418407958,-0.46310763168486574,0.3337005868175962,-1.3311770836978845,-0.2969250889387674,-0.9196935579736752,0.5849095249427612,-0.7788401589768339,-0.34966106442053685,0.6250793814740857,-0.07204425017940322,0.5939331319564598,0.3848511442592422,-0.3807340706522674,-0.40945861807472006,-0.20688912196410783,0.11706593385604339,-0.1888146114518799,0.40537736942255653,-1.3145585641694206,0.12376570162552261,-0.31359020756824024,-0.10803997477389356,-0.07369170329168588,-0.3361927400293927,0.48426912880665646,-0.14046542760572925,-0.3655687373072644,-0.04455851393058068,0.3469185757094048,0.06000042287380541,-0.5200902295973696,0.38954674510492293,-0.23913370556386934,-0.20167729966375453,-0.9165907798666139,-0.15398348483465044,0.16855278372845886,0.17363407961746335,-0.26040924794916165,0.1779661287690133,0.681475297310266,-0.20936435954478316,-0.5070454284247129,-0.19210450296392276,-0.12752710241614224,-0.37476056670995944,0.3952149206625141,-0.14992405289349345,-1.2122674613381719,-0.9700966530465279,-0.2251499762690555,-0.8042053159766942,-0.9841863595894309,-0.34595051416873934,-6.548511829941286,-2.226870960802787,-0.27275104101761216,0.569058527932266,-0.07363620495959337,0.2042550614622075,0.34355324302505436,-0.4047879279455977,0.20212096345191305,-0.1947907255994326,-0.11368753071970872,-0.03069031619162201,-0.8276021643145348,-0.5723266317294456,-0.00435963416196526,0.3078093642488584,0.1893761942576223,0.9124966495877905,0.3453354341615198,-0.3090527807424951,-0.23022263887799088,-0.34398592403477235,-0.18652107256342895,-0.2809543658967118,0.5138315825764865,-0.08207172142886365,-0.7589170068870275,0.5770097016895795,-1.758576055168744,-0.6780196552464727,-0.8867775516335854,0.7480463354995416,-0.7252445757428384,0.028602703987200714,0.07579251409170393,-0.4818563394154017,0.2779493397260117,0.1473422683705184,-0.4460529118436066,-0.34353974746477434,0.5670489623317874,0.5538953629388642,-0.1633328521460124,0.19708241700968884,-1.5193130023518266,-0.2568893253275987,-0.4248307904212088,0.599135551363573,0.33331161449871427,-0.3054762067653968,0.17489667605495815,-1.37350802038584,-0.009097166104670228,-0.33139456780351595,-0.19880979778774693,-0.9022039899751751,0.4020372449238966,-0.22631135753485554,-0.7807376680456352,0.5030261009849633,-1.2865454671594267,0.3060160696025614,0.1097808356876733,0.2779707992384592,-0.1482404935838964,0.013684531092690617,0.4636180599858199,-0.0626205154083141,-0.029517772508197756,0.5186254770941175,0.19072232609643133,0.23448123169125681,0.16771956061897492,0.14046264506704031,0.24804555147465798,-0.22274075699539153,-1.5642750142620594,-0.10897546163046885,-0.9190824182161109,0.16930821925146897,0.5676934325758743,-0.26521280968316463,0.4311832596220768,0.31430401210112163,-0.6946616617638662,-0.3655438720711608,-0.2595077148003279,0.027606577414514697,0.6843285954641583,0.0023244945583312153,0.5564451847133093,0.39973582128177365,-1.8764543328888068,-0.20717668084304136,-0.2058309323605051,-0.023220359552679534,-5.7745528643404285,-1.616160015135063,0.16929171362448495,0.35318225916868984,0.11360424761458435,-0.22468228150883196,0.2891740846443336,0.17535697744607578,0.4439371337741965,-0.32467687679458573,-0.06591757428307789,0.24717807855669063,-1.4666207188056886,0.5647217173811967,0.13501912314937956,0.39533752969904556,-0.3378401597487199,0.3181594697813321,0.28703389132708224,0.44381765633960985,-0.729055732116666,-0.680027809330982,0.044882793992966755,0.18910251252713878,0.5387350654042219,0.28189944625517543,0.010962326385004117,0.33935461587142046,-1.918174077740037,-0.21144640031209386,0.46596509999227526,0.30866403039676366,-0.19595011643224253,0.4959961746499504,0.6384440720822376,-0.27582186325233377,0.17966819763844177,-0.04476451502487955,-0.12617401685153998,-0.301203249749389,-0.23171017048842568,-0.3671662159383859,0.08296787319906514,0.2643374179625113,-1.902631847858955,-0.3200022402812097,-0.152294493049179,0.363450914094861,-0.4063374946664987,-0.3595672028238947,0.039069048690825774,-1.2808729275351651,0.010881311261043587,-0.30355620184851395,0.3555797866838406,0.35395456807571285,0.6347662463432328,0.06088536069126687,-0.27671920648021425,0.29238329442336025,-1.4648781797903596,0.2073745349948226,0.055926178115267476,0.06951046112326383,0.19074016357161297,0.19207734494117518,0.20162624032355372,-0.19299536460657035,0.28460748028892635,0.02551190102849811,-0.8794859707975612,0.9833874286976563,-0.11645719051183478,-0.9132509252441315,-0.7963894731517093,-0.57590225372986,-0.9581839017376742,-0.9549605821674991,0.24979187860793634,0.3098692269089575,0.5131387148848433,-0.17610763129300855,-0.0558133940924502,0.21726226327855133,0.6106867933132218,-1.0790495509135787,0.449010597424603,-0.5272093391254731,-0.22151719733311298,-0.3955382239615763,-0.3134450852657142,-0.08761660225273034,-1.1847600606562807,0.060839833974990945,-0.042435629652547,-0.11983084972268863,0.04779807758465867,0.04785411622833343,-0.019082267273862502,0.540095109199301,0.46493141938752763,0.3126804085501019,0.22411917553205107,0.27615315878096147,0.24765479534652518,-0.060402589397045285,0.18876966124772984,0.049494238582284605,-1.4009748413868817,0.6213556988292662,0.6882404329661421,-0.13669152980783125,0.8653064795316772,0.12568083829377139,0.5318289833880137,0.2672851227533748,-0.21953695646584637,-0.10425300715881576,0.2847676454636449,-0.07848849041334793,0.3639804545790567,-0.038450235424446574,0.1691012410585665,-0.2610590619381485,-1.8974999642491495,0.06548996177147179,-0.1103296009479207,-0.19997533634136716,0.10098909437174705,-0.11266378896074082,-0.3291479872852914,-0.07253168116503528,-0.23317264672379692,-0.35572796518510996,-0.16828492759122643,-0.20328927410121697,-0.7769945106624924,-0.044514422909651595,-0.1391730975220776,0.6610626038039186,-0.21785340926833566,0.333352250656026,0.27186364420738934,0.21443059408783774,0.38782016946471604,0.0791326229273886,-0.23020188393395372,0.10530376265578116,-0.0767190145600937,0.28814292347876896,-0.09710330044752073,0.04927287628312882,-0.12326438846473745,-0.09536775215560281,0.0036140823538822306,0.2281430859962336,-1.1524653901412618,-0.056900389729745676,0.19535471600341997,0.4753709306192587,-0.13884260234308346,0.3095981992826631,0.4210705215015424,-0.5318690750084687,-0.5294636766098,-0.6741245338325726,-0.15097868142965026,0.44157189021618554,-1.1422286383269706,0.23653947973681078,-0.20243485677332454,0.8993032550568206,-1.5706533382616112,0.03136694568481827,-0.08656095508210736,0.08501579611110298,0.12588707254923187,0.6192965016990509,-0.6426295434396353,-1.0719249470420882,0.03037204871695608,0.6273467091500272,0.12443467419308558,-0.9539379106350909,0.7881191352245062,-0.004033479481112013,0.21033520101859987,0.09525587525543862,-1.7707623650983724,0.0060712147042456125,-0.2641760784028622,0.3928233428424662,0.34265849144514227,-0.6470850835184018,0.6107504279084107,-0.24185102553908902,0.10914718347699287,-0.5171057956968276,0.10677463948248063,0.22723327159689582,-0.22564128783884219,-0.2780377636549364,0.3933683154884016,-0.17532458417842878,-1.1628744696941669,0.06752223018180019,0.1635238115737336,-0.5151454551138496,0.27551428602677497,-0.13687429007872767,0.13787732684510498,0.07351060816903013,-0.4921830196663743,-0.050868739499509076,-4.635870147094643,-1.464905743670158,0.2272854772163928,0.026612352855617746,-0.7774040465350729,-0.1265075734196004,-0.866357955865817,-0.1497095893541011,0.006191554329171865,0.3690003290230236,-0.3966390573614406,0.08621766381515539,-0.09257239644081852,0.7032652270210704,0.15131776482428116,-0.545828627170761,0.1661047977023698,0.3259009162625576,0.4213286128154778,-0.6368233253555772,-0.591728547074057,-0.4677565201917753,-1.3955909101409343,-0.42357455065908667,0.42200466127366587,0.18367049899574073,0.7138881249362261,-0.04858618296095439,-0.6114018356210381,-0.13318322987690026,-0.54175613129416,0.051283435336499754,-0.00022955354377470968,-0.03161430300989869,0.2723389984667264,-0.12683205037866555,0.24005731878698056,-0.03670139506116651,-1.1719636430869036,0.11341283816298613,0.5747739785539305,-0.12053696994532415,-0.06613224486919353,-0.3777266418041214,0.44256557610164193,-0.17589380095792082,0.3780086090642715,0.4193608459396443,-0.07949047954091065,-0.34038409000113573,0.2937959835433904,0.21541686526323492,0.1336918336136419,0.15305197154325365,-1.425891161457015,-0.09654267401351031,-0.2148346932021429,0.3305729010749511,-0.3072447879848565,-0.4299670352624308,0.11485930491842902,0.3399616667509648,0.6463875625106916,0.02348318514078697,0.33076446490656697,-0.48983701913905037,0.43663297908138377,-0.13678933092993376,0.34623066756322163,-0.1541060012842526,-1.307173037625558,-0.5903057577689053,-0.4672380420179871,0.014201404090304813,-0.06780823353630482,-0.977243530063819,-1.6326828886668483,-0.7630921723611059,-2.160366458887803,0.0801178919803613,-1.1093910505256939,-0.6729751190113852,-1.415065697952114,0.18533387268680057,-0.00933930821371748,-0.5779892859904924,-0.39633354959358036,-0.013506690579349738,-0.009907543971817636,0.1593615590251047,-0.6118401580171117,-0.33038711881209887,0.12146668747074531,-0.7318891845097074,-1.0318033158866204,0.3759114963924306,0.42105299958474196,-0.4887709003609856,-0.6410323396596301,0.13337767558283972,-0.1966076941852695,0.6637071927368612,-0.5742049407059,0.02040988678136787,-0.5611677185343371,0.12749170750692926,-0.2407475645490575,-0.4658453450960653,-0.2922082891823675,-0.8096731606554336,-0.5102428559610646,0.7342181300344819,-0.29942292528593867,0.32857635914082134,0.7607560839720566,-0.002213427423431269,0.25920414487035576,0.11820699489264468,-1.472654776917079,-0.3535798823960981,0.35725400301088195,0.4010378460637909,-0.31492426236284005,-0.5508986483378261,0.03144471493103832,-1.3585225200940003,0.015679114244319618,-0.3148068430244543,-0.3995901054817368,-0.8378965211485503,0.2133294450514852,0.10324266668455206,0.5464818450967832,-0.014562018660820738,-1.4047534571623603,-0.05824774616574214,-0.22657442283945567,-0.12487417819614044,0.29804349945968844,-0.050117706790028936,0.48571606238681436,-0.44582294885095974,0.16471458310038115,0.09237526356714552,-0.1036552551707193,0.4511775715724498,0.49898366044088754,-0.0024205939832213064,-0.4230840474681813,0.005719574495427785,-1.5968634711078646,0.2706643883070329,-0.17498392905058366,-0.45885107563892086,0.4313654357138853,-0.09038067655085141,0.2693841042428962,0.11051217743283018,0.7160123905243668,-0.6885966313182,0.20874390212334723,-0.16242898220606325,0.2799216445921154,0.06132893394003225,-0.09345741784033747,0.24087424010053748,-1.565299137660575,-0.08343661063214654,0.36365558749082977,-0.34847321179067986,0.21520964225909475,0.006606093825585357,-0.066015840718702,-0.4685821371768016,-0.3735153365411527,-0.5667323679592725,-0.35993209491072764,0.751319039939188,0.4832420524278968,0.4192360980574479,-0.3659010156006116,0.5730878334490057,-1.6394688760073886,0.1476481398468329,0.4385096266129431,0.26397204874251057,0.19873900487874635,-0.11805868519359532,0.5558764744355458,-0.6023620011575472,0.30745849493516053,-0.10844386692084174,0.11558632413195097,-0.13499812949328185,0.416624244210762,-0.25357560043325833,0.10734445570967868,0.35093076248345056,-2.013590772330284,0.23553484238151773,0.3101778141752875,0.20871629798765265,0.3482135858066509,0.05465662715370679,0.023455848621756172,0.35420947504024236,0.39925554902618166,-0.08945840164237741,-0.5942166608697558,0.36638405855244754,0.34259822992565864,-0.08058666202060388,-0.20670539887924413,0.3330416139519736,-1.706780617245029,0.14962531234008075,0.5563716589255503,0.23046590567620542,0.42389943710497646,0.03177836551131873,0.5291667273669785,0.37117190567297476,0.513908141681667,-0.3284010854460414,0.3749821242137441,-0.4895237260598886,-0.2977567178967425,-0.46689401315427714,-0.22141737065751083,-0.582080184783242,-1.6507510659885005,-0.4109675486342452,-0.10668294998553947,-0.26664100315266803,0.010500720141275548,-0.3693279776238682,-0.10963345574062136,0.5160779244519317,0.30164366298180817,0.6318685707038253,-0.7294093546142515,0.6084554673185639,-0.8068555724206434,-0.7799625968089207,0.4747223529346533,-0.0394124517012249,-1.3372441976276608,0.2429814812228792,-0.41964561343133705,0.15730837831787214,-0.6401450282742758,0.01444376795796156,-0.5474083663938881,-0.011947797958902403,-0.5185134777275964,-0.5129959634256935,-0.4731391182723732,0.1169526186550778,0.5876561559239478,0.10059871642232097,0.3347013370780588,-0.013922515696745777,-0.7381730386096583,0.6238865757505332,0.12165029516090453,0.024791649171986296,-0.10254657290918834,-0.3229427710839064,-0.3574641337961776,0.10731529491113587,-0.23665947982914165,-0.19581358930303253,-0.3878513900475856,-0.2605805114671944,0.4592320286724426,0.004649063097615879,0.21819985391619948,0.5195625696947312,-1.3113250082611068,-0.17784117876392252,0.4702962889429831,-0.3114551372572024,0.008051897431089361,-0.5162342806074981,0.45258162311006017,-0.35268575992639056,0.06820162789282509,0.4954517205387325,0.18268584853525754,0.3038117145449901,-0.06622522040444936,0.06846928267670344,-0.4873245654350602,-0.16742474380563396,-1.3124783179369826,-0.2526386992266569,-0.23957937976843158,0.09572766058440503,-0.29801385942678976,-0.451016939258851,-1.9397371399332952,-0.07652118399240432,-2.431099996093966,-1.4854453618020673,-2.0273527989010085,-0.43420797540203193,-1.835439180548124,-0.7674790846266433,0.18131808274882216,-1.3593422130067414,-0.31722024096306534,0.0893558773040079,-0.49243819364058533,-0.3865122603525116,0.04852253945025157,0.4744640477686115,0.5586348184431239,0.2693110465480235,0.17373861797014492,-0.3181612270832821,0.17267188034286035,0.5483693868547752,-0.009239360811215536,0.0665283719119374,-0.5437579287072166,-0.45986784339618714,-1.401139057123855,-0.34556878750426273,0.03666529293157103,-0.27969491171618466,-1.4958243417507373,-1.0134619028558578,-0.20898348649807744,-0.565626137672387,-0.593325866512129,0.02246718296707109,-0.8492844467831362,-0.5747680873361246,0.3035846953004992,0.40576810505153577,-0.0010170449388297398,0.23352193961414044,-0.6773428815310814,0.06449921014590015,0.09571102874333376,0.06566093025054828,0.13815732805919095,-0.043868005447092635,0.47847319773397307,0.47677104076755017,-0.1314833343908062,-0.17587076567415755,-0.509876733619497,-0.053000732067977584,0.4690531826294917,0.011648315739000364,-0.04292176121610929,-0.03481588569870021,-1.2533755431945737,-0.02859588810847312,-0.37808651395756493,0.1330119341874769,0.7333713494912553,-1.0867518067286301,-0.35665990535115916,0.12252739197852507,-1.0566936480970819,0.4658643691076529,-0.26494566057614205,0.4772752429190126,-0.14916094905921026,0.029885969826525412,0.1165175528073022,0.08625699669029412,-1.074440590383785,-0.42580837263217586,-1.837454270184649,-0.3216844379803541,-3.798431422508933,-0.6759558711432109,-1.9809684141601618,0.09122852985485683,-1.4416550205135166,-0.9513896996554141,-1.0043529636072894,-0.027196329853768894,-1.369226156320424,0.13632873897976386,0.04943032586167144,-0.27869101637594246,-0.4679035408458534,0.25053102189840454,0.521569528455901,-0.061227196537158184,-0.45041522456307703,0.11360373106485776,0.7602181100834547,-0.7794431183615267,-0.3006479587591431,-0.0416239377072955,0.2762591886755854,-0.6207517050484068,-0.8958425312443378,-0.17972313039965085,0.4407355356885776,-0.37965602885454,-1.1342125021952736,0.014175746830314003,0.09448561999675782,0.19908968045774392,0.04752688776372229,0.021588738595993338,0.23930410257913057,0.13796054183073306,0.27325546598767214,0.2222221785552999,0.17568385875490092,0.10581514471945684,0.08206761153900025,0.106096450907183,0.1804530289679879,0.06514951637457761,-1.1718216784640365,0.1386835966879397,-0.11775990078671217,-0.18295031766731842,-0.003928640552575868,0.38280178846177554,0.06523807501408976,-0.042348655976854714,0.03888686882280288,0.3187789662943231,-0.04763217940366075,-0.20717625226995207,-0.13052007998465814,0.33067363439651926,-0.16778373332917884,0.31059572237442784,-1.2084516082779777,0.31910724329210555,-0.031942890094764725,-0.1692738419347422,-0.0017141983034050536,0.5845475277676031,-0.036491403495242665,0.1683611807439167,-0.28664545310205547,-0.39200465532744766,-0.23487550697628115,-0.8563171992321428,0.5767044914190956,0.025125195053462977,-0.8837976490307353,-0.01964774734750266,-0.5539695923004295,0.2873674636110583,0.29481784786130333,0.2854497567733629,-0.49149022196603415,-0.5280179275826268,-0.03170351794397999,-0.36883607654880796,0.3641085412917165,0.6591710822906708,-0.5935663202232957,0.4246595478017724,-0.13634376816971694,-0.2995544213676731,-0.4418156709903019,-0.004978841793430468,-1.4763192215771863,-0.10240148965571713,0.5690181151738887,-0.5182518503496197,-0.37012675171248105,0.5771549254404054,-0.06735533955877891,-0.72116001633071,0.2963459590746384,0.4811430000428743,-0.40162616795234823,0.04750020874934125,-0.1345101572292001,-0.29381391891416186,-0.02369512560007152,-0.06378826563911816,-1.7617015036313382,-0.5781860656834724,-0.1835372334196231,-0.6241442862864138,-0.5689248201046856,0.6979797045862046,-0.018189296754593465,0.0658063272509926,-0.03874444299771941,0.6834318130382069,-0.12308210858927393,0.07037864958964195,0.21308702759775885,-0.5813889753150678,-0.30223853797650285,0.4438537550991685,-1.449235188475762,0.1957014907022203,0.100403946895489,-0.008614710010097516,0.23606535417070387,0.0779022789077649,-0.5078802857548758,0.1082381499475686,-0.39714592041392877,-0.0925546642863368,-0.29171187133153564,0.27378877723999007,0.31183781922228454,0.1512142927970882,-0.11631691154982034,-0.06657647434173082,-0.9105557974720676,-0.0034817943256956587,0.029292796345575377,-0.0005601343544124716,0.6211455437570317,-0.22871696678866477,0.1389111471465444,-0.6719617652489601,-0.4002624355163831,-0.23967028829595682,0.5113881667652153,-0.21487784986158814,-0.06735500137846896,-0.0774708876030481,0.3813329984648957,0.42933755801882184,-1.5213145444942688,0.04569460084708161,-0.9481542323898717,-0.771100560884117,-0.05909780695294952,-0.5859843453366202,0.3789708023527494,-0.6508017685873511,-1.119197862497929,-0.16810116116175228,0.07237767523420723,0.0014655512313852376,0.40006381292218357,-0.7522012842823728,-0.22282307980298038,0.13410553167242759,-0.013773468837556712,0.09397038975220728,0.02995306369409215,-0.5218809358694433,0.42756589731742767,-0.8279400017084783,0.7955302068560559,0.40025063201977035,-0.836375474374803,0.2903923088039057,-0.5914024688924318,-0.348047389376229,-0.7172254499614854,0.08133835864972849,0.010339488533261488,-0.07823195452677531,-0.8129392535576433,0.12233938651334793,-0.2666260591027417,0.23374943249410368,0.7924667094316544,0.4653690693724153,0.3348816351038068,0.32215494096604724,-0.6658798335683348,0.21541225705969122,0.3703184962068419,-0.517938918746514,-0.10149190609649152,-0.2761055505295462,0.44702457010614605,0.03127600797326915,-1.6812731914243821,0.21292550990546108,0.17420843309279194,-0.005627768439975068,0.1522329602548855,0.32386483725114046,0.29968746053354905,0.279217097312392,0.45508254444755775,-0.048900660098548515,0.1244431530988994,-0.025885936859321473,0.25543178656607946,0.026525525026933134,-0.1418175912265565,0.11816803598206681,-1.602657001865792,0.046293472375110556,0.03024163562720431,0.10829765177481306,0.2493302118276874,0.22779318574223476,0.147521294371987,-0.1617938855404383,0.6338657243976737,0.033329350287344336,-2.6424884650026663,-1.4750190010162065,-1.1157635218918038,0.35188804195240164,0.15532054306615412,-0.10875124369373763,-0.2335515228828302,0.041822567227023044,-0.6198723055125459,0.3708324456052274,-0.14848517530003988,-0.006332761013712324,0.039406905597679384,0.1038608936360458,-1.1502575594106337,-0.09282384212193633,-0.493227262850246,0.21577898874154264,-0.5727868460685135,-0.15955577475424648,-0.049399411435662455,-0.10893169534037947,-0.013182134045764255,-0.006182144761707159,0.29943185014424184,0.30007410830575465,0.22559414163781402,0.27727490944535726,0.2787947043559007,-0.5332371419486156,0.46940023383555124,0.15180281992168934,0.45955807133714,0.3344089894879531,0.5003378666866444,0.3642429843560259,-0.04802166580492695,-0.11233786382727465,-1.9781289314607147,-0.06241612804035114,-0.08622552562117276,-0.13858834764251549,-0.03099347635977038,-0.029933683344044153,-0.252449700354076,0.1863064370080277,1.131836533178412,-0.0023452524733105972,0.2032831310957926,-0.060049464146312216,-0.1591638115309761,-0.12862243099516374,-0.13350238310462878,-0.12355121977271315,-0.5101793847523236,0.45210974220628286,0.4573714380127613,0.8539644952652629,0.08793063361124956,-0.07047389901389016,-0.4148722437238086,-0.38581726459350163,-0.4427937164741362,-0.28280269664989677,-0.6552329823950224,0.13123084756225453,-0.09392014523382969,0.12789364950432267,-0.16804183416565213,-0.3223719992919202,-1.2305745578862761,0.13025877611324127,0.11365928796303379,0.08615407824333939,0.09603328736121586,0.1031845709813628,-0.5559970425895993,-0.315858503989857,0.06847464000217918,-0.05256159484297487,-0.055730438263690986,0.06765282759919328,0.4728922195639339,0.14312984560227915,0.030863017522037156,-0.12261449946285129,-0.7683054880472543,-0.07149781744000466,-0.13482409778692375,-0.23555169316072375,0.5070418626870404,-0.16649086820415834,-0.07513679551917357,0.07979553071774513,0.501543464018797,-0.057473524569526466,0.1327367654258859,-0.20326524132300242,0.4413358804130016,-0.11838370355565223,0.6218785769388177,-0.07023060240150303,-1.5196336162889383,0.26666865731237904,0.21519603014946734,-0.029764288177631402,-1.10044227280203,-1.3563011663654942,-1.2133626572982132,-0.12078966047304975,0.3982546301915435,-0.053932818336628094,0.21608663355438404,0.15355809491916297,0.10317889466397435,0.03953249964418745,0.0592718390936376,0.08852804031039792,-0.06278437737175636,0.2722862684849606,0.17331705356990001,0.24038258875961918,0.09441396147653565,0.21280881630505658,0.04509400251780698,-0.6676444529590768,0.32411005532724646,-0.0227778038188228,0.22881110508146293,0.151838912767882,0.1673756475092304,-0.01905885149605123,0.188427189560262,0.20947054819889327,-0.8490291113997152,0.19302313738847784,-0.8093145511126235,-0.3014730519218765,-0.6343888137817545,-0.3991808200946626,0.8665825935561817,-0.5751431912460384,0.3901382447590816,0.30541815652926635,0.31975163508862753,-0.007713614488556692,-0.17694203667655803,-0.1251030028361473,0.09562297343552931,-0.2230735589762602,-1.0669448090371076,-0.2872581841912793,-0.017144234099397377,-0.7078619159595804,-0.16443080322193931,0.6357673898697428,-0.6206200293796565,-0.23608877158664607,-0.5175301696932854,-0.19551088428776559,0.1012347955328975,0.21242276097484866,0.4665918830138039,-0.043631729279686136,0.44074580784325945,0.3123798260352299,-1.280155278886225,0.3685139259528757,0.19651077798016478,0.08354238623302096,0.06897499607163035,-0.27113916260536214,0.0049626046644561115,0.19277622944597922,0.27519847598844455,0.14560652155086057,0.349157787127212,0.2679445293568042,0.16898200459233434,0.1553557346052071,-0.2332811169014856,-0.055009653517918984,-1.48530715316164,0.017804090779871763,0.14412809028771262,-0.36973870072680903,-0.5815797270162699,0.3371219501069993,0.34753965836098744,-0.16334699180809917,0.3481449990546768,0.45027169099877434,0.5302651157907553,0.4602090955071374,0.14948383872199325,-0.35902343549804355,-0.3008044697766405,0.5614021549276219,-2.056047140446994,-0.6071390199818111,0.8022688795069981,0.5304944052982628,-0.014763479033491667,-0.12827478044184257,-0.1628712772308719,0.2683547712324464,-0.6317635502064444,-0.2396735399114815,0.49466495802481525,-0.2105295987537168,-0.18700624693361476,-0.48416475016872523,0.1379678700315045,0.533148640802263,-1.3197231151931301,0.24420849088213648,-0.641296132420245,0.27019413193517106,0.2817934850915292,-0.10158356146507845,0.30908812585569284,0.3559427828377032,-0.4632022832488732,-0.29050144684971024,0.6633446942017669,0.1952499673637499,0.03283831493442561,-0.2093213579634585,-0.3845482292377784,-0.570083907659713,-0.6902851603236762,-0.08481232961108025,-0.1389958729760642,-0.2409468129782316,0.6476447725083042,-0.13396648147326035,0.016033765028355924,0.442660032454335,-0.7160460363171969,-0.311598968209881,-0.011209350267246763,-0.09282339202776438,-1.2233188957973737,-0.16617513038040682,-0.11504895403901469,-0.13006757747973202,-0.6298638282610365,0.3109077579779172,-0.13534579395767887,0.2967801593871639,-0.5555299291646973,0.6033665031959294,0.6850943549377264,0.21209854506167905,0.04642369889435994,-0.20591581457398384,-0.4021396148492612,-0.06892741284216983,0.2859028351223878,-0.3054385022185197,0.49477159258303716,-0.36763673655599904,-1.3882069542550184,-0.07437543451953835,0.2563761852560899,-0.12799082152658275,-0.3384725709743585,0.8239465446222813,-0.2977062211319422,-1.4445327099662033,-1.1633760742069066,-0.2530139195910388,0.29160510779062454,-0.05475327348853918,-0.26150382761136304,0.10869719192073651,-0.15882933475375222,0.13248509802420796,-0.45954132523141916,0.5557441159840478,0.11701109968569319,-0.12051749348020697,-0.32699049618989773,-0.34275699689411127,0.3577407437246902,-0.6851490436684062,0.01800137450449397,0.2028543562224395,-0.5561766161838954,-0.0908086777044389,-0.03673076732939498,-0.25905600575513604,0.4221378081511322,0.39096838291242814,-1.366542271759437,0.5830067040548345,-0.3419093117039661,-0.27379024697769605,-0.10953547807483555,0.46894875453290474,-0.312357972954013,-0.1079365557027702,0.08923137896703232,-0.1505140348795455,0.1395606130595159,0.24887917348405333,-0.31040396396806874,-0.28778741968965593,0.2500927487639075,0.2542554656335402,-1.3343478670312532,-0.04475623610941311,-0.15833679408437762,-0.23106584817796105,-0.02289255756396187,-0.1215840701967937,0.2983474082274238,-1.3121353711008752,0.2628265020380083,0.07646344465934117,-0.3031462524836118,0.3333073290104369,0.4845382490420886,0.11475181329383657,-0.7921009617455553,-0.1714271576406271,-0.8698175935118291,0.05414786756336981,0.04820713105513474,0.05798482178096245,0.2587223633678227,-0.007191446846621466,-0.19809104279562212,0.0991667088242597,0.3049385841100451,0.021990088040552597,0.05318380560027035,0.3852521573701534,0.028278927141464603,0.27949139620765034,-0.004218203023491869,-0.3899464010326781,-0.9220744544180671,0.09847666881815108,-0.4637163123044925,0.7597835264158711,0.15625095209439974,-0.1804879179468445,-0.29284428269840146,-0.2421591802520469,0.3271523979989713,-0.3621073789926384,0.4780471079597677,0.06764741509044264,-0.10620540385707455,0.4333920487393165,-0.07798142893491579,0.13257378898800504,-1.2427169200680395]},{"weights":[-0.7353009299907113,0.13600169794731437,-1.1540983961499895,0.2666142119497056,0.07528987103398142,0.10408166910871049,0.12653428595152819,-0.20860801802367615,0.09715213580480782,-0.5111799555377649,-0.07017603731111628,0.03758058939367417,0.2774715591366905,0.19140900341780032,0.15297323013675268,0.2906222211198529,0.19164897520986432,-1.012103706150039,0.07412348276653619,0.1307758658635248,0.2874673221838731,0.05101455184475386,-0.4187968769155382,0.18968651580848786,0.10992183972024018,0.240852156818802,-0.16904410786290486,-0.028651635647697574,-0.111513098897191,0.3409378037561049,0.12823641646395856,-0.726525071127109,-0.1423222173576294,0.21428808690936468,0.08647105016360636,-0.11834688844932575,0.28337952967029717,0.08466731740118669,0.2236723978858062,0.3928907973485205,-0.44376729303191226,0.18784436932910833,0.16486508912828773,0.18870426380514166,1.3350692096503822,0.18552747282653717,0.12952601374074552,0.3066990108273554,0.034808838888399765,-0.20605457958996062,0.18354334998822394,0.03633707745417774,-0.005404631551150986,-0.6108450044141102,-0.7393056724769229,0.30760329783021684,0.14404979415299304,0.21572659919189904,0.43363049251842606,-0.21167161856765287,0.5826296317619879,0.0037267149568663543,0.2223821530277875,0.5051420289324251,0.18694229442694724,0.008872711124649586,0.024588335981303572,0.2668451029749783,0.15660968687258156,0.013519558665594266,-0.21213978548513376,0.2671166784111632,0.2677774626166444,0.18450145598134982,0.12075024863588212,0.16688479969908565,-0.12409630498616907,0.10845280682497534,0.24827276825779007,0.023478403361985433,-0.08874482368231361,0.0368009081203938,0.0428501530893766,0.09144039259194262,0.21928583199830004,0.16798333932315027,0.1657463190679502,0.18768797817685245,-0.004830500262590271,-0.29461154857668675,-0.5022321029074791,0.04371407860832316,0.10983437323436712,-0.2750978908437986,0.2795014638659026,0.1261238586163074,0.07394499261235846,0.05263328040123964,0.023833051448833003,0.32478297903474507,0.4239088290069202,-0.0673954023994425,0.06747856030295185,-0.06992535009534925,0.02366710320479198,0.023183283354495144,-0.03458823479091605,0.03449601745719061,0.02187618176381833,-0.14491380963295306,-0.6188584169663932,0.09413666089572563,0.03534400880681253,0.27261493512102625,0.0985173292151063,0.595154742436569,-0.0005338619922701093,-0.05114394478347704,-0.11049384477941725,-0.01470779912908423,0.04114467528878447,2.4225352469474024,0.04912008439560103,0.01580047443717622,-0.21297531928415403,-0.007771168779170318,-0.05557008926548255,2.8894645725104824,0.1937457779058573,0.26681026692429144,0.01278977220720149,0.009629827314344733,0.02176120044356774,0.06300151422278039,0.028168832877518483,-0.029557027965922508,-0.06588725350189115,0.09543379462887835,0.01674473535135553,-0.021256025352734596,-0.14199190466718922,-0.03465227955662587,-0.20120565916399855,0.002662301332772413,0.01891705917874028,0.6659459096182829,0.00373406551813234,-0.025244059475145412,0.03792075608652936,0.055945940399140554,0.1683273093906853,-0.07451515402333009,0.02081212918445183,0.003516392299635503,-0.31824542871587774,0.05179860123689512,-0.09817005610224022,-0.019248237513466507,-0.05314791282561533,0.6583744642565411,0.08181903828898805,0.22178742834509585,-0.07702310696982725,-0.25747775568311493,1.5848890790684862,-0.04489423845832898,0.009495985566019192,-0.13581230322763063,0.07264424554623483,0.05273234820533909,0.09421383119110573,0.0985174117569788,-0.15723179380554303,-0.021789442460206244,-0.03095122475564633,-0.15629991943700797,-0.3098212132920783,-0.008450324738637419,0.01696976458006293,-0.03306879972300635,0.0758164669756254,-0.03932723823447084,0.1303739077132037,-0.05650093570302828,-0.05003595974144503,0.15892946290226156,0.0876352632488396,0.2086558763223723,0.1254942420636761,0.10601898498318275,0.15843895887130727,0.022311667327917898,0.017048874232882445,-0.5960736287231571,-0.04466196460964141,0.13010856539149265,-0.096129872908541,-0.14893905289236553,0.004332101425759459,0.048153705723910735,0.07914986550151555,0.6856035678338268,0.03656270131626805,0.0844985791203426,-0.3430242806091497,-0.33783339694738135,-0.3760557770514159,-0.16137523210307295,-0.2285553799591781,-0.23099390763009814,0.15022391480182792,-0.05078778595329922,0.04236870270810831,0.05828318602534647,-0.019599082809480986,0.023003231687737387,-0.1556902998865774,0.09466884378207398,-0.14533420360686622,-0.052265992309469295,0.06939883807541164,0.059335736142647484,-0.25543578710880915,0.11498854717546221,-0.17344265719732552,-0.21190785708340892,-0.15367509864240722,0.13950338294347822,-0.22820110409796968,0.11720101828413064,-0.34306688249984635,-0.2660436653093538,0.05960141077755677,0.05640571905286139,-0.10118918047599475,0.11776423831887907,0.057936762201937275,-0.08691570581535232,0.11578816761962236,-0.40713949962654594,0.11111293642766307,-0.2614189655280215,-0.211247190957138,0.07058079236811766,-0.07033888409345752,-0.13058485823977084,0.642439440540177,0.05380226946905502,0.15246230772247021,-0.3079344315161954,-0.2086186666538157,-0.062029368117985595,0.06068801758324787,-0.17369279042742206,-0.2701713785005479,-0.0454963046470416,-0.09421432674689989,0.09872263556688805,0.050974302227079375,-0.2205998264037818,1.2737529613876934,0.11716561935588454,-0.02518384215042918,0.03324155702918247,0.09092843977256145,0.7143423660723537,0.12051544809629008,0.0014391217497854358,-0.18564144874019003,0.10792292586418493,-0.566788720166766,-0.25259837142899205,-0.2624513245491046,-0.01874263722414112,-0.042376449832279145,0.0691882177207226,0.13110309655346533,0.13608763781489416,-0.03287858448676754,0.010365569690425307,0.03876288435808335,-0.08462846148502598,-0.6447229367907734,0.05412410533472076,-0.05895497322290953,-0.16727864424450195,0.03171437614453498,-0.02189898783946734,0.034910042073504545,0.16471564102219485,-0.18006607593220292,-0.23233114365128676,0.10657914369028258,0.07282581034424417,-0.003019164760741461,-0.17729307924636215,0.07270779604624349,-0.30992213246717837,0.14150120457827298,-0.2223877817437522,-0.10709311986650567,0.005965239846007651,0.5889479275087055,0.10863635643316946,-0.028147428382249352,-0.24466158542073374,0.14321354759676558,-0.04678345949917316,-0.01345847581501342,-0.07591373242266043,0.023245952894028712,-0.03960874165900051,1.3175723918540188,0.07500833008377719,-0.15506471586551446,-0.009659046031296501,0.1093092165095724,3.0241302152583165,-0.13365869097674465,0.08088868993175807,-0.043255235720775595,-0.23590266363376683,0.0010078907499158367,-0.006606887237409197,0.014032921089656671,0.04642003065146542,0.11101344665196768,-0.013663516841875181,0.2927906727837776,-0.3047923257078847,0.15008623897941586,0.0447548762485302,-0.06509728568468905,0.19141383619174693,-0.0413045820881878,0.10924831780562218,0.031168526316008898,0.1049023554188035,0.015599888609568503,0.10822240697542847,-0.14373834267785893,0.013254273385476323,1.5888058636740667,-0.033225863687856544,0.075321586095405,0.00704555689140381,0.038482839972112166,0.5955090787685694,0.040658447570295554,0.1155148509437442,0.07135547276541503,0.016080120724614705,-0.10494790964095291,0.17007393632192408,0.0018517694028879856,-0.028858157199985506,0.04203496792315711,-0.138671703367842,0.13528698754203852,-0.024035473430069215,-0.012461560918869016,1.5082107161747704,-0.05429357450881844,0.2930908431076736,0.05819329545491626,0.025299252474063876,0.34843934758253553,0.08223234607634212,-0.017264721946065726,-0.15456952174221414,0.04233199479754521,-0.06983021922799923,-0.03428670575751074,-0.09105739303233865,0.25118731910222836,0.049179742822995275,-0.02314694867305515,0.10206973854874413,-0.01703380000966654,0.03547660968901252,0.1841788736410484,0.08123791002106756,0.012067821107126751,-0.009466864391039961,0.023556373957450277,-0.031782189500277544,-0.0879805184473195,-0.036682918033742136,0.0708840166410742,0.07310325403000059,-0.06548923548864923,0.04501705785405294,0.007552507071691695,-0.1418351795197207,-0.21511900288671681,-0.09941042212692423,-0.01963878260204464,0.00020534526509265852,-0.1397700352599958,-0.05722482449320773,0.036426599607378,-0.20504102248830697,-0.12305502607862712,0.7098537258691423]}]}');
