export const data = JSON.parse('{"layers":[{},{"weights":[0.1910566584668762,-0.32195112119102537,0.08002697016205801,-0.4042208390639443,-0.4692872439270797,-0.17846457520769346,-0.3133333634619527,0.4147939608017126,0.1323622065714958,-0.03131137486426303,-0.44460148039465064,-0.06975219282843133,-0.26336412657763547,-0.08509694853151874,0.1090757470087533,-0.4070361227556164,-0.4342612385419292,-0.48278170029850465,0.1025374012010351,-0.17693736467797017,-0.14717761857383083,-0.19257642237476968,-0.1565355981350246,0.2832830947323903,-0.34461872037992414,-0.09326473037291842,-0.2527858169738545,0.1836134234537559,-0.039054736084157306,-0.23003671269248308,-0.1144785941270818,-0.4378117294629704,0.06810668283521333,-0.3118229473843713,-0.2475191217534329,-0.012006652151734916,-0.36421124891809786,-0.06443979692980484,-0.12429996291713946,-0.2020511532123477,-0.23746747034616256,0.060874551667047236,0.25131431419464423,0.4986319741011756,-0.07332059162252756,-0.4847154294813956,0.10167012622573342,0.3637104027396169,-0.3407542647490159,0.4219919757174015,-0.3368503249740133,-0.2174790997652852,-0.29510442889450356,-0.5235253332598163,-0.36083337175444524,0.4589057863428738,-0.09079316961896435,-0.3429581178784073,-0.32667722766337337,0.3705982233330238,-0.5019761537426195,-0.27582966521059615,-0.3155691785674603,-0.4066798910638359,0.24515037542057747,-0.16927896242444734,0.34590894678269263,-0.013246816962323393,-0.3353940756514036,-0.2983405225122462,0.1631683024068889,-0.2697054803821218,0.4307294505591477,-0.05278516774333524,0.09536034265059083,-0.10856040830264721,-0.12218473291212366,-0.38394902923536234,0.36051052432540703,0.02937100680625068,-0.2122604537332202,0.1529690075926092,-0.05662665434861538,0.14428378920591284,-0.020327539939618597,-0.20396902105507278,-0.09758779525404877,0.44755289545542976,-0.1307243376096924,0.04305154736396536,0.0019906292261939362,0.398028805680894,-0.19686555870497996,0.16339084219318642,0.47356347307616703,-0.5197856391779,-0.07268158706315901,-0.273985678616731,-0.22131523126548,0.08730595019813389,-0.3295178112965253,-0.2637076445955512,0.13978156661732616,0.42389690447489875,-0.06498104604450962,0.26263777046882997,0.07992419441947153,-0.031353084896225944,-0.11445714338820948,0.022660732791865947,-0.13208782313817954,0.3107679710678492,-0.1617911756310382,-0.08452340140132437,0.04377159090607014,-0.06055138122217943,0.4617723541939473,0.23766774264700197,0.15210696994596754,-0.448824555765643,0.1642676030713409,-0.11318130560639234,-0.09225359117166153,-0.2888962422790608,-0.022132702130091515,0.19829047383964607,0.05689021620987936,0.3291820437998381,-0.056631048614658945,0.050053410519497354,-0.0916419316996455,-0.4571110153415815,0.2740407197441455,-0.17942058639712316,-0.13431934988587546,0.2947413294034159,0.11063352989224637,0.31544066192386405,0.5185992183217943,0.05422756204906198,0.1326639929969444,-0.24007430806682248,-0.011802348757527578,-0.13229412612707073,-0.29941623230664494,0.33295984548873647,-0.3522661189261577,-0.2901756017590362,0.27560566666204717,0.12380403970353587,-0.14195421806348005,0.3004408933707109,0.026728852718438337,0.26754590327079286,-0.2368005159056812,-0.05747371688611307,-0.21075738758438237,-0.22432731242884982,0.41613295572041986,0.18239369777961986,-0.3533695465104411,-0.05018075029175495,-0.2204459759382727,-0.3765711075743397,-0.00930572264139407,0.18728687303579547,-0.13228052139742158,-0.1027615958410891,-0.3986489907990719,0.04286172962761452,-0.12039108323543618,0.2789438095722537,-0.36201656307748314,-0.19943070530839926,-0.3631877522435797,-0.4489318074942107,-0.17626580410644424,-0.01754621651737248,-0.22762050415537088,-0.4168878194924835,-0.4899891957944113,-0.07276562142096363,-0.1374587680361074,-0.025025716610840232,-0.1210321890652298,-0.11760134928302243,-0.3455168516256028,-0.09555364508344737,-0.4947808533132823,0.04973420890488745,0.11097284727445372,-0.16109808102226145,0.1794478035879565,0.2705939449790543,-0.2058163035443929,0.21728314918063468,0.19823752142361686,0.02120162255609207,0.44115412955667876,0.04548916639954798,0.21819879683052423,0.06055404712408486,-0.4867061567501655,0.20984535057258694,-0.5159596526686608,-0.0863590309612734,0.0945759444046329,0.2622711998024387,0.016548189377484254,-0.07580322125076247,-0.07940295344462109,-0.0031115234175437176,-0.2792358203251343,-0.052138787488012824,0.12750222226227545,-0.12895025542234217,-0.5006197749138004,0.035792305069255494,0.3673452189205642,0.23678101974722696,-0.00716752248868918,0.04846188082460829,0.12590789019113047,0.41624082638312593,-0.06879325090714221,0.18747913323414914,-0.03945000203426172,-0.14098657461131972,-0.4021197724403772,0.03382530241803044,-0.01342315397590461,0.6669304223060666,-0.0231101616908335,-0.15214260337012725,-0.19934347349823506,0.04270057432705922,-0.21559665961141927,-0.12199936252959412,0.009484270037800282,0.32233301421150046,-0.14323762869879514,-0.2571488552131697,-0.44651496821603004,0.1317234438545099,-0.17347983495253877,-0.284658144849512,0.5313066803812129,0.11624582429219898,-0.06584823951451675,-0.2315623635611361,0.3998482608545452,-0.06357832251301994,0.05364458242265708,0.227744522032469,0.4124175617610114,-0.13059091309305979,0.10655819868881258,-0.04307017689163536,-0.2522126155371006,-0.13486722203755924,-0.20731172748810828,-0.024694211426208455,0.2673720674514518,0.3052218047391583,0.08414366916554614,-0.4572577773179154,-0.39134787627689177,0.1779360854295363,0.13716383090139295,0.44645550641376974,-0.05781179084027203,-0.6659366280278785,-0.4138448342157027,-0.14475306360202092,0.07816912812247563,0.008413950950306759,0.029023548877422933,0.1415922431961333,-0.015285352393215082,-0.4368512657276682,0.4588000767211665,-0.20758209053526822,-0.19825868765293558,0.284240268774566,-0.017035459668809885,-0.37121351763283306,-0.3979210456977473,-0.4066831776069686,-0.10858777809212194,0.013658351221349457,-0.2823668992348493,-0.19771329732543366,-0.11745757134067134,0.15892683163381316,0.028538962374180424,-0.001372389429935348,0.11888138667100212,0.5335836925101742,0.01520139063957805,0.1367720794834368,-0.04875432812922803,-0.26847055755143173,0.32043583486724697,0.21583434694747575,-0.021227527807818662,-0.11602686548385249,-0.15119557958612934,0.02062867691849288,-0.17921509294952914,0.27740521349650016,0.15791389466681804,0.49549888525479746,-0.34780572951748634,0.17415620916398905,-0.06666952318861917,0.44464452382908654,0.008954553048836541,-0.08132619102436306,0.05061191866326415,-0.01694214823411155,0.06533390420927322,0.1578710749032804,0.2409588920758723,0.3130331055187288,0.07595485901297631,-0.4376810201504277,0.05237300918333474,-0.18627755725843337,-0.28670448135750065,0.05303817143294554,-0.06620247244450903,-0.23993773556569192,0.04587900257568632,0.010861870791743871,-0.13322288984532518,0.006086568397758009,-0.3519024631523774,0.0980822254560771,-0.4419634654168053,0.14966303017418003,-0.501473141484422,-0.35695787600863504,0.3139244323893474,0.346716561978538,-0.17612957905462578,0.22833883295272697,-0.40181697202442074,-0.32498071011734364,-0.5543893375940064,0.1976303080987388,-0.41330779603314516,-0.36540873669033647,-0.20700698341821655,0.11676937382816623,-0.21275095559369456,-0.25680653349342036,-0.09876534970938816,0.09075023423908882,-0.3878795048732105,-0.19418424644927723,-0.13114169258425354,-0.12586198177870406,-0.0930132747708951,0.03173375873849657,-0.11257343923073207,-0.39149102082756326,0.0354233314987649,-0.2756776351438546,-0.09978626332041582,0.025439723623846593,0.27415898715964687,0.04435484012958736,-0.19470353500700047,-0.5785876911313506,-0.005302238668951187,0.0386124087196494,-0.10333067709273475,0.029628700816880446,-0.35185323560016046,-0.20567888282772548,0.08247220308850717,-0.2678659281864418,-0.42245779811497103,0.15905964627545374,-0.008051194545717321,0.18283747960122665,0.13031420416626444,-0.13372029234005156,-0.22141426312024276,0.3869781759000975,-0.10606363086451001,-0.41927181438469946,0.2464319352313546,0.024848407886766066,-0.17421614497491186,0.2151086506353262,-0.04413622368641272,0.31761186652607715,-0.3631742212537327,-0.5730751987097253,0.029412178749215846,-0.419083507309481,-0.0203347954476275,-0.22935705783513052,0.28060648761611756,0.2971244185103772,0.1198207601137786,0.04584562204836602,0.023596999609225698,0.07715217266527397,-0.0008950247243294328,-0.06176297062643771,-0.02470251178464643,-0.03227156307198763,0.045681613761602735,0.0692443717590636,-0.03815244730151382,0.048994337813605036,0.05195758679892446,0.6401729576316589,0.27353934733102475,-0.19590857928071825,-0.2325275542315206,-0.07805365747057863,-0.06835868386648242,-0.1807587082027589,0.009557843377261017,-0.07639435153575586,0.013743628338346914,-0.012357575962850718,0.07213982433953303,0.14806294414782561,-0.25187084151283756,-0.31577964070331954,-0.1758016043337179,-0.12085146902348812,-0.03865836178837552,-0.010174519589947759,0.5821889071540818,0.17925273313305085,-0.38748854712772973,0.023632280117665244,0.13138372286350306,0.10419940777177876,-0.2687783001523921,0.1378674929306586,0.23653978993970418,0.30809470517388954,0.1168083936577645,-0.31958274483687626,-0.09402612829160974,0.027305947046983515,-0.387225392031467,-0.008044350471554274,-0.3399063174758854,-0.29939552110285705,-0.3002002962081371,0.31458011026426497,0.026631152365170076,-0.07025949762123644,-0.1437136437112463,0.04656207468041099,0.02279226114214817,-0.5333671077668768,0.05196999608170702,0.14470983905678708,0.12807870662677545,0.28809356753555254,0.25364493552352246,0.11518743811171184,0.13409491108016197,-0.04677984513948,-0.08119023416953527,0.6222235202756136,0.13505797570631217,-0.11233705958230612,-0.15416626638282974,0.045948269196172266,-0.1346673261152579,0.05732135582114021,0.15616649142963937,0.1935873903756186,0.15201022819196136,0.2855140365819658,0.25926090204489727,-0.07848639377991393,0.20492337649753448,-0.694881781889085,-0.2168357651153045,-0.018646060829565016,-0.26369929605174547,-0.07222149001539939,-0.090066021462776,-0.007337315918835313,0.020930522041405292,0.29370098392905103,-0.4781115139689673,0.20859700218662183,0.1738666112570244,0.4520232302692193,0.16695404384229998,-0.026592813990557747,0.34932668006836004,-0.17847102962521064,-0.2759906509687946,0.21402645743008183,0.3857065787719424,-0.1240147286786815,0.22768123479439303,-0.4665270072547507,-0.319024570655102,-0.3084695377393862,0.31901404451919846,-0.022463216143217436,0.10596908337294159,0.14539216472218403,-0.10516626258285539,0.1670649679085433,-0.17674226110623584,-0.14420556220732925,0.018926599573374864,-0.024802489517235918,-0.0223423357512316,-0.28332501808334964,-0.6018925567241565,0.4971435605187596,-0.164857451211319,-0.3769374424104855,-0.20732403046851136,0.10409949900158894,-0.003939851776268129,0.03038273584370579,0.3057624324459352,0.016813053575292163,0.16564828131484033,0.6953301466361568,0.043641600982737165,-0.012576303196748394,0.15661237329598904,0.03285315991512802,0.01631893097601651,0.11562962151350907,0.22213707047500822,0.11010586643223388,-0.33971812221231773,0.08279973999950288,-0.04126211150729399,-0.012944327323141977,-0.012465041263511778,0.25917633421443925,-0.08561378167297234,-0.1308470520094281,-0.5020408333376288,-0.40649552923486765,-0.02511801333509667,-0.3984983625756589,0.14067687659600267,-0.016892451837788737,-0.0746219723738031,-0.45228818663479076,0.03598550193166736,-0.026010756917170905,-0.4008664200359009,-0.07248658465374294,-0.5453113884308558,-0.387320829566327,0.2259437288271428,-0.0668502091848772,0.6085220107926315,-0.049786346327527195,0.5553098636152404,0.21864853339864837,-0.06763048533394399,0.021933022035935026,-0.012713587624103594,-0.5612523093469945,0.2794573778416522,0.3224964143036842,0.30960719307492707,0.042005962876010515,0.18258256483956062,0.0561078666884793,-0.12850919277770595,-0.4456338626553367,-0.3626199541414641,-0.4362503696459651,-0.10560956364296865,-0.3304077958911399,-0.29824510491219103,-0.2895789878195683,-0.221455123117764,0.2542304414879657,-0.08199485490470568,0.15667617452854193,-0.10413683264826816,0.06431120723860731,0.31088777505144316,0.16183748158930336,-0.1301097445548281,-0.5274074542572093,0.22588476151528328,-0.27271070155396904,0.05981725689058042,0.18382291450742838,-0.08017020297501998,0.03264159631720028,-0.20531013708097834,-0.23662830344636243,0.20701934102928712,-0.16523748525494114,-0.008739567378058966,0.019548492657399417,-0.514492157388569,0.06824900769013216,-0.04513630273967906,-0.3999831537436315,-0.04892890658240531,0.12902315647660342,0.397494429277345,-0.05955016515842024,-0.2572677929290801,0.17338675533359657,-0.06756792259357142,0.40445535812124916,-0.22520788069541886,-0.37930205480824414,0.05835123021500446,-0.09173241931000532,0.0813573184835501,-0.19632478654477778,0.2879326302521019,0.05707310713154493,0.08985573514941499,0.38372232126330263,-0.015227275772736285,-0.4182620276327474,-0.31154945893807284,-0.4143056145338072,-0.292634602324667,-0.3013313715983885,-0.03168119717240893,0.07768982722958769,0.029979583052223993,0.17052553997872572,0.17842640926030695,0.2595634245803607,0.26790286894757065,0.10076954780007605,0.011689471878285866,-0.404990252700983,-0.30827032783682157,-0.3508811974156546,0.011788977287332258,-0.09775481244959117,-0.05723941091011315,0.1404749164338654,-0.04015847695937291,-0.08701248135439157,-0.10954931520887942,0.03446128352983458,-0.0708148074024126,-0.38537208577502313,0.2065131357251,-0.0913054386723587,-0.37545703637997707,-0.3359546818598151,-0.16894656884113438,0.22357915348146837,-0.3618544466018387,0.367230914887516,0.23001069635949917,0.3653924022554032,0.2288452783112374,0.5108221265358242,-0.1138073678063775,-0.125394320976258,-0.3276765146054519,0.2469528356580199,0.22358469852255988,0.10678188055777318,0.07599032540793303,0.007834690411812308,0.10417630594883538,-0.1819729102156958,-0.1272775583793759,0.0009582259822158123,-0.08199263666805569,-0.18670942970539625,-0.20954245017135706,0.029911048631526917,0.10351575371044872,0.04318720640284586,-0.07410747875189437,0.13385329305420057,0.2996107842701879,-0.0655708615891039,-0.26146488104286775,-0.20253911672224503,0.32710169758717206,0.09689792185074264,-0.0989470043841598,-0.2374465651300471,-0.49611946493819253,-0.0916182727826902,-0.5072614310693905,0.11075730479546407,-0.21372813338255509,0.16869000314653188,0.41563834345741113,-0.28118285095470386,-0.347103159497258,-0.3219198149863623,0.04152648510546872,0.09709001060092949,0.12627380392204496,0.21273768470915838,-0.031876111737073304,0.22236625888972425,0.20857468763904669,0.14614367202721865,0.19427897637537472,-0.4529071125141321,-0.1254847180833827,0.16724009306814186,0.5286184725247826,-0.11313340760081925,-0.13393906168905406,0.305688692541427,0.38120724503849973,0.08262190392261619,-0.3802945653998234,-0.13590681834890359,0.037365188499125714,-0.2975033463203459,-0.06916629171831168,-0.021378612648814396,0.18801150703795239,0.1399982672627389,-0.0376694026216051,0.0788356079295752,-0.3075989648503863,-0.16425418208977,0.12843494030809213,-0.1650130982068501,-0.05413848280956577,-0.40677326389721374,0.08148997463457552,0.03627861276066191,0.2724997045150206,0.1669041116102668,0.34661380578295486,-0.24034497480583766,-0.07448106732831006,-0.1035079160198599,0.21606492797928736,-0.1245801727247732,-0.09311954809413726,-0.34110241293455684,-0.48215804408964014,0.44683786639313045,0.38161638159578026,-0.24692256206975324,-0.41611124154613705,-0.14008206858227154,0.010779695616201367,-0.2792326743886955,-0.10703215459594895,-0.6333923249840685,-0.00389156443308706,-0.0006597605748418679,0.05525770673338717,-0.00219746582025734,0.4774765843673023,-0.12032935787202376,-0.08379160197866359,-0.4830076314268341,-0.5725668695015931,-0.04334836148616695,0.23934219227956002,0.10212515892206998,0.01298475814777356,-0.022065741209108553,0.07900468878836572,-0.38270169489769307,0.3815723147014213,0.28825752371027746,0.04494573511374385,0.0011800249670091416,-0.5306410306870987,-0.5040972015142027,-0.004074236822269127,-0.2174949398348361,-0.18433197602986673,0.1754022062647231,0.21015599274547508,0.046041610548558244,0.06467869251770408,0.02434982811283074,0.4000024308656047,0.08651511603866374,-0.48814701484702755,0.11724610930113136,-0.5115054548193404,-0.0832565070358069,0.13584753026635285,-0.28800864567209794,0.25418807243392766,0.21247930921271138,0.14229881582149037,-0.1576700754688962,-0.03398757071593748,0.034987345755479626,0.10916325224794987,0.2075032821713086,-0.01905699567611629,-0.32655177762437415,-0.14033508884205317,0.06006429752266532,0.23990334037750943,0.4058980482387938,-0.24756299330981754,0.4494773198654798,0.28435175406127927,0.2175089378055709,-0.1583188420692265,-0.0989920566856991,-0.48359470815612754,0.16613489822770106,0.06247888758164308,0.04965512093205631,-0.30061599225769875,-0.40711628680880607,-0.31076104914327024,-0.12104788711346881,0.27014789238092596,0.007628873394847766,0.2191644035845508,-0.37456927582220784,-0.18223395074538248,-0.031682932674303894,0.15611070656426346,-0.375091189257144,-0.3362444864141733,0.2622074819750911,0.12182513486505815,-0.023257169880634997,0.039851507622459294,-0.6343240096188801,0.05561198778917078,-0.09382872979020022,0.06491511866319986,0.05629082289948169,0.2423515207972072,-0.03571425302135371,0.3413300196862307,-0.013714857324797377,0.5065118507717664,-0.033388808925919874,0.5452978780805257,0.5060906613123898,-0.15702388049236526,-0.03900054440338387,0.04778996955698578,-0.4361744790214259,0.07043403479649177,-0.05019359519346521,0.09806295993889477,0.4599795630308686,0.3019922426719714,0.11741266177858123,-0.23638052451552607,0.39456563159079244,0.03685954880684002,0.10577939114284747,0.0920682390346204,-0.1508600507184601,-0.3246826349746814,0.03359999779458375,0.08293164953246521,-0.024435927465248006,-0.09644695765968037,0.16809316720268097,-0.3244875665813051,-0.2867683977833944,-0.07577008071850104,0.12839862854863718,-0.42027357433187545,-0.21116556225608274,-0.4394497869482505,0.012839682288489383,0.20285301036691306,0.08287882895131246,-0.14939992542798058,0.091320156346705,0.23056668784749543,0.16026753845404726,0.15300278687526203,-0.14013069317192695,-0.4166143196785452,0.24865189414940617,-0.16373050775339998,-0.19246838236456176,-0.005286187542553374,-0.1651724963022161,-0.22114393257591214,-0.28936171511423214,-0.13091898366534613,0.13460911498139103,-0.0016060051162154968,-0.4809602259853638,-0.44654982058042175,-0.4817478034292592,0.005147578182932789,-0.09324756815986983,-0.09938119442148023,0.42805276370111567,-0.17427428956988456,0.07474184467633432,0.29992989373121215,-0.10215190014694123,-0.06430570294599439,-0.2593264198920395,-0.2664606139397456,-0.3675800314787285,0.3140993043266686,0.0700547584557278,-0.10056913471039682,-0.6018270589049769,0.028937345904327758,0.028395522056182638,0.05718846150522729,-0.0067137607267418,-0.006271661275067607,0.17049233864311203,0.26209539796039155,0.011673703196280963,-0.14582753849539706,-0.011248047580724079,-0.08543813490792512,0.3648656896394076,-0.39227134119700946,-0.11236501868509162,-0.2829601864182425,-0.48232531296434344,-0.33148576640816757,0.4198748265454956,-0.09815910115998482,0.08067950201747456,-0.12379192496349099,0.2877102714245749,0.02601873979073716,-0.11844666171118924,-0.13678278508421626,0.30780049555779115,0.276150998617778,0.05143644847541683,0.13780136577798152,-0.06866874507997126,0.09098820391867551,-0.5337229088234859,0.06073062274873275,0.09206370245767824,-0.020642442000835235,0.30250366615961527,-0.06513568299703937,-0.22824135957511085,-0.37980074445960327,0.3623673250122351,-0.0535997023760996,-0.2804756866833897,-0.3152543204791387,0.24897993541651817,-0.2413900726377338,-0.5068865020058245,-0.037062969766035576,-0.08142581981479635,-0.1772837509673874,-0.3601294706202824,0.3437329449450005,-0.09857229046848016,-0.28576930497707875,-0.14520858459558592,-0.029547917565066164,0.370112247946241,-0.2857070672653786,-0.09208294286037211,0.3025282411783475,0.3138561403995068,-0.16291663023114336,0.035904019453762474,-0.05761506815908646,0.1532318499384065,-0.45165723792667495,-0.21304389843783858,0.36460649585618676,-0.31220412790936425,-0.3570098289599701,-0.23034594163239264,0.3601132681599251,-0.1965236568467256,-0.4513983184937742,-0.4333471033278475,-0.00868036675744848,-0.32053041333150784,-0.01797936336843809,-0.2830490241074674,-0.2874533484073473,-0.014310164040674705,-0.2543325092104591,0.14893976852808657,-0.046236725292692356,-0.07021632315875061,0.01078758816504099,0.0019422669454490283,0.11433097704216638,-0.5091170955422374,-0.17794413281351296,0.18839779614955088,-0.05210985605167266,-0.048462741318744534,0.05331164534874102,0.04233282200904383,-0.013699676868819339,0.5561111576397918,0.1291609657675186,-0.33449523677622595,-0.1880938566607319,0.1492323218894087,0.05034717490475184,-0.24122022756784672,0.38167391142873386,0.5746705914605766,0.12708860111229622,0.141380436635998,-0.17402780126768633,0.07174168115895681,-0.10787224613549887,-0.3517194423693229,-0.17839229564934228,-0.05091299889536021,-0.2696128706716445,-0.39435461743275874,-0.14568098155209097,0.06560641049782692,0.017903478431295583,0.1062173072079601,-0.3148837677211464,-0.20071110765608144,0.08591243532692593,0.19827478800207674,0.25167240573910465,0.31086236015320984,0.001886371415513466,0.07504259298474927,0.2798948176946232,0.2504185629433925,-0.11819114089782837,0.0702632490888735,-0.20398577479942623,0.07693791598451977,0.12377844720247347,0.16376934646121963,0.4725016265181035,-0.35130199582532345,-0.2583004468383235,-0.07769086268935324,0.21825738981212883,0.34922142304055115,-0.015978352845991726,-0.13990687916039968,-0.41708730289741697,-0.022193208036670572,-0.17340978573800891,-0.1965541619014582,-0.1926962183537482,-0.5801723094157798,0.03081382099213,-0.08363253522145257,0.4276199165208575,0.22932468791614707,0.04504561409581657,-0.33360783743500355,0.10117116785132974,0.1178175395888463,0.11712311599507642,0.19476929064816928,0.13417346885329262,0.025448696104771847,-0.3049745214801765,0.20421889958147224,-0.24231903214405662,-0.0025882323418716536,0.3391972801615105,-0.04070232900407325,-0.05922086622968978,-0.5412408985882453,-0.5263628572488878,-0.008873160902677375,0.34877026912547304,0.38026693151093444,0.02000433127367084,-0.3861315451178868,-0.5200436745969752,-0.015714032960027925,-0.20151817375585115,-0.1584234435512254,-0.023853905619816984,0.3324747431291597,0.0919099407019698,-0.061050708122694176,0.19552551857423503,0.4470474258391343,-0.13762211690543538,-0.19053785122652203,-0.2522457723840453,-0.0031603152797979634,0.06018162251123932,0.03298760935847283,0.16972704776998276,-0.44900050277078296,-0.039125630163312906,0.22985787368592722,-0.2885689570609181,0.5438003070842343,-0.30037815198333967,-0.3387147895082861,0.23736081391198444,-0.13561428941022105,-0.025933671447998543,0.3604232522297937,0.040386199837051155,0.20210208285904444,0.09232152041176006,0.25720590412379835,0.3265215482439494,-0.23686429348561108,0.01783189940118832,-0.1372430949913962,0.20604129586169356,-0.04446320817954561,0.021453316312434387,-0.01796378205139817,-0.3720108013936412,0.0101889155672408,-0.028621294181704088,-0.166180708231671,-0.3284107168189195,-0.38670701128298285,-0.013216995660598621,0.3214724732382332,-0.1174867048527001,0.022759075554364152,-0.027666731749548555,-0.17284590880662978,-0.26709746062504036,0.0026270592841653555,0.25590141408392,0.3201742924406028,0.1877357062690659,-0.2898062816649952,0.2533271227357705,-0.04267900820789063,-0.457214124514327,0.27360285954564934,0.04899964514787191,0.24707578887149628,0.18695678041517663,0.06150029090690552,-0.23412775997025298,0.12970984748585188,-0.04050574063095885,0.08192262373418589,0.2964882910369152,-0.15906816901068402,0.04135870110720841,-0.21912917540971416,-0.19583864359199063,-0.09156081973100709,-0.025962523443536594,0.09989406773356202,-0.40664946083219566,-0.10352200106117074,-0.2353486167214614,-0.08309586540413862,0.018560726724822493,0.216850561080526,-0.2089516570116979,-0.013973559357373181,0.20795666808640123,0.092096205706204,-0.4313572769579836,-0.026561116874830582,0.0844147007732353,-0.23171107415575,-0.42693231816995114,0.2643664218666662,0.35996181641229436,0.1722588237669936,0.4582677529750629,-0.14381173944604092,0.08964698487703818,-0.22564910062595192,-0.2522660978312159,-0.31258432039600764,-0.021768924713541637,-0.07333715214036261,-0.3105930470407471,-0.055918780456253626,0.19516102319029696,-0.14098409392059782,-0.46211967383244795,0.19311722678752538,0.06737677307070306,-0.2698698079780004,-0.1999153511361948,-0.4072284149333324,0.035267064248455327,0.33371570728690536,-0.31349639931890555,0.4508493165855241,0.13115823077252253,-0.22394834532247823,-0.3151062929905226,0.024448149037768378,0.08061300327133854,0.11829834976692875,0.13664407704678705,0.29066445392234375,0.0180043354316266,-0.20047845991872748,-0.09649556756893199,-0.01655544096400198,-0.4418752652422739,-0.19050684357727204,-0.36147945924337427,-0.31063338951237046,-0.28422119041885563,-0.4732640420948659,-0.1129751419176987,0.1397480624805756,0.4123269022506757,-0.06476086936767113,0.31916273492427366,0.09581438181491245,-0.30067091906220267,0.0726019436685673,-0.35789258543726216,-0.40879131663528107,0.17952222038250776,-0.08919971962998632,-0.06515521466366885,0.14144205010354377,0.18664230140190716,0.17016795711178,0.5070398361204665,0.26234516198944957,0.4093102521843536,-0.17542041612079148,0.02095234656419758,-0.02973765017518769,0.11767812838068147,0.19275936696683563,0.30134144333947566,-0.022534271355004964,0.30943890502470317,0.48028141466675395,0.17962839952538953,0.12233119090077821,0.029412364165625565,-0.3729135986889702,0.2360773751585429,0.2761165581482878,-0.3350863687433632,-0.27908953030633726,-0.03611920840555086,-0.5277735209089507,0.15484628910247855,0.3419426414197238,-0.1824390437870624,-0.4577783427342755,-0.14556865498089155,0.15821524927005307,0.1517236055708673,-0.10908685962911477,-0.18210623408853194,-0.1935850670807736,-0.1709752277517989,-0.4302959737026695,-0.31963124528687364,-0.07414297109192286,-0.4647096121689759,0.01418930053260064,0.0928927840267144,-0.23248517755933243,-0.03622189477794018,-0.40386690036828055,0.1388729787724024,0.12918102616310734,0.10802949513379921,-0.21096217106582962,-0.06348084487635465,-0.0755118843592427,-0.25505543882027754,0.032733780042381505,0.5581991003761767,-0.03975872582861284,-0.43505700558868227,-0.14601851019795759,0.03577619425249889,-0.08298251771790349,-0.08482651678989182,0.001188456182151311,-0.10459508815803184,0.17253062119928528,-0.22416744791363274,0.13828931110999057,0.10031008264745267,-0.34033474654276086,-0.08492353308782327,-0.3329392325396061,0.11668261881641993,0.23401937212083684,-0.5046795991857579,0.5543757720606507,0.22047720870509455,0.19246225353888297,0.43346068543006677,-0.134726759158028,0.326130017086748,-0.05634958243829172,-0.15709247740669025,-0.277836131136496,-0.08630926451847697,0.20635920191795443,-0.24849215386849935,-0.34465269916967656,0.07955916811387374,0.08822441486522312,-0.4369003797698611,0.2202290610772141,0.003241820601548784,-0.3370398740143835,-0.2648627146370915,-0.3970800185081736,0.029075317394109672,0.22803498259478466,-0.2677615042596309,0.1769888007470292,0.3308495517295509,0.24719113952414112,0.46111760938549484,0.03811972814097158,0.1397721320861348,0.16309368169576316,-0.11924017009693395,0.2050376883451221,0.18573114986616984,0.21479782383918003,0.41073258249374234,-0.5673918921359985,0.2782122779832007,-0.38629618488668327,0.2025983039544127,-0.008652120968270676,-0.5346177136908582,0.2177453512387244,0.44854034066778875,0.32941024943531066,-0.026706318830301008,0.06472798769749677,0.329452192230915,-0.10603456040803295,0.24507385161931428,0.09711902928402187,-0.11179557781742169,-0.5489920605416023,-0.10299899921026315,-0.27460885093033055,-0.12758385679089335,-0.1631395314239183,0.30952416452200643,-0.11910492707324771,-0.10212615582697603,0.07725506407723351,0.3801649344370791,0.4409322102707736,0.21009777659892181,0.3979291760380673,-0.14209477746086607,0.22825057242172916,0.352166194504252,-0.41494185503765657,-0.07745676062720024,-0.2845860199983465,-0.4462779225728986,-0.4226001133033967,-0.045539562789386034,-0.0008196772697072084,0.30310664955886657,-0.13474314822530942,-0.32772460236320433,0.17505469366787796,-0.015242139901051388,0.0246757357688112,-0.03881671942065778,-0.2483246294927698,-0.07232429390770288,0.09898810502879278,0.21033040228190897,0.16873093640844505,0.09264358727400349,-0.41670981764304066,-0.2793299697081796,0.16769453921574876,0.21390139651796133,0.034051070631298426,-0.1446680675728712,0.35209936257465735,-0.12691068488260315,0.3498170295717517,-0.022920685508108708,0.15242014969836132,-0.035442944689096194,-0.3163764561166054,-0.05735686607883179,-0.032250347333312765,0.03422212244992677,-0.04045986686023081,-0.03903712619264466,-0.025414277747745326,-0.4639702836888291,-0.13679541392111072,-0.07700424644718121,-0.1897765301097453,0.5892161857006621,0.15153660732488644,-0.6099443815432554,-0.3027557828140316,-0.012957090318657823,0.252168710701695,0.09578245829899945,-0.20769650148449573,-0.14890178312733726,-0.21482899599804564,-0.5041261194890713,-0.09353643189653593,-0.15300323900350735,-0.13778873763358046,0.12113096373963386,-0.23033214341892605,-0.274644135430103,0.09354914172218354,0.32873606494464497,-0.4926174783076242,0.14178420368375808,0.06470674279125899,-0.20949611865137868,-0.15401247312991306,0.018335204349399448,-0.35136090046001756,-0.13241298093448245,-0.37489175996811835,-0.3266042753505475,0.18221217476605248,-0.38842380775231194,-0.47351787094149445,0.05848389732838679,0.10359724687228807,-0.43460931765662203,0.018423369701399413,0.19681757527792493,-0.4673494323248901,0.21863744838548216,0.0925570723758014,0.1564667134834323,0.1990813011450419,-0.43972414361105067,-0.34701723634775233,-0.28149414228307634,-0.4656639842790001,-0.40852353446568407,-0.3724762921187284,0.13768494425454345,0.2826169824271305,-0.06941007822895086,0.1793937173161447,0.25458203385968226,0.25105123997644563,-0.09674896918285397,-0.18249889415852638,-0.05226082598919027,0.050730582204315776,-0.0993702960945159,-0.347118056459521,0.054934325842077115,-0.44840279083529083,0.5332553998670161,-0.0641977279058123,0.1355011290783002,0.4851259131244044,-0.21578790290101782,0.05003238414734511,0.11676861430329188,0.01157347960861266,0.2805220989196586,-0.30600717389526916,-0.08604559117076467,-0.31000265353555123,0.2746970600043867,-0.2930471377005942,0.15024348649013136,-0.2633472669648567,-0.43619634987715317,-0.016489795211485917,-0.1659785659716347,-0.2584797997691379,-0.3451216973704656,-0.19705898122730556,0.0734167785164827,-0.635364665604927,0.2568888657307501,0.1887025688084162,-0.20872151090874788,-0.44419550826757564,0.3116670610909873,-0.04708075288335535,-0.46578008998296266,-0.1665577173816901,-0.0010703979317217118,-0.2709741556767956,-0.24773423924040416,-0.42029860628540944,0.004678010987824803,-0.1131204501122399,-0.3206885010953282,-0.19452820370549065,0.10814767973432701,-0.20286613089757982,-0.03307841265496911,0.023060793118128125,0.3309777561641343,-0.13813859361926753,0.33673555339383004,-0.3468309582239167,0.037449481501922746,0.4866515709112752,-0.18548024113336173,0.34469774212256604,0.27142456951476623,-0.3277408671108197,-0.17305712473017645,-0.5073311832400984,-0.12034664821833034,0.11672952931323835,-0.1492882159140435,0.08467834243032336,-0.3368335444309401,0.300895902260384,-0.40091478295799454,-0.4259681959953853,0.14724130900194982,-0.32450349429039493,0.3328385275091883,-0.29195637643991923,0.09499469851836494,-0.05231697651141934,-0.23084249971815726,-0.5991087014077658,-0.16108092250738643,0.0922127382371134,-0.02943950871462923,0.2405398537703631,0.47214239802181085,-0.2234518946380634,-0.4790735181305488,-0.47344274336699793,0.02929255630470424,-0.292370011782266,-0.1196748782004262,0.2738050251367723,-0.25595368464198737,-0.2373479509234987,-0.1835585108304343,0.04370806479480228,-0.44264490004256973,-0.49341650159248185,0.29676756493370854,-0.32265780942538397,-0.40539366170834956,-0.23565376626346501,0.06986248327877582,0.02005002636730499,-0.453644551815004,0.26067062161848514,-0.31789956457466956,0.28573784266009133,-0.07282081629352406,0.2585504805530544,0.04814506967348753,-0.6698167014701428]},{"weights":[-0.3206957427136614,-0.12927251456830965,0.05865523378539435,-0.06317223228958248,-0.010411368682415063,-0.049723696562525115,0.02321594598010884,-0.14954255211796014,-0.09873390071661702,0.22328208091190993,0.28628075406786196,-0.10237465020916284,-0.2227654090399249,-0.11869148490743332,0.060148711051032006,-0.18384752666477291,-0.24355628680278021,-0.02876945462705135,-0.2997925479619025,0.002468984757970588,0.04532089687662948,-0.799605155300646,-0.42914614461458167,-0.16068359192721698,-0.27176614810646293,0.2352858029031867,0.014708039381747317,-0.39270032352063705,-0.1426017370781394,-0.35272552318705164,0.44724081512736086,0.04099809983001735,-0.4083105129170498,0.028803099917024563,-0.33566859748714883,-0.19939003310079095,-0.21844294448471596,0.510511661457637,0.17599649833040132,0.5252962269062028,-0.029967769509547458,0.36902982147686875,0.25268971028292775,-0.173106985610857,-0.25388038366015997,0.1075046519651907,0.2774207158321563,0.26994965223154516,-0.14202818360342653,0.03977574466514003,0.09973832408027626,-0.042486377734762354,-0.09513484741778841,-0.0978533832084196,0.16510700587743518,0.05422566953008327,-0.05494267809423441,-0.3680687197184619,0.3790301071480303,-0.14307142759610836,0.16114954130150747,0.0998782123562746,-0.28954287636976234,0.2590135184336567,-0.08048268857337963,0.34994997902367214,-0.2236529224250236,-0.050965399515866615,0.1737623697904946,0.0013264835796691096,0.16767507611826551,0.4016556270216281,0.02078214570783619,-0.047187536874042826,-0.12045604179338566,0.39482447703863466,0.16541608401143484,0.41316695859219194,-0.34964044161193986,-0.19514762601707986,0.23613125672082563,0.1499992019116675,-0.12116028165258151,0.1603975352929982,0.25267667888880335,0.18187241241241583,0.16735281813833625,0.04577797896435326,0.23876723831077354,0.08716705638209273,0.09964538794027449,0.4412553189327644,-0.3337119634402783,0.06953605573521753,0.07993900249537163,0.3237215891559124,-0.018333262578462208,-0.1925057467868886,-0.3096779548672465,-0.251143344394021,-0.016869573037822903,0.16725022230487835,0.14482281420499213,-0.03850840685924226,-0.03741092091085774,-0.03666461415693762,0.0041835796705528205,0.11797482840313073,0.08665229525515313,0.10714390741886724,0.04467779818338502,0.076154417213926,-0.26178070088492067,-0.017863702132461207,-0.0644968632845366,0.07895292747527448,-0.07428807057935646,0.03458928635210336,-0.01869391376338819,-0.022824675909405196,-0.08466690771971708,-0.04796163663759705,0.08315355548349533,0.3034217502348392,0.044091848022016954,-0.018472743536174382,0.2440843282105567,-0.26271190578866216,0.03927479019203532,-0.40482737421606957,-0.19696043178331396,0.010920189500495545,0.008494337794402474,0.015928949343563252,0.04703288931995392,0.025429958252118197,0.07339757447943167,0.08395910597228017,-0.07129447817455524,0.006736234590648709,0.031176818750324454,-0.07641239981039613,0.036768992419906624,0.01900486624649807,-0.101318634452988,0.04740673302270857,0.0013249391251875583,0.046536961228197594,-0.09628006113475768,0.15789003116181824,0.16631270011855748,0.042475601585268564,-0.14734437352196603,-0.41304135505848266,-0.05357619316368706,-0.07606161454236819,-0.05877605310209169,-0.3945934942384476,-0.2080023376719553,-0.117509763897349,-0.06524356085471104,0.055845536619597715,0.020746243775609827,0.11419665697190731,0.13048248236497598,-0.011781248877410614,-0.011189784342836748,0.08737220718652061,0.12651415125936488,-0.016524422186812198,0.09024369193544067,-0.062191856553975654,0.01160242244926316,0.03253088892535035,-0.2583225756724981,0.004786599853674502,0.18340643684704616,-0.07912181912956945,-0.04851928090645534,-0.19493993440280588,0.03792219523855832,0.4437689461821596,0.07172912414486694,-0.03986065992729697,0.07249760248779138,-0.0006292014140578702,0.09090992352364986,0.04641820047427303,0.018038843238595215,0.17558281469588322,0.07341602754337719,0.1283569967172673,-0.20536566482158367,-0.006242034905379679,0.021255683289785828,-0.3401843750581286,0.16861499914837638,-0.0033020107440643993,0.10115258988237823,0.11126242839260032,-0.01861734799670744,0.040870789444942955,-0.10421935170872373,-0.4548853113655408,0.05007262455393281,0.03518704696563845,0.006365013061529852,-0.018505475490521457,-0.11729972974091064,0.0975695063997692,-0.04022159431953049,0.006537951634400532,0.0508999178464255,0.4308259179869408,-0.00765422387857168,0.22194859734062242,-0.05162255729947266,-0.003357890172223892,0.10837125268990057,0.04231587106405983,0.02969213733506137,-0.14171621660090344,-0.045005405181613806,0.019361337781729247,-0.330827143496512,-0.017574102270909997,-0.10141224705204248,0.0023685330346634725,0.06889704045150528,0.013744250733611057,0.18975840926032464,0.03422596775251499,0.05535404123788363,-0.013663979255927326,-0.00042318746707171903,-0.21934900623162465,-0.16619017789363377,0.16999348982349705,0.02596877840019757,-0.029432023995221827,0.019977918430144348,0.025007242724265157,0.0479542713694705,-0.01963598140148034,-0.030934934528356568,-0.011987669476416966,-0.0001786307116523289,0.001608395182827258,-0.016788685889217947,-0.31662553094572293,0.27592960394235894,0.006936473554205569,-0.03984176703513145,-0.030526878391824917,-0.1990606313186076,-0.12802371471543106,-0.018081340508711824,0.01717033860194344,-0.036577906491317716,-0.05394268667630858,0.37038048477542934,-0.030177071555299844,0.008630659516277762,0.02484336926702849,0.020253810031598936,0.20561612120239675,0.03462427952477081,-0.03121809386635703,-0.0016729411861249365,-0.012517210399953311,0.04076266925572734,-0.047976177907557614,0.007430420328472758,0.009153419477677635,0.05521007873276208,0.0015267344054028767,0.0008554067522091184,-0.09305106927497606,-0.02488633617018786,0.011231414197210236,-0.003518338175756492,-0.0008173451223225296,-0.016388069282140684,0.08149805715788518,0.015133682198611779,0.0741904675856071,-0.010842511833730932,0.0031295415430298407,-0.03713829890248249,-0.05118490139015396,-0.0403986052608759,-0.015675778247541437,-0.00578982876970205,0.32698185274213437,0.004280628431888494,0.11067462991205919,-0.39590998807612443,-0.008681500627991272,0.01726018200421812,-0.03167026975073778,-0.010964645646063564,-0.04204969812156178,0.05778406491838886,-0.02582654534615145,-0.14202806807342105,-0.01445161357337158,-0.017591178970592744,-0.02450056957608396,-0.0726727336806681,-0.08083769301250451,0.016229820297533153,-0.01597056812993884,0.00708132656362915,-0.17143797522326581,-0.40301066857004214,0.1027587570555078,-0.00032295317732208606,0.12880622591022176,0.024814584096524633,-0.18155656762944944,-0.011410296045010326,-0.14012637519540155,0.0042783234661130515,-0.009385560671909298,0.006652158308605481,-0.41778971760311,0.0008511260980988966,-0.0386300901820856,0.03777430207480664,0.09656468668295605,-0.010591515883774532,-0.47818070821778436,-0.3592916574236771,-0.00531699802275682,-0.013808930974101017,-0.0051506770608072934,-0.06999918558284154,0.20124807941339548,0.0128276130769089,0.032569100286891806,0.030898936508562118,0.0535254835727598,-0.19491515861524297,0.21087493000676705,0.019646992752497105,-0.00020779281383854153,0.06419038041386077,0.04168838795134149,0.008351940223147551,0.15394151584188318,0.049962757544271715,0.07181734144852096,-0.08046868578264427,-0.02801708211608769,-0.032363010373599524,0.01931629671854275,0.06614692036100811,0.02738195816597042,-0.0022181223049503734,-0.04011226381370083,0.13758407576293707,0.04225128312184349,-0.01122712169270233,0.001091981875192318,-0.025795504772290468,-0.0756965926319579,0.03840006495124617,0.042113464459649606,-0.037222236489419296,0.035190900406162226,0.09263791082164792,-0.011019290550404463,0.09595746849449323,-0.007383555425057569,0.22134649025177422,0.005138594778590947,-0.11268301931932535,0.12171560743911254,0.3950128709929118,-0.0418613186606809,0.0025481212563148677,-0.07342753431341757,0.04715243963144026,-0.44874946261790555,-0.01798232597245041,-0.050365069150121976,-0.2277729386805308,-0.0741969840129739,-0.02003307215880088,-0.10426712852157091,-0.07138736792189497,-0.08480597906473848,0.21616983321845912,0.10172975190775292,-0.4323738900365987,0.0019739119140793097,-0.04976577881426408,-0.2533387030833286,-0.02718387735524493,-0.02543741690350072,-0.007856720702610863,0.022651795375076434,-0.1564444997136824,0.07275956205261755]}]}');