export const data = JSON.parse('{"layers":[{},{"weights":[0.37077926419566415,-0.0497142738189057,0.5255034460359783,-0.18151099514626992,-0.590612492924622,0.22535387133217305,-0.48426442000338155,-0.5488865105652753,-0.2530487756686626,0.048427717227314954,0.09207683580238568,-0.49843355189226446,-1.0389761825128698,-0.37859610105447655,0.01694507600803901,-0.2264256328955036,-0.5258331722900875,0.4800757854145068,0.02218416809837614,0.1551098493295808,-0.621103951991467,-0.757258090940034,-0.7790881835795899,0.05011905108716422,0.7154033191701012,-0.01183808633733535,0.25906748423499387,-0.14109253872896804,0.056399512829602656,0.3246166047252689,0.12972516048433863,0.34322791608267234,0.16093431490204343,0.18572187561561102,-0.1515697240092659,-0.5249671100745167,-0.48089201982654023,-0.09600200494288376,0.6033819650424013,-0.25484786416028693,-0.5911126596196181,-0.49025328059383394,0.03435521578319238,-0.17834720426673448,-0.09731389275728976,0.057842656741459234,0.3579449974404861,-0.265712761141874,0.4261933086164046,0.5985476492700716,0.8014528414700998,0.635449498226297,0.3070783879840534,0.04139461665367726,-0.10798006106032565,-0.025343828559721785,0.3366421255381071,0.054163328330054945,0.11076147975264217,-0.11313007973737615,-0.4153768508020498,0.13596282604928683,0.019193875876397117,-0.38714407167046105,-0.20939435064863443,-0.29892473775570205,0.2003276499936479,0.1447341117373662,0.3386544135177906,0.004049050194547097,-0.3478116246144835,-0.40229481373095877,0.25611405063964854,0.11339329505082263,0.31853551687666276,-0.10759385194609486,0.06328123382348912,0.24169730499027314,-0.7903503174489886,-0.38230028461947724,0.5483648533393658,-2.5078945379231534,-0.6632995936423071,-0.0635492127253004,0.39552655782220364,0.2234259131519373,0.33868545860253624,-0.5995785877022867,-0.29440201444794223,0.27796961788220104,0.007324232661718415,0.8088914056279136,-0.2921237482733655,0.3542934900042044,0.184696495554087,0.36437033002435437,-0.4963244843392079,0.2509950378452773,-0.3070872913274763,0.6830114705578734,0.1442342803984752,0.1397836803882077,-0.3759242035405841,-0.267021835773876,0.40164478232960177,0.43466767790254357,-0.5059980644959456,0.10740610506850833,-0.24758181007181507,-0.35592233793456973,-0.3558274319921048,-0.62884964067878,0.12776080608266793,-1.1420837368607923,0.5164426589978043,0.04502832961158041,-0.18660189000682337,-0.07529886870917711,0.24044802882954416,0.6878061508234947,-0.7124021885526014,0.043842745413913906,0.4218173981054178,0.36744707244808034,0.5331956704303368,0.021337223749403826,0.024716567446886956,0.3048786316125442,0.0820830101034903,-0.29084052509949404,-0.12384215332597111,0.8824823352161901,0.5851026493588908,0.5845106777550654,0.04320484273621602,0.009131467636345108,-0.2196369464176575,0.20293025425976202,-0.5759079309219867,0.15469342105803735,0.5357179450704112,0.1432064550487804,-0.23337071131964435,-0.41624497380916303,0.3894804510914796,-0.019514614521996092,-0.048258162391193744,0.15801390556658945,-0.29634081395478407,-0.03794163332187547,0.3741134385004057,-0.07031869176527973,0.5265901124163297,0.5048703164090549,-0.872395481366371,0.53281383400936,-0.05598853834985653,0.3712859644067634,0.6272790590464636,0.1906794643943122,0.5407337251565129,-0.8993927979600693,-0.05960352926934622,-3.981480836196746,-0.6796047957289667,0.6320167135398401,-0.8291870717196065,-0.5551400148794524,-0.6983645226635995,-0.3494476278631355,-0.3112520375598733,-0.021093876672543407,0.13581844733883597,0.12413906145249122,0.23190966977950414,0.10721138390442637,-0.3364334007386907,-0.052630941965924515,-0.3776336970455814,0.11428785131733286,-0.48100398900635016,-1.1341512782872099,-0.1614509394679966,-0.31851489922980913,-0.3090797343464412,-0.25718883657296615,-0.4323318129729417,-0.15924364536662405,-0.10916227164863863,-0.31462178568022936,-0.5912819674892129,0.07444255024134755,0.39771654889255226,0.2152718525253719,-0.564490646349556,-0.16045041367178983,-0.020948817960795296,-0.09358607347965579,-0.11346375170908633,-0.5168773120472439,-0.2670641296595501,-1.3125803463800017,-0.7685997536245196,0.6643005637780347,-0.07905452540405124,0.2577666391675616,0.2077263313709721,0.37588236965476324,-0.7885455980312434,-0.534744395909511,-0.701404713373417,0.03306773290926521,-0.8165305677413809,-0.48691542643808555,-0.17780055790008364,0.25599958957287194,0.15985598318377078,-0.2928640015798974,-0.18991240978771248,-0.45603014275780474,0.0806205782335258,-0.7414670588046421,0.0875786230395446,-0.4043051677044625,-0.6240702265655056,-0.06027723644269965,-0.0824259474282158,0.03527118634836686,0.0011651763665917847,0.13462835915610483,-0.6861899710017783,-0.14552061282599066,-0.1452622095833526,-0.3192582765189087,-0.25896358098384914,-0.07737477222886206,-0.011190917817793225,0.2874827362168563,-0.4748267634655188,-0.42809370495258825,-0.22493493781724766,-0.6491197057465263,-0.7493071572273727,-0.833330473942394,0.3863706413006995,-0.32845981874291524,-0.7256454858936485,-0.45686792027914525,-0.2878122907406585,0.0507609686829143,-0.3202067588481234,-0.08383697458021871,-0.2980055148042656,-0.7897007650499602,-0.40276138081258284,0.09748305831456715,0.6154842425165629,-0.1778367755797158,0.5323813264706089,0.2849963385568775,-0.1527685174440289,-0.10844483742272827,0.5505147917521055,0.12081621460506473,0.12191696463738826,0.15902588056178055,-0.26120637746915293,0.8575469180010642,-0.20904909336639654,0.8556968500503574,0.44271897509773667,0.16884906862029309,-0.017168449309195238,0.10311176624148041,0.04517578622416336,0.6713690808640715,0.8088782547343553,-0.16281341013898826,0.06055410357563975,0.42566805391771284,-0.13322581997208108,0.8699122885418352,0.3029936936845587,0.7947453403170893,0.6457278191839381,-0.30622102169664916,0.4661061077608258,0.899787911746336,0.7360506782113465,0.21129800627490464,0.11072812851619646,-0.5085364378815086,-0.19425732090643852,-0.18686756922814116,-0.4613174715582155,-0.6018401257956519,-0.5247447091746207,-0.7805704932067602,-0.19403418942958,-0.6798888130917085,-0.32394549455325683,-0.5752711415129403,-0.3077542470620594,-0.2983200133859628,0.15909518015124569,0.512768042466654,-0.4420743675139052,-0.32872467480927503,-0.48757241181596656,0.20123201504338778,-0.47020729682434026,-0.6508758231531938,-0.17563912184980265,-0.3443768707130627,0.15425295834516292,0.6425405933001297,-0.7585247142979908,-0.37561623031847857,-0.1860705691165624,0.22418307037456817,0.36340912909744433,-0.07948768868476032,0.14404683394559903,-0.47346180522844183,0.3207247530187588,0.48841908019403,-0.15436525600839981,-3.6617248867341408,-0.2305624338974744,0.3251771190692744,-0.7097066866925322,0.1247669362922974,-0.02982184694159482,-0.1927261708865636,-0.03294270249107161,-0.6926756089347742,0.5074043541988285,-0.4246795470873847,-0.35871732452817395,0.16508215232083068,-0.3506030770346879,-0.2539951757627251,0.08000126991270962,0.3897216035998487,0.3164887412706277,-0.6385748821593015,0.09495110902957898,0.6376161979390538,0.3473242077595691,0.7515181626207932,0.5406816233997525,-0.39120923857767165,-0.19775881325285385,-0.49403447962502783,-0.20932375175619403,0.42333901199441093,-0.5342228924481293,-0.9192469941475716,-1.1455317523914417,-0.5943322663177921,-0.37172226567762107,0.1698742499862972,-0.3306394379980947,-0.25250573933119785,0.637153791061775,-0.3962733656631118,-0.045342252795624594,0.12415863142597867,0.4644455798948264,-0.10229914423144217,0.0047890075044461685,-0.34603421124670053,-0.19380274461796543,-0.12382148901331295,0.049404859369344155,0.585964132751119,0.4145246334380525,-0.18955308496998816,-0.3347101337829787,-0.0024264884657470673,-0.0014633460020298003,0.39965624301112096,-0.7238026341680003,-0.035903314283342376,0.287599731902949,-0.28964882496951233,0.20003054363252562,0.02872397588342134,0.27997544278049363,0.2199233751863214,-0.34719609457624623,-0.667502888527084,-0.2076089299782634,0.30575858070280976,0.043393263092987265,-0.30988641060224253,0.12682265974196766,0.22248665417123423,0.23709139492627554,-0.43450732130856135,-0.021518916884032666,-0.13997615948098213,0.07766535123694537,0.45269097192950036,0.03944189160092842,-0.33335949166449114,0.0049316578582827295,-0.3394488365899709,0.3708954268913549,-2.0863219891441673,0.1295996304591171,-0.37122679568032935,-0.20994282044792573,-0.07447113857229215,-0.3525518830254372,0.20670918930993418,-0.11968337052404825,-0.19994522939170378,0.10489882088098049,-0.5114394867452902,0.18636927905119402,0.10892459462993889,-0.12482915506010116,-0.03866295729509265,-0.7810729251569973,-0.009893479268868152,-0.1535633823911214,-0.35906783405141224,0.4965173943275502,-0.011062315431176657,-0.7855818312386124,-0.5018023644966048,0.04045388918074679,0.3625981641347869,0.21258775256287996,-0.14975792741169028,0.06887458820746357,-0.06304784039076923,-0.6904526306010275,-1.886480523182739,-0.248877210596013,-0.01810505189680532,-0.22361741311231148,-0.6567999154600631,-0.4240050266191255,0.058842228710922345,-0.13825461963344804,-3.8041711539304988,-0.8598978267765082,1.036617478008772,-0.4375586616531226,-0.08215453817205462,-0.012786256313335137,-0.12467160788075159,-0.26016634619520707,-0.1772562104506221,0.007974238916560834,0.17135011667692507,0.6739011823437286,0.24826381542657155,0.016354763334846017,0.39673541835900444,0.05811109455762543,0.29672726263456406,0.2225884910848191,0.6367004567943756,-0.42060911123813455,-0.21639146119664948,-0.11848986909912833,0.062153415036262497,0.026006090298127203,0.06304312987395276,0.04297964589655381,-0.1832333512171062,-0.4033096100274874,-0.15856233228090885,0.07799235903783686,-0.06725025349911112,-0.22258892462276564,0.2742671390964057,-0.013975650160609544,-0.19550018536498673,0.46274024409981757,0.2783875670712524,0.3789680771194143,0.42824002233952085,0.06317329921677844,0.4179727796273547,-0.08403025949459555,0.320905230039936,0.23960348923268787,-2.5009223129448457,-0.013292025181259699,0.11578008744633539,-0.13350321908599877,0.1863035053493816,0.05526909598079141,0.3644489718437759,0.1720334841756826,0.32541161994474277,0.22976950515530145,-0.06656056944874604,0.017486822161275273,-0.04282420855068224,-0.21570859446670923,0.04517701982878261,0.22085640331484613,0.06178654760423371,0.270802915378555,0.24381958228921832,0.10925344157030445,-0.1554457696738932,0.020267075393669454,-0.3824982023608852,-0.19100274217294794,-0.10406418717995435,-0.1603204425567099,0.32795702202392885,0.2802970055594677,-0.17808933368926463,0.09864818282456128,0.2762196472972872,-0.15368637900079396,-1.1666749698698298,-1.4973322885894624,-1.5756841994371515,-0.8329439438683675,-0.26812236455771193,0.06159827923409043,0.46228223416498004,0.1877878520894029,-17.304845312864064,-3.081921965959006,-1.855197074566643,-1.13691474388084,-0.3160362974706615,0.0780538537988195,0.34892675522703653,-0.2598488141858401,0.2565315876999323,-0.3113962203318318,-1.7019008491242924,-1.2855635763258424,-0.6687766436732561,-0.9076994494910188,-0.9244148571617798,-0.28178267241999083,-0.2204004690705559,-0.1988397606683995,-0.5130486872580411,-0.3847192270923243,-0.3106405721315037,-0.25891898042188466,-0.032911204516890315,0.17336158534114965,-0.27817856592010576,-0.08469725393352509,-0.3744908998860685,-0.3335804457271733,0.191775206999114,-0.15239321117366503,0.1666962635058781,0.011931701062971856,0.14729534710809955,0.023421860917434582,0.06454709561576358,-0.1472935240856532,-0.14945303629327716,-0.15153669711101447,-0.0060104497889798,0.04267272487040271,-0.0814177339710093,0.31265854586476294,-1.59586652642052,-0.0917793155064845,-0.33196149223034904,-0.08234001203065934,0.6753943595032027,0.2363214105466702,-0.3038651119052508,0.09992412492244036,0.004236544806755749,-0.4133753481400093,-0.8700821405458575,0.07466493678006927,0.12293387076953564,-0.11635723346870885,-0.4100521246741232,-0.46757276469946135,-0.4547889810318822,-0.2039080444213122,-1.0698673884801209,-0.2506149906762526,0.15384900527467046,-0.0030500246811465256,-0.2509513639972016,0.2762785349616422,-0.9828735911466333,-0.4112168973476989,0.05073696118186452,-0.6222660224217484,0.020096162718968896,0.010725465064311672,-0.10726064063952667,0.066971716391553,0.08336012133633483,0.0929916009512556,-0.2738997890142096,-0.03109454613263527,-0.3572663243929492,0.34118108698313643,-0.9893043833426438,0.784715251752865,-1.4897295689933625,-1.0429381873742967,-0.6797544747856078,-0.30940117496626107,0.012396200254613434,0.185511433310295,-0.11685430288880577,0.1760600754030237,0.029359066149576403,0.17324395704867468,0.25495325239091193,-0.14625336579728396,0.22776662386004834,-0.2777985196105363,0.46760076046715754,0.21337344929545107,0.07858324271663487,-0.013149053572192199,-0.02952513130788213,-0.02069369597682387,-0.3091879749908355,-0.4215626508143363,0.703253300826563,0.10772033362611737,0.6892358603068548,0.5150844430553734,-0.1773159752900889,-0.06404230615547107,0.23880884240197953,-0.06722444912933541,-0.15871913029342485,-0.5275399071551228,0.12792690453475694,-0.38297430600904997,-0.09108710045405012,0.1904489249394449,0.3723760035926495,-0.08627710153878819,-1.2367595218110103,-0.22362668983579875,0.45875466640757917,-0.5199364556891088,-1.1938092625595171,0.31000768197821027,-0.5996453859682654,0.3594625100285276,0.016145264116148753,0.20680430455200283,0.3623196064967751,-0.00405022595955856,-0.018990234579212763,-0.3638283942707733,0.24462120622088032,-0.26967509648787336,0.13847564140247404,-0.32754760021289087,0.19623963872016156,-0.3087307180983636,0.24974799092126948,-0.5452881919749714,0.4937983289480989,-0.35174064187394827,-0.17515125107282875,-0.30001144880161723,-0.29959461502428686,-0.1798829604798152,-0.373505241579373,0.41276583280527757,-0.0663674141488237,-0.031884000447695536,0.01460880697209507,0.06620015672958522,-0.30646540102534375,0.26264301863192296,-0.5196235792836098,-0.10716132870892005,0.17558170796811412,-0.341791056836657,0.08277413583126117,-0.09651263999469026,-0.35483527824818667,0.6374536884699532,0.4117907734368105,0.19233505557651298,-0.2490195466374839,-0.1927502647620696,-0.3096509483405103,0.6491910412393501,0.14434869622240873,0.326658034357632,-6.158515032734676,0.577325572340659,-0.1870467692025725,-0.7391581386527637,-0.9065341947979824,0.5001743317177823,-0.30288154563554504,-0.5118555435067446,-0.12037864794237733,-0.7843443072467696,0.25002295390445656,-0.7676535824589222,-0.8785566396766028,0.21254545455755194,-0.5199477897482265,-0.3166572188463133,0.3689087736471143,-0.7433867807009957,-0.6386311285425492,-0.2076166298843474,0.24382635996924062,0.03595676439273626,-0.5053390791605592,-0.21652504126973374,0.19170283143525133,0.48422241954026407,-0.7385658068349678,0.19558808014334422,-0.14326672908996654,0.6605067759195627,-0.11327015126708771,0.4341249019725881,-0.028077874479236268,-0.04808026512248344,-2.5584793821932403,0.28013983880875587,-0.4193469662759846,0.29025306971786613,-0.7606171016437392,-0.6015748058824197,-0.24799487171315074,-0.7395182829120448,-0.13638027684387902,0.1067095764939403,-0.0855320567992959,0.07284530979790374,0.5742838167594083,-0.5441134754587484,-0.7326376874712285,-0.050456925166464474,-0.20017628625211237,-0.3577720759306837,0.01764462124730585,0.051523686794535443,-0.0987835794557733,-0.6085674061890254,0.00855578811489438,-0.15682295372738103,0.4647837328662551,-0.22330037154089927,0.4856451435243596,-0.0745486439887527,0.3084448720985992,-0.4019755563795174,-0.3868961612315762,0.24223353014255153,-0.4258466359378568,0.7017373729408,-0.27114085903649215,-0.3857736197529701,-0.7657333054835384,-0.4730544317470818,0.7095914337508085,0.39596613710280165,-0.20980610610264494,0.23053341309973693,0.03480008911237619,0.852653476830729,-0.014756472686162696,0.1746751811094289,0.502525257145921,-0.09840375095357201,0.043541215770515625,-0.5520144241844123,0.42891503614967375,0.02810342728532782,-0.13243285444515968,-0.0965672055535113,0.4352861808024258,-0.4582212690219577,-0.39257591096333533,-0.11737570378217735,-0.1584752603079751,-0.14393685611737556,-0.4992965297907666,-0.6697643365932052,-0.4046535628413954,0.7742879927257464,-0.30112018722263467,0.027112790986276118,-0.012182074523767376,-0.4326262068080256,0.20811529339247034,-0.4995019754672443,-0.04295145603027426,-0.43002944803177756,0.24685605794756102,0.5920308016982808,-0.1587239507544418,0.5473754029193112,-0.0453215459608149,-0.5048797535204529,-0.201656636158921,-0.06624955113866382,0.3052132648462083,0.057093277261475464,-2.030556956002919,0.11017024894672581,0.16902429592890214,-0.5607102358162827,-0.4569931906770641,-0.303850493652442,0.11155634186181826,0.3358639575515573,0.03658864668836181,0.39761493367585987,-0.16325912242519233,0.2927956178096343,-0.4931420330580304,-1.5667370485575989,0.18410163299846155,-0.5126864566401549,0.20550880700312346,-0.10949294752340998,-0.17392823081770367,0.13346266271756538,-0.12572234352501882,0.12103849578800027,-0.339137795274441,-0.3988576867542914,0.1756098486712334,-0.09958339594773664,0.35539273245497555,-0.3677563703478738,-0.22168133355556482,0.45353608805519485,-2.901958858819045,-1.8921048495893473,-0.1350192982027129,-0.49799752466736824,-0.7196942019811655,-0.0010045489025372679,-0.7076333238272696,0.10161271880493908,1.5288418695387853,0.7588337085173075,0.7360019881161051,0.6953393782924355,0.9126929788863059,-0.2875913171323185,-0.3151926124478289,-0.54093465733524,0.35100818454082067,0.34505333074836025,1.43044566800556,-0.1427406020190865,0.06974228477672954,0.5169448752764058,0.2598309322710235,0.5076050756938839,-0.21794055719177138,0.11335043613716667,0.7998530596184795,0.14898220560416386,0.33524113999502486,-0.6789753499120771,0.10376813667702274,-0.19092226555163963,0.2723472258420622,0.05931339441566073,-0.16835885068901213,-0.42903971621321096,-0.17992589450228189,-0.21871710924869614,-0.3998443427059164,-0.25917681456630937,-0.7563097015273024,-0.05085825252258019,1.1465870924525507,-0.4858642877561827,-0.34126437096424683,0.0770205945268695,0.19459624457183614,-0.2948643594699108,-0.3496121726059545,-0.3229900118473102,0.07463127185013485,0.12911818957412066,-3.0070521063584335,-0.12375484493444673,0.14909111157341587,0.4942822117397798,-0.08413320642255326,0.21439295600667974,-0.23331163333681043,-0.04059590609087015,0.013610116290413843,0.19362848423733023,0.20529117989332424,-0.5838170789278796,-0.014574270709302199,-0.3071964449683169,0.4656256299929902,0.5217908505084846,-0.501085579558245,-0.6148316780123031,-0.015202914342552023,0.28630750610541206,-0.31993980003310757,0.018497373013362645,0.1325236942134931,-0.14096544853542156,-0.17017356186158228,0.2062257564661924,-0.6726070135717469,0.1309263140094946,-0.44100604703352647,-0.01939749464620757,-0.6345775931581948,0.6313724469841845,0.00853187741790377,0.13004520643103637,0.0639332365587218,0.20134368904032063,0.14331125012363907,0.4293985598418678,-0.6037625069755446,0.3894705576732787,0.6589469440086257,0.9295889628921953,0.554407209116854,0.09461042018661663,0.17077619000335545,-0.2781450129685123,-0.19799313741978872,0.40027848600165405,0.7234148024293721,0.41309163543312016,0.3436619953336134,0.14006665689582676,0.3275721999992104,0.43985324419548677,0.1074491297065333,0.4442386174079765,-0.4248441692625986,0.20539427314710557,0.27692252243530807,-0.00018219109764538928,-0.16737873689412106,-0.12231032138747572,-0.6866104407437349,-0.30139571061047543,-0.4014726150057443,-0.11512357430448264,-0.6827635760019031,0.20136050799385347,-0.4877364509026034,-0.10198500752858394,0.3904818911134296,-0.2813608183867232,-0.5711408872430495,0.2502859107049364,0.13615472754993407,0.2201536678852913,-0.4996741598640492,0.039662206803887795,0.04380309202984038,-0.7224759092370613,-0.7933751367828938,0.5378055445229311,-2.7159026720015293,0.266737244250879,-0.31344059509376265,0.1165476646594866,0.1376435224604489,0.30349517696102096,-0.18128804660157216,-0.06214072249428989,0.22727394886525287,-0.29075187553335685,0.3564464373534849,-0.6352623236389038,-0.31415235131072416,0.3553818744419411,-0.5134959302759036,0.27869404237977063,-0.07928543194600421,0.3465421863097406,-0.4241837051530829,0.1976916630608638,0.07654418720698883,0.4499836495659419,0.24318266468201075,0.8664922638100296,0.0940850638750072,-0.09607864472200196,0.11808960679808998,0.2678176741885103,-0.32125640021964513,-0.34594725483670097,0.34557134201028883,-1.2349330727808243,-0.5247328695975139,-0.5038450533708796,-0.7304698721795495,0.1502560400752995,-0.09234650754039406,-0.6442630791689316,0.3854183152459183,0.5966942043560186,-0.41859764377197867,0.7549065197326622,-0.46603972988536935,0.5233244039335563,-0.03436243075167541,0.4980559893319273,-0.0907559704721658,0.18995973013507933,-0.14687107731181537,0.5034065166122094,0.9196390453985188,-0.20046223979308725,-0.2917795482377651,-1.0021003631024852,-0.008368537923129046,-0.009487442570879736,0.028461878811594774,-0.3348457278710348,0.009386066260689345,-0.3266826727647385,-0.09221691645639811,-0.5038407590127154,-0.21611409982126162,0.2631047374870359,-0.12062923847417431,0.42682539475512854,-0.24059697820991904,-0.16241006701047783,0.006919697181261376,0.06974967340297016,-0.16692909543038628,0.03634774082224484,-0.08919386028884342,0.1499313359669291,-0.5669412938617132,0.5286089274924091,-0.011377505261307465,0.3186102498105961,0.004597550556640834,0.04344811360468696,0.29170611873718105,0.21906788245886089,-2.8810344308899065,0.11923814370103844,0.035120288133409575,-0.4299805078283565,-0.027285015341278494,-0.35304371569177884,-0.3374321570445868,-0.1567252004662387,-0.5305769144764902,0.47553775077255167,0.1046774456158786,0.3271820909280616,-0.3749394947079479,-0.4817667231738752,-0.39509490310716183,-0.2476533885441028,0.12710309134076073,-0.26812510881839313,-0.18304008897108928,0.5937404460424844,-0.19254034690477487,0.16774504263720583,-0.12202610354960489,-0.09496001541106218,-0.06914406415561612,-0.5471471563836673,0.15103524308405092,0.044575417987762884,-0.7483345408779976,-0.33453877936005777,0.7198702234673068,-0.29115015767018687,0.10182049673557346,-0.1035781311697591,0.00004611146440007857,-0.17365720810667915,-0.18588569286626205,0.3606166256297722,0.16131773477264905,0.24851706747209065,-0.36276139300408144,0.9661360389216171,0.242623031284775,-0.2258281943796749,0.03565758569934902,0.4507828504758632,0.08414669211426051,-0.0018893437837808572,-0.7349031735997876,-0.1661657333878213,0.12631816276474322,-0.3309863496863417,0.014125644952838634,-0.26258000324752084,0.08652063492898102,-0.01572999017005442,0.20341901350686828,0.18616813210399585,-0.6066105682543204,-0.5313825750265679,-0.127643278983935,0.49416718841435575,-0.07249042491370622,-0.3257845260596001,-0.019861459949385703,-0.0396090964568444,-0.16804099926744784,0.1621538924356663,-0.023055608739516887,-0.6680296227235037,-0.2936086808400865,-0.17728862411676666,-0.23465666103759059,-0.04289846066053546,-0.17174982575314215,0.05374554462239712,-0.12438483348521606,-0.15442678722151665,0.027892501944781965,-0.5355817055268858,-0.7454925604681524,0.11339331315022352,-1.5859560080433768,-0.0743881289176482,-0.15255778085993732,0.12752057582030452,-0.109751146297377,-0.6607147800450456,-0.07162963891377087,0.3170508226359135,-0.46341750702608114,0.16567741109339362,-0.04490682300293854,0.12981677503963732,-0.34607131890551573,-0.044982686896594785,-0.346998109527706,-0.0038326477886703987,0.10190006911712356,-0.3411884837096562,0.2350078892662525,-0.0695828668325725,0.2683804770626704,-0.02559155955482319,0.10305049588053436,0.2370366555789767,-0.7597731606779813,0.09740723738564447,0.4449476742821916,0.7525370415132354,0.1684004615859246,-0.5823940095731317,0.32020387292545427,0.5126035626806543,0.4257076762960822,-0.24557551768716673,-0.5814020973907071,0.5707517443980068,-0.050961621903047975,0.5591395107304686,-0.8004091833492648,1.1614112479758916,0.4956666747957195,1.2690143805483132,-0.21022136882087267,0.6386910849134615,0.6253043533902825,0.29394862257361754,-0.2794665892945931,-0.0486397384263964,0.4896314305495661,0.6099380465712778,0.16128541463002058,0.6775612016451601,-0.4885686359005825,0.39910775686048444,-0.011809593077836881,0.32956723714090486,-0.45223156036465295,0.2778748995460045,0.22317053658386943,-0.11954577055054057,-0.05592060160759973,-0.02519793257789647,0.03589782004829584,0.030975558934274148,-0.01539325014746324,0.03803438194258208,-0.18606850112997828,-0.166954493042136,0.49907686207365204,-0.4511966408337448,0.25884697920034777,-0.11401988943044035,0.13172873399841295,0.10463625780506636,-0.469277120567658,0.4589769065615929,0.08693734499210545,-0.7950115033473352,0.29112978898123093,0.40545674480892835,0.05326532467739529,-0.1804796491645598,-4.182133056648419,-0.6315999000206448,-1.0271981097971157,-0.1898672366191855,-0.2848436001109073,-0.6444447545252373,-0.28248017635451667,-0.010491014809248016,-0.34404579280419423,-0.1376204152865626,-0.015740600839188948,-0.8393993477881511,-0.006940228513834549,-0.3542606022310542,-0.4766297474676553,0.32289645512288284,-0.1788569853763426,0.20150473821298803,0.07452438763808983,0.20980391326468914,0.29829642827680747,0.3698860712854386,-0.6770247018134999,0.21049100235084758,-0.7509770682186161,-0.4213352688727663,-0.3300612082684805,-0.028672911264958693,0.026675955127632062,-0.13859376812400814,0.30056823730071,-0.09010428199902537,-0.27970942867107573,-0.10226393374288197,-0.2211664698022096,0.3254005869298172,-0.2657124683987244,0.03560046694032805,-0.7420831570832929,-0.4106055839176636,1.3637621041321286,0.0740189231956165,0.0896335372912879,-0.4301940372218362,-0.01213102021112625,0.19715762726056227,0.4870495461657855,-0.15337263337410775,-2.0867212563070576,-1.1480112973287386,-0.4187096763585236,-0.7659804538690844,-0.3307843360501359,-0.11339979444378225,0.05518740135052338,-0.37138567203330947,-0.35136512120046254,-0.16584080337182988,-0.6647975118291846,-0.2209165845361555,-0.8580147773598276,-0.08501244425574656,-0.6258242794658829,-0.21716527546248063,-0.11884316242725255,0.2860902610081475,-0.10480272687392218,-0.8273145373011539,-0.37149883050640675,-0.3440153490425437,0.0882822217700094,-0.019807582437557755,-0.26821201805585587,-0.18722374648332293,0.43304488636117056,-0.3543814483084408,-0.4214674939253623,0.2665084453517626,-0.3504352307213858,0.28742913068662174,-0.9035627805004609,0.0781624841162223,-0.3609034262594677,-0.15862888387249055,-0.38742650192531874,0.22475510192054612,0.2499309946834628,0.0409910899916327,0.19249977113053876,0.10187692302238462,-0.2036257049511286,0.19446863617742205,-0.2766709324439036,-0.48929333762178656,0.1868696680089704,0.02323508240138245,0.23905819013733984,0.33841549466573534,0.3939382760508824,0.15157370531777095,-0.09907741004138569,-0.0012543360879742468,-0.04214966463630301,0.3688699855925704,0.2206197396800429,0.009040145986304227,-0.07333493751237456,0.17883470540128776,0.25650989479655123,0.351130911694884,-0.22764960200017723,-1.3719197690315144,0.6663778580709312,0.8852833133544105,0.20882108815326783,0.19926187774279636,0.039267581267816355,0.010367990057716443,0.35152913778419453,0.2704255788468378,-2.519711158589375,-0.9226355821984829,-6.165303771022557,-2.729512191608561,-0.463897339498896,0.1833661255832181,-0.15138764627034088,0.07861292096694222,-0.0427856812035288,0.2821673969607259,-2.4054642519038727,-1.852970116848224,-2.846996709117393,-1.200969761166408,-1.0382820483364543,-0.6391425846216064,-0.610300719292754,-0.30031759606509334,-0.03413965911574257,-0.8267278207388777,-0.7421341976526693,-0.4606989256304472,-0.04327882640203047,-0.04148729103382386,-0.16595270727111358,0.13386542249634695,0.12450409566773045,-0.1586345605464171,-0.3551161295303478,0.11739030393837133,0.14273629137721056,-0.23252170678450837,0.10497395553652628,-0.14135746700432683,0.011447589103598835,-0.3019976874171719,-0.64910249688155,0.08490459845383683,0.1625024433824922,0.312139061116556,0.41276077473978634,0.08800576441185029,0.1641034294621594,-0.0926034324102286,-2.9394566439122327,-0.22114633792229116,-0.23807558113264052,0.39865776281586573,-0.4425830173920723,0.2526007937315157,-0.22906144957407393,-0.3208114698178322,-0.27609657491823486,-0.2727072312899136,0.2988029275971046,0.05464707259945782,0.7328503411262197,0.5147308395012193,-0.5395478197753844,-0.19901093688158522,0.19344012760577967,0.19304448746378333,0.5110488665690763,0.2108588682871809,0.007887065353086753,0.1492558529986119,-0.04933985181009367,-0.12491980820157607,-0.2567647602961136,-0.0572384021035614,-0.25121894212619883,0.040886394713362494,-0.37185417693394274,0.41374061053042654,0.25240597377638596,0.6494611266520575,0.18807892977977053,0.1828974298053666,0.2555118651252828,-0.10632962216383188,-0.514546851434385,-0.0714503675218575,0.07263678456212667,0.13551292717217114,-0.4515294590425121,-0.4967235336935973,0.35868337051137805,-0.1193785676080943,0.06781130178389162,-0.32745420906609707,0.2552646598912601,0.2692851570914945,0.9524958440752306,-0.0676012391586149,0.5225961637954628,0.29599217377776016,0.515794678823471,-0.33944445769962256,-0.2825228708072426,-0.6704865318309559,0.378775426024782,0.008381072035463509,-0.49964945238332653,0.19653665463542724,-0.09720147050473399,0.27641685431845925,-0.25862261348065546,0.07508644473870263,-0.2970261957679274,0.11577657046867672,0.29961056516090684,0.020863159209076537,0.12355364350507203,0.02174745669212319,0.04680654605480801,0.2393791242737224,0.2365454040592786,0.11378063782716379,-0.05576642271472361,-0.08354082992912533,-0.6634510130339448,0.2522280363292671,-0.687553255976322,0.11992498458841165,0.1995132797377523,-0.965631216986595,-2.3374922476430773,0.2823994604451652,0.029012405481677463,-0.23985149003299558,0.03828271835898588,0.34214184059459496,0.2420946396090616,0.1061686922365834,-0.07256195273702472,0.2350826560674918,0.25258798389400666,-0.25028033147973017,-0.7353880878739997,0.49453323548511674,-0.28356194122315065,0.05959175492524609,-0.15445680287181063,0.5197174473814758,0.4054445066891777,-0.07495912965004313,-0.1689344435672833,-0.8504156512597634,-0.25680456297340454,0.1341693028065278,0.06718621359089703,-0.15683072217123706,0.18332352958193632,-0.14712015356915037,0.3755928467862319,-0.11535841124390159,0.08479026632551162,-0.19984674821211207,-0.4841805781831576,0.42280045888696544,0.22080779906307063,-0.3014227897979166,-0.027489792338632746,0.2961681219543881,0.5048987311907658,1.2348320437108704,-0.06987813948530254,0.7672610743831989,0.44405870127918085,0.01440133419150523,0.08221397661315365,0.08015331609007946,0.07069928878211805,-0.23341013839281768,-0.33551859962968666,-0.06181728298387234,0.03487565120463815,0.3585132928391089,-0.25067214491304224,0.2806312029218559,-0.11125169681894935,-0.24977412470690855,-0.2006778470151248,-0.35574512428156047,-0.5197770558752776,-0.5251864564968467,-0.08430400383265774,0.25721162557280663,-0.31236419828345197,0.02494979009432714,-0.04647621511790983,0.16182963686536275,-0.463362981414014,-0.3377135829872274,-0.09302871432310199,-0.2652747032344414,-0.18285854553511208,-0.2127439869052867,-0.12184849372811041,0.06530352137951433,0.008231121440045683,0.35724816499585194,0.7106502656481878,-0.798251198913835,-0.27041119185778456,0.15613235461771602,-0.22569853695435219,-0.08841149187494737,-2.46299487117442,0.6538399904903924,-0.2609970817492899,0.30663092279064635,-0.49204811226996664,-0.24480586973061289,-0.17991813121565714,-0.2762495450816091,0.07547366084582699,-0.5451936526063639,0.18779924364592315,-0.6322923134306604,-0.15078399963555814,0.176601290030568,0.012616043862978595,-0.542414995397689,-0.4355052536886945,0.35207703875586704,-1.1235417950304298,-0.07291574534906217,-0.385963689134747,-0.17849914847892653,0.059145200771315846,0.3183056223255488,-0.525355824629462,-0.3261030436099151,-0.05247379355074921,-0.29423550251967023,0.6628287110047923,0.2049129991548893,-1.302529547660597,-0.7525775867562089,-0.8022831681924635,-0.1460492859122818,-0.9597365397068922,-0.8422559612953264,0.3002349839766171,0.07575576072818636,-1.6601050995791895,-0.7051571395101536,1.8635447568297534,0.21646597524078845,-0.02855251763763819,0.6282248207063327,-0.5357145876410837,-0.07815002287020703,-0.7072486179996086,-0.3108885122408724,-0.5952080604382907,0.006693869411849295,0.23133853454421796,0.21401286047574902,0.23819229806146844,0.08807150294113096,0.4303275628235923,-0.4061482627496683,-0.1692873370104898,0.042005977575652546,-0.0834018020946149,-0.24407703615111778,-0.3051259557008092,0.05698126884340224,-0.24144644989533362,0.46174983099032013,-0.3360694663590636,0.02453129207057342,0.040140856585338405,0.2537298954371188,0.2857205919575301,-0.035477757345330437,-0.1788069761877448,-0.47036930226051304,-0.18207112354727234,-0.19365213772406473,0.021590059764086462,0.11289719946053355,-0.07540111267714464,0.4992459963350622,-0.03323133709399244,-0.5909741096286045,-0.30482654987402247,-0.3620653380972559,-1.629553931842552,-0.13099606951210582,-0.015324464573638666,-0.045521454416506686,-1.3901022122569247,0.07057484010857856,0.2466339582080201,-0.5499570910154344,-1.0168283266907705,0.0770041822886989,-1.1278944833610103,-0.35799162681738483,-0.5072001080615716,-0.45748529517236736,-0.2194302301533343,-0.3407812541437869,-0.07907294629538143,-0.39833130601298317,0.600829456737008,-0.44054964693332516,0.2936264347047779,0.21828654206192477,-0.6176249148072965,0.26185544553471085,-0.27028460380882985,-0.5511231274982026,-0.007511930086932952,0.09265721274393737,-0.6974424184459102,-0.049165227752210355,0.9088409279558539,0.02505975065434897,0.0825098237281512,0.3263340975578255,-0.22909335143536547,0.30609225264477935,-0.20040441704020442,0.2519192092537579,1.3084527895280123,2.0033128060502747,0.5134742322867849,0.3664282967777498,0.31808463782674096,0.3049371598380626,-0.3799485862381605,-1.1009005511378924,-0.3596546529788047,0.5973312454164474,0.23443847331356807,0.22625558594495512,-0.36713811439248417,-0.003966932268867124,-0.30955224917216745,-0.45544612199380435,-0.40848436405801714,1.085133244510277,0.6415205526111951,-0.2546351599174465,-0.03661005901636403,-0.018888313594243047,-0.367559840083488,-0.4191549207689756,-0.14079533729946483,-0.5151564467387625,0.01379626433664701,-0.5392648906180478,-0.09952219983903897,-0.24581198249582956,-0.25778601021346437,0.3442807047681497,-0.18182883194515118,0.5017470985005107,0.15880427696607563,-0.1988595320456157,-0.3239733025650382,-0.19813368434371328,-0.2554021851496876,-0.2418847785521382,-0.40051774269495394,-0.2827287372031169,-0.17497734514061503,0.5724824619907538,-2.9563272952983115,0.24805598458155517,0.05555983562185726,0.47496365584495237,-0.30160936063205696,-1.1288637560807036,-0.913489835361294,-0.6352780340885378,-0.6584696691594598,-0.4039711572357999,-0.4835508640886092,-0.0847616810889445,-0.689564689627041,-0.4539717375148098,-0.8819095573365844,-0.12625696731836392,-0.016853130341268625,-0.34144629213008315,-0.5850097160167889,-0.5376692868650632,-0.17674755845236598,-0.2954783527313968,0.288226204462062,-0.07730054464462104,-0.20987575504808,-0.10249776897398433,-0.17225711592529888,0.3409021668300092,-0.3152011750842744,-0.055818639501040775,-0.47783569067947423,-0.23978427730243498,0.451444979628408,0.3558833871692722,0.0010512371815512385,0.13207430290469993,-0.2444161132890644,0.19012108782855267,0.7669059443745755,-0.29608858337687244,3.6895391208739525,1.1605776039168156,0.967055304557197,0.28178249581097353,-0.40836056523436826,-0.6165799788254559,-0.20664626742600098,-0.176594163907401,-1.9598393486493455,0.37744244624662177,0.23450445969373687,0.9829828910909242,0.6125023417910396,0.7404701831352338,0.11159998556123728,-0.13699633128047983,-0.1968473579265337,-0.46202504009154777,-0.07153667445692888,-0.6135879406215509,-0.166912080157078,-0.34456266868407126,0.20464426715598555,-0.13316059572221617,-0.1172670246761194,-0.5047452705715166,-0.561252884870478,-0.41346121657117285,-0.08806207415456531,0.032357590165812244,-0.5160891164922791,-0.09014471496149412,-0.49963011249543987,0.2274338652969086,-0.5741376127997022,0.39502692967198694,0.21300781598665147,-0.23722477101610687,-0.5709050127678239,-0.6539361625284139,-0.4572281587227391,-0.7021046249742363,-3.752687987584321,-0.32126262682363127,-0.25983204211483596,0.07898455275135574,-0.5511244758482267,-0.5583083657667307,-0.5330273972056186,0.08360911752880384,-0.005793464011961821,-0.11235524476181516,0.023792086535874744,-0.029866280346178168,0.20084857808905085,0.06743855885281017,-0.09778563167223193,-0.04448706256775847,-0.05393765805324586,-0.2762881136730383,0.12301677335803625,-0.17672497853166572,-0.33642395989593493,-0.04469428728260959,-0.6989499152138469,-0.5932451195228146,-0.1483197049696965,0.3889187923227443,-0.021750091200677293,0.22535687724401413,0.22733428257958993,-0.8018497449755172,-1.823524397396384,-1.5314425015268727,-1.7859468280273147,-1.9728670820177305,0.11208422172374553,-0.46969048202124297,-0.10954898580178575,-0.4879127430968985,-1.8205975885261148,-1.8597688685244778,-5.945474444988197,0.12860886789860768,-0.2630443926890762,0.0008252472536845987,-0.041758006973571946,0.013770582340545868,-0.3209753251768083,-0.12536517624205443,-2.234486373665135,-1.9219089584074522,0.16433521465045417,-0.034651161522262025,0.014762436175080785,-0.29633425870492297,-0.13685024728187828,-0.4489168568986596,-0.6476955695771113,-0.7621626382349629,-0.7424885807702726,-0.5230811405511876,-0.7183267446407606,-0.28864748624246545,-0.31584957210081416,0.2577106347178429,-0.07774210037102813,0.22343701622983694,0.22165641756256027,-0.16865213574442187,-0.2715986883591325,0.4677684298660254,-0.031858939078789526,0.4655593587075631,0.25266351010980737,0.5645246370777011,0.2567429304898062,0.4481110533156323,0.47102342095731975,0.2218911985870527,0.4659022325593816,0.7574173140217093,0.8067103855742773,0.9071466345509093,-2.6215791014240057,-0.22318436237014136,0.18054236915182933,-0.2689052671731673,-0.01787957742238911,-0.3695763592182846,-0.26431938273905053,0.06980551847854902,0.3109506190590613,0.6151394464553626,-0.14804104951768232,-0.1957770642048829,-0.2272479258542269,-0.32004831808943535,0.01574530191531224,-0.20175545038498013,-0.3203787281807635,-0.017065607472226168,-0.09022941683911048,-0.12177667231690903,-0.46067274991899565,0.6140029987444616,0.2043495612070766,0.13702265469450373,0.10441651291038484,0.2991988976825619,-0.12716791959454155,0.07793477550722937,-0.021211438211683552,0.23399681593346283,0.2670513611396868,-0.5056034922787911,0.3497712574555864,0.41090173179955547,0.1453664650668725,-0.20493749046548837,-0.24011598168788303,0.3411061190913577,0.3026438433121779,-0.06574723784606355,1.4250263504963319,1.1934629284266816,0.5793205713021052,0.13011478218505818,0.08873820794106933,0.07632832584367333,0.019408648156769247,-0.042578553305390426,-1.320220922402879,-3.3399269722995504,-2.764947184888671,-0.9423357050026518,-1.1290524713672572,-0.9089604056385983,-1.3889732258065057,0.004823639201551051,0.032860592562498764,0.5547792125300295,0.6499731275567332,0.6163579726668206,0.47469409991238964,0.2670236895770792,-0.025640565995884105,-1.1078114159598649,-0.3837297641532958,0.22057353059534815,0.17926163377036156,-0.19497101460940752,0.08728274959016903,0.06660401237574423,-0.034712444954203864,0.070711107628654,-0.09653023294737467,-0.03463496377298039,-0.29639480459420653,-0.3471975407364159,0.02648523906139984,-0.2713461378113377,-0.3532830012491395,0.2706656983165979,0.001982787358645468,-0.5280158778758196,-1.068385543116316,-0.293989251845854,-0.10238381686730055,0.34135638191517476,-0.05342624435684936,0.1303274772910831,0.25906259044369684,-0.09495539340414938,-0.09064669340168101,-0.16625439144901483,0.5762738230584651,-0.07426985313938972,0.00950032708287286,0.3338104564599927,-0.14992680127741637,-0.2594279027730912,-0.22521119703749126,-0.10182333903778676,0.12196116243213478,-0.2066193954235498,0.0191090837592089,0.10115773825701764,0.19045245679183254,0.38631969431934393,0.3961795439194219,-0.05585223635210257,-0.15139224033047147,-0.027050069624168314,0.3307368350197496,-0.16488745583984202,-0.21082613629886082,-0.29915796101522596,0.19737308100206866,0.1414728344397668,0.22415219887214102,0.09859900599027577,-0.11710481848768164,-0.3115978853415038,-2.608739382486328,-0.7810489236510066,-0.5753608743234297,0.7212880237371458,0.3468010820955806,0.1809574381323479,-0.05422275758277394,0.4653760351750125,0.0950662857674954,0.3094965989163287,0.7539772556853508,0.020139133678973464,-0.3714406945739555,0.033614897383092084,0.5259536366978336,-0.3168154042775395,0.023288984977899364,0.017593589358126622,0.04628530070488863,0.360760734518313,0.07421882315032913,-0.13837079783581366,0.327509347558814,-0.21963031890422943,-0.14762501898006755,-0.003931612917149984,-0.05613970386680548,0.023972740080918934,0.06665651170254094,-0.5247877957216458,-0.37872706985806787,0.12051386719347411,0.09351535097726668,0.1467167078427014,0.24102128775757517,-0.12162786429485632,0.4072930962389919,-0.42192892023784373,0.072524894460449,-0.17832241194758872,0.19524201219663684,-0.1393249020483439,-0.1456968987623821,-0.151108193584091,-2.6987323740996305,-0.46963747904541236,-0.007615130259212167,0.14733683275762566,-0.04656348675705501,-0.08219852749057756,-0.10275077928109862,0.08782604232612713,0.21510384684953937,0.03266185325027821,0.6590962995877695,0.41786541563990715,-0.21645799331146495,0.5784061259719393,0.42580686850757443,0.12243989413604647,-0.23440603622330414,0.13064899642941383,0.14515988796534185,-0.1012543441273802,-0.37120267936411033,0.4695695444963188,0.34590590660964693,0.08181314112022893,0.4278179244549733,0.36187413478307223,0.44744668757492145,0.36861383528336183,-0.06622052944684217,0.03445806201096092,0.9445087519701975,0.3420440115325562,1.013761564203522,-0.2946188286710109,-0.007440935587852965,0.5797700558625896,0.41857737571003145,0.15808459180854656,-0.7030731549859609,-1.3948987944064697,1.2714842443109091,0.3962522922989515,0.3597166049679755,-0.5637871137250721,-0.2267725629667151,-0.1250999132984504,0.12417155888679951,-0.05653256695626494,-2.130029104117812,-1.0156709562172423,0.074522623433549,0.0803195686278493,0.04522402263722459,0.22473332466263174,0.4099629974162974,-0.058463890413481184,0.18932432369475774,0.18036055868584797,0.021379942912451922,-0.062269858810099936,-0.8096585184900212,-0.1716485946195137,0.01228291075466477,0.5975043893196883,-0.11496023184983088,0.6168050300455432,-0.3106518947985473,-0.0018135318722632488,-0.0737829018764879,-0.022088512252212436,-0.5060088095788369,-0.33983628493283824,-0.0717531404240149,0.23611692818698507,0.34363185005524866,0.25580604433608845,-0.4739395571216938,-0.049016545152598845,0.36746714696323995,-0.18337839547424828,0.10040958631434184,-0.09194113707415193,-4.120782903190383,-0.03211385466315947,-0.370052561468826,0.3849985566357876,0.18618697890297906,0.08266338940727891,0.1570298521531463,0.2975833953239888,0.3144640661931876,-0.2839315146271801,-0.27631598939560226,-0.07676330455453503,-0.10394184795632606,-0.3104695086771604,0.007729538608222332,-0.33214451478761065,-0.4990082551719325,0.057683544307967884,0.6404644730916307,-0.13870444799350176,0.2051880763563312,-0.6139035612642065,0.2992205034922885,0.2624486804910223,-0.29508754276531585,-0.20885660734548345,0.21238566588924143,0.20135508563849924,-0.17581568300437528,0.27941816250000895,0.675646150147111,0.27908308787227337,0.14023864882536338,-0.473531935567386,-0.15097460257597578,0.03867144595588992,-0.01005148801847282,-0.03950461012949958,0.3549066978240146,0.4216535330749238,0.9445627164990194,-0.07801833067934429,0.3061505129591321,-0.1583204151340833,0.0249423468670856,0.06231778513968017,-0.096432381029122,-0.014260334994166204,-0.7713014829223402,-0.930514234152334,-0.07797916600369002,0.10492833345606746,0.16815683598073508,0.21798422677677648,0.34282270896551853,0.20915202454415116,0.03311989415973774,0.3202702906021696,0.07121091589800001,0.34199840683801597,-0.005104814165119098,0.07260320046018706,-0.3036267269792314,-0.3804970285991861,-0.14677332840061527,0.0672850407209646,0.33626458731656483,0.29613745444244655,0.3260862572387469,-0.12919346523963196,0.15897700001390178,-0.10310105916871673,-0.20631385852605721,0.11403554368450408,0.1694812467271978,-0.0030414046771076323,0.4356650635288467,0.0034145162815519083,0.16893751794396292,0.129844892200784,-0.17144575516525998,0.0948676157575768,-3.597119365508509,0.3278472426908327,-0.13383084731628858,-0.2492812644329033,0.07367814348167498,0.2634593814438375,0.06969964618568512,0.11106437462701169,-0.1506090551886532,0.007358069091405544,0.3592379805343761,-0.06695072825244477,-0.10941499374382198,0.38794500137505644,0.08920460305151794,-0.02181429298083734,0.3293416150759182,-0.1305160186379821,-0.05961773893112471,-0.3838453117066798,0.3385441779059435,0.0837361385559469,-0.8069936399650237,-0.4030128936879756,-0.3143793411785876,-0.25583985763552614,-0.5951502260888185,-0.3537161412145139,0.08203454193654476,0.4179139380695372,0.7446987168067458,0.020662794315347004,-0.1530087831241374,0.3554560838795895,0.18621586763906023,-0.43217378496356745,-0.1855251287623623,-0.1083482438678335,-0.5982872894903077,-1.1072176777336566,-0.5749290260796249,1.6256198421850399,1.527933021707332,0.2942730310512774,0.1945262817514552,0.17544274140918675,-0.15934077127500404,-0.28810286980761574,-0.16945882738603393,-1.4190343727548436,-0.4355360779305569,-0.3139110749488812,-0.6517595385411842,-0.3009660240778709,0.5559179372861,0.2650561378643445,0.326310994770132,0.14257716827841882,0.03270958892831379,0.23022408542764483,-0.2841180237783343,-1.166974837927803,-0.21922382085691475,0.23825533561437254,0.274458461705212,-0.11804583575016085,-0.3464883788539729,-0.5575487506571231,-0.6854074024165455,-0.2231705545985678,-0.1741135275100123,-0.2940117674625175,-0.8136331669907527,0.3172565647876926,-0.29693336117622465,-0.8460780400996416,-0.17937117862402457,0.1387429933033314,-0.18205777642190138,0.09972781944541945,0.1630700161256344,0.013761469606623227,-2.16211688755682,-0.1610203055234548,-0.03415957280027895,-0.24064610955634,0.02091648126805009,0.004905835078693826,0.42786782949023566,0.3572821801452911,0.15817394306339363,-0.12554130072320924,-0.05814780460919097,-0.00030067733275386825,-0.09989828256990126,0.08916578510225169,0.08509583050334313,0.12479123318548907,0.16633720505400573,0.3709067923363331,0.008796181313882896,0.20136682934477576,0.04113453403040965,-0.6154292491634612,-0.04791736405639368,-0.16976607319977302,0.11223685753408334,0.38238962510086544,-0.12627274020943377,-0.011939082800390159,-0.5320100125720387,-0.5772792641846233,-1.8142326317040485,-1.3746728399830677,-1.506131962057706,-1.0728015937239683,-0.5470093802864342,-0.24614614210148766,-0.10778849897989709,-0.021884669996099056,-0.9741675984783924,-0.42292198081375126,-6.616548841668979,-2.585248836885161,-1.4785701428100329,-0.36327974301018073,0.0012930215756210479,0.13485226879215728,-0.25661934144963555,0.2435488267560639,-3.4166806288050933,-3.0799285038434046,-2.630495064313297,-1.4751136099160247,-0.15089665589368736,0.033068081124376786,-0.42514130809495987,0.1639177089765747,-0.25751820545549164,-0.636308212815735,-1.0840792894354487,-0.7229338568400155,-0.12565225818872547,-0.4815031719454081,-0.18795892523273686,-0.21180608838285442,-0.1937925510463057,-0.19993151507258056,-0.2242021489332434,-0.14295222977232733,-0.12339518829257809,0.07750875691581938,0.37193231237989005,0.25615806871691754,-0.27359313035976707,0.1576967247398759,0.051623031875386555,-0.019363056055053198,0.4011882571944125,0.07112918000257558,0.43633552559711447,0.499136177325643,0.38173380633851206,0.49669968602054276,-1.5749858591118189,-0.25808663795068265,0.27469034004717185,-0.31510805109998735,0.13178030884543845,0.21423321183042054,0.139423816478719,0.2530177311153582,0.012893195343544096,0.3358308663016512,0.2960275019215818,0.1464450927212126,-0.04605000781783449,-0.19012631263796118,0.2591419030960811,0.1496599725770297,0.08276309517144784,0.12226092485145335,0.1698291876108188,0.21952617899771384,0.06390228651639952,0.42488365628707386,-0.11045953467753011,-0.11355905209284274,0.30677165666859363,0.2170644466356038,-0.1126547251227902,0.2781763318066018,0.10276617686865981,-0.2068830120695688,-0.47857940442016206,-1.1299616714652125,-1.0719662038417015,-1.331273833334623,-0.5846270531623164,-0.44316205697808675,0.10174081602176059,0.23459913016374206,-0.2931589236929275,0.06338004891528039,-8.583535117121798,-2.6096310830326073,-0.5724035893470487,0.10715545259653506,-0.045192952601777005,0.22565119666174202,0.23062898397856849,-0.5146509000336297,0.5072175171913711,0.7675634385281682,-0.2081722683535663,0.013683191471535138,-0.15750140134268503,-0.25215082200652633,-0.26290118511481464,-0.408574558265994,0.24112299548992097,0.25761491317977603,0.06527633246703891,0.2399657074639581,0.18594723082175374,0.21312860251726476,0.1942624578982054,0.482001085096599,-0.1457638062756524,0.15356563283478034,0.24024072734471327,0.15745703494038446,0.14070770394365598,0.3200422428179138,-0.0033718180405553615,0.008593407159118388,0.1791673399041792,-0.17198602216426687,0.2039721610531017,-0.663150535733861,-0.33855104117984597,0.19272296183482246,-0.17205321562908354,0.33798335873272584,0.10820086650037432,-0.2809987835363094,-3.209933983499221,-0.13852303119076947,0.3104457042648768,-0.4398114702881933,0.3859043580078653,0.5835702292148479,0.1367746642544105,0.3362795949158499,0.13118550136681317,-0.5307093434003476,-0.10119871960175787,0.14475744546432245,0.23664568742085274,0.26149295184349647,-0.7185572154959268,0.2208414944964274,-0.2203275878367331,-0.3244426846616879,0.07180716550314004,0.008842871910039123,-0.10178799347001775,-0.2186469534185884,0.5838478778236582,-0.4482248126294733,0.15911366309609506,0.17726662840229396,-0.19191343315198875,-0.23650403401245199,0.05535414185463369,-0.05199044580302691,-2.8281653596605434,0.4254567126681609,0.39648207253673046,0.17638370483806715,-0.24420345017380038,-0.04629756278249622,-0.058764070021316596,0.13415656381935054,0.00900567236051324,0.6637495219686684,0.6658490283208185,0.07650031608791687,0.8383588688745865,-0.40408037311277806,0.320393930577234,0.3022118439417877,-0.2706120114126554,-0.3607458094382123,-2.2384123522432855,-0.5515862265394206,0.8182489078225658,0.32401688984014354,0.4509321312218226,-0.17203958337265082,0.1741501092259963,-0.05251400134994632,-0.4100266677179587,-0.09162105904918154,-0.022505849313708328,0.42785580750164376,-0.018762655841964692,-0.06602624459981647,0.10049793033987953,-0.13697444851375737,0.44840239546890154,0.11692768963497412,-0.35044161825794423,0.28104223271446205,-0.6713800122950514,-0.03710202780354102,0.4408537143153853,-0.05411810967308918,-0.08173157975253698,0.20245230961051247,-0.133126241916659,0.2549321790304733,0.18397148940226307,0.054387948247235474,-0.24011466474817145,-0.06935342647210578,0.218228147856171,-0.2759967610597945,-2.588681833614679,-0.5826509951449126,0.24821756011973642,-0.25436348873427145,-0.039089410454766806,-0.11504138599640942,-0.41713429970082416,0.4712603883289331,-0.019899165156484606,0.0069163573461913505,-0.08277406935964154,-0.155390816855588,0.08572026412104221,-0.013494572513819839,0.15750815540868754,-0.15617670093120326,-0.03044193977730045,-0.10541434519032407,-0.3883706820273041,-0.0021608031824054937,-0.3251655434212345,0.3018666155640381,0.25493500124145035,0.14765636358859796,-0.3010019598122794,0.0479521274684141,-0.2942278925809584,0.2266261167826804,0.010309792061978284,-1.0176764860811573,1.0464839724271897,0.7174723441874613,0.7290430754465732,0.5392379836602544,0.6613726424039441,0.5327540138874512,0.31002135030099826,0.046580908697891464,-2.53484969063409,-1.0968901807491005,-0.5299617982885264,0.10164353592624109,-0.1518241083590132,0.47102854216605006,-0.56087676643319,-0.295133994011298,0.28835973196081227,-0.06966835135219752,0.22770859146674868,0.33698215818208466,-0.0876708838566365,-0.44740607319641335,0.2911551023964463,0.03565557312108426,0.381511688371406,-0.44624810661696823,-0.27526687399867783,-0.013325048738867761,-0.13625535305624858,0.04531013270982881,0.2224661633486658,0.051003416580426425,0.26518169565972816,0.12745783967740182,-0.10217438007053267,-0.20010351641000432,-0.05277171973580656,0.41265633908648464,0.3310568112678987,-0.20322844296538256,0.124727015065032,0.5431688246865018,-0.26543803064221194,-0.5808369455579905,-0.2066841248876592,-0.10955228727715079,-0.3935452470116572,-0.020079538148094492,0.19943255892739037,0.6870787350543482,0.4568026088262359,0.34704141291685786,-3.7249611862780925,0.001720266413774667,-0.11848142400927077,0.06463854712822191,-0.008348877572759383,0.48978905979909926,-0.5594308719424358,0.4343924017966998,-0.009687164720714197,-0.4277809496055793,-0.307803702897737,-0.09596789251434941,-0.031193378813865465,0.05698723217695304,-0.02855597360788687,0.2540010034299186,0.21951381889541208,0.2304214442264182,0.35648526985500817,0.18100347481643117,0.399993626965323,-1.4535240890280403,-0.1255365064412942,0.04060664609593602,-0.14689801744018102,-0.068533409804965,0.395049945465561,0.3410848132446271,-0.14688802381077912,0.38916428684867643,-1.0984051383220805,-0.36534945365627675,-0.5328608168806637,0.231716173110451,0.22629860536172644,0.2717639930916968,-0.2427399980635799,-0.18995001924370064,0.7844038860618678,1.0420879736355448,0.4054913634677202,0.14969859052874346,0.2112874201638678,-0.11900843410655094,0.40995771234569134,-0.3804848487210294,0.056715484685464695,0.08930121254885016,-5.849754246622717,-3.1839819254596557,-1.1703766297882618,0.37697686112024387,0.24480903745029003,0.429946045825784,0.4916100463096153,0.14871327131510303,-0.35227232828513594,-0.5032498151984827,0.11021563251056654,-0.6209758910736295,0.05332092620484713,-0.12262878874242743,0.019398936702896993,0.3878960760914002,-0.04553874260260822,-0.1161827878817502,-0.18078601610274306,0.08330291100784876,-0.06769702695567481,-0.40295174199916217,-0.20206044695725223,-0.128996751725047,0.27512866847707707,0.1015784338911614,-0.18767053628221725,0.3836345239807817,0.348136110822459,0.31731711116655614,0.2673124120826262,0.18889138732633287,-0.2098989793891053,0.6785602425137597,-3.4220417666878027,0.14457305661088182,-0.15203758743718138,0.20759341125720532,-0.383449073962942,0.48068129804590787,-0.17731431173556386,-0.11516162822057092,0.0727788146899399,-0.08424432343553259,-0.23495465028133622,-0.1458035905548206,0.16155524504843047,0.4128496130254483,0.171731398629998,0.2499357327982806,0.308506990726428,0.37133547741070366,0.07016781634398293,-0.08007932179516221,0.3316989252070356,-0.5176486137330278,-0.166753988036297,0.7941547984741518,-0.21192585363821745,-0.3478864562018924,0.08083035494544163,0.38550789406353264,-0.2962133966982274,0.16266195993210775,0.7100942918729661,0.635463764847896,0.3938373605202383,0.030669606295444473,0.11551982527992244,0.24815456717335377,0.5441572861555874,-0.5114912836438669,0.4890898098336943,0.06090348013268347,0.6980062199692819,0.2322591838383102,0.20092513434241502,0.12940425195070954,-0.002698365921277593,-0.08667088946852575,0.07886798452304125,0.3008254496634489,-8.431008515093863,-3.5053911811767726,-1.0758738648245494,-0.83030276492251,0.2375086199808397,0.09866920383076408,0.3790931334515801,0.2885527272016356,-0.19408561537146535,-0.3318301494987019,-0.6041085253616586,-0.5418859409637481,-0.08012437869571869,-0.7479006241794975,-0.3015009521305674,0.05937109723682096,-0.047672400861378784,0.07017242385969226,-0.2763186221524045,0.05855713407357353,0.26060395166006634,-0.26955386350562277,-0.40303349333054406,0.15882210734515093,0.045331590530053575,0.1331116387572737,-0.09605224072638233,0.32529142384047405,0.09364172094928049,-0.5824177391731893,0.01431325920410571,0.056958922503278525,-0.10022903445903501,0.1352032418755432,-3.8610651959245006,-0.06844765565485114,-0.025007673314645835,-0.4538076264338995,-0.8456397469758691,-0.41203311771919293,0.11622716309486744,-0.03937061068774275,0.532739538494995,0.36559596743143813,0.0045088303557404615,-0.08247356720660627,-0.2837335568141035,-0.6412903170662525,-0.5775900652542265,-0.04744154345889553,-0.6290193673547917,0.5508847762984715,-0.5235477731217445,0.30758934916732383,0.03340621621391984,-0.00847214914424005,-0.16273379654302755,-0.11236680750915679,0.5276282450990503,-0.7035840189945113,-0.2550483647986975,0.2433958208512502,-0.28035317050399544,-0.13392340848842882,-0.7047981988856484,-0.14772095446060807,0.1527284320790742,0.07599072492432847,0.2709824044074133,0.20472648413604522,0.2686669811286621,-0.362686375689737,-0.9016505187600384,0.3492564191371742,0.4605021797391703,0.9200946942402755,0.129604328388419,0.32119657290073494,-0.11589306633593854,-0.5177092805752408,0.3959455481649467,-0.3124371063189735,0.1911978086894868,0.34379505787158354,0.1449304852672307,0.14397933386254502,0.502217358054812,-0.21335686179040236,0.4388860755302555,-0.48921445679535097,-0.03837847037102852,-0.03122607914083517,0.1407183021077774,0.4179683247718385,0.43498542433007864,0.5399786672883782,0.06251230960382453,0.430038055930704,-0.3004045754897759,0.22394390517988214,0.3847451082907352,0.1941855881123612,0.010274292124471776,-0.4486254568696608,-0.11270306175656293,0.2601649526949602,-0.09517872327893685,-0.39903673301210285,0.31403761082522424,0.1678376456427259,-0.4769156891529326,0.12600638200112835,0.1438905234559899,-0.042743561889683625,0.23843386805923983,-0.2909768095442976,-3.1576855046860475,-0.16010523084852749,-0.012722061020949511,0.15764828429377314,-0.05155585957311985,0.14191123135872044,-0.21395407516677756,-0.2292082529480406,-0.031524696905853154,-0.35412693001671824,-0.13549198942689006,-0.2920940880621754,0.21241389191146473,0.1024536822304909,0.34919664597478406,0.279547118186515,0.11639509989626448,0.2812038449181192,-0.5249337180603199,0.2649098951780898,0.38746492478177563,0.10522471179675401,-0.20273895125161376,0.222284748703481,-0.17778071952472413,-0.5109713068315438,0.22213453337523675,0.27961673854725794,-0.3851805952936727,0.044332791489849935,0.5850813282603351,0.5352683038629009,0.41213829329584745,0.20972011955727912,-0.06711216846964639,0.31911852064006346,0.13748570431394339,-0.24030076604829245,0.15933069571512712,-0.5841422315161847,0.6554162384021429,0.18929044770794326,0.1805502579537561,0.19897768407352204,-0.20710992679979426,0.6227014309668202,0.07710296735603968,-0.14867144734010782,-9.81484568297123,-4.084248360732811,-1.9587197263455003,-0.7388116174885555,-0.11562792721199613,-0.6237203578478426,0.04538010816647589,-0.005469520658534549,0.27391194165162064,-1.1618128722744625,-1.1990484924160987,-1.0927067198533267,-0.11814201657467874,-0.6988448098667535,-0.0888452218050097,0.04740881932799146,0.15987919802763786,-0.24975525190001244,-0.4333353765153845,0.1777753068051251,-0.44322791972366327,0.07739756747343973,-0.06817200387513736,-0.21322024176895427,0.12839336667578052,-0.02512270307851624,-0.16319115148759433,0.08447318779954699,-0.2070387380969073,-0.004288634182762673,0.29635053967919156,-0.17562548526455066,-0.30067839892705445,0.3681247211037836,-3.4734262012936084,-0.024079978175084515,-0.14645455786515849,-0.213743214957662,0.36899301320423145,0.10460424896668799,0.24346222993880628,-0.19583028294447422,0.4898104114667417,0.05743428855133464,0.20129445785531577,0.377405882011456,-0.4386606773022115,-0.4911364119716405,-0.5275509554530978,0.0957249261176615,-0.019109298866802182,0.07997075294669023,0.2080319358189243,0.010927746809246358,-0.03815460209370141,-1.1260538576049934,-1.157547144386761,-0.8487217529242469,-0.6025180547708379,-0.40300185659864385,-0.07999337813022943,-0.26038240129378587,-0.04375661008625272,0.07036209069149055,-13.506219040292935,-5.959314858509117,-3.330665684584425,-2.118802365960873,-1.8894195516747248,-0.6895501609201883,-0.34929877740823706,-0.14037292623600825,0.8160032403499015,0.2589426159585419,0.3100428552637757,0.053732396556999386,-0.1125790518157042,-0.09833638653241124,0.25141420802592057,-0.044560498779583485,0.26329645046309597,-0.008552961880327245,0.24843599555029466,0.38668246797284583,0.338964904998191,0.44052988797702547,0.05361091471776209,0.24265754904335446,-0.15070030261950687,-0.04990027276689578,-0.28595948191521653,-0.29894148291665057,0.36657984057491977,-0.04523480875113042,-0.18818951790563188,0.13289448250631325,0.22543032250557843,0.1592637483177887,-0.06585682045876305,0.024663600365231048,0.0169419255443644,-0.3918394388112104,0.24977154786759323,0.07501047348617342,0.3248179260615446,0.3593641754066357,0.22581623507533607,-0.054889419769272245,-0.10130440730273316,-0.27187266386276676,-0.25309007230920655,-0.6582671065520175,-0.1274265794462482,-0.16776654965550022,0.048601277523104044,-0.09519813686484253,-2.420066931226295,0.27349173388821607,0.09091162930045368,-0.20765751853769893,0.14622787133907764,0.150001815518684,0.06067510689474917,-0.41061285077484694,0.013684555210431,-0.24218312344543083,0.41843855208709174,0.16530076605515903,0.28795660260033634,0.18557951839513895,-0.0618453279455408,0.1504962289613495,0.40746320193700664,-0.06738676328318301,-0.08476595246522908,0.1658983186177014,-0.25989839870696,-0.3256959738137393,-0.18656871720230095,0.1619867606566147,0.10341832425774777,0.06924397600196261,0.07610166983961066,0.3872996295571486,-0.3981002109728085,-0.1556169062048656,-0.42558209769671845,-0.3308670655006255,0.11265609716064454,0.46501231457779085,-0.37126981269644915,-0.472601539317664,-0.03894364560570089,-0.032696627217903645,-1.046913704690976,-0.15126029408231245,0.782858989076439,0.001236375130508597,-0.5152111065323283,0.340741813393423,-0.00787860690324292,-0.35467479361896304,-0.005278914998526776,0.4192585695046353,0.2066771572413802,-0.2684488397291015,-0.03783480605299033,-0.04267838654929464,-0.20423643108740394,0.0071370588292595525,0.26353200545026195,0.3072616363383595,0.10526609915431798,0.16522281544675724,-0.07452751303947275,-0.3746775950746525,-0.02765542581155087,0.27933589381887824,0.17067741334347136,0.021431743837677507,0.06914020602886217,0.544273057970675,0.19368688667112627,-0.11986766992237628,0.024702557750713526,-0.24730485229023955,-0.2790993434771867,0.4115106359154005,0.3897204569363366,0.480741240721742,-0.12870840956213986,-0.19866858826773984,-0.18886664349409713,-0.19495936175200393,-0.057732508074132285,0.2260052186516708,-0.09521009268140343,0.15020156943943272,-2.769455594995422,-0.4943146900275602,-0.19734574027783533,-0.6288846156980933,0.04326897682734703,-0.53934038091441,-0.10313131122280568,-0.3229790283945964,0.027465704333758348,0.11688790887972506,-0.0549311791522003,0.35246015366056915,-0.3697998848994272,-0.49005833980789687,0.026902213753994746,0.4276262132065944,-0.30379178440419086,-0.1826496823558761,-0.12943179988491516,0.05087926445203649,0.4780473841090825,-0.5499658060677782,0.38635281432235025,0.23983981639941995,0.07228139421440115,-0.15576526550176334,0.36056172152932103,-0.5198012608287511,-0.3096165264530578,-0.5308908343278879,-0.011294009531315567,0.868425985445838,-0.8235209394640093,0.5405462407860415,0.18147885807949662,0.3150734283147586,0.11987757160235983,-0.09772925173034232,0.13559051179811307,0.33503393269768655,0.37871114869068473,0.6057564300065016,-0.0055931350497350875,0.11242646888897385,0.11706720960905412,0.43513708090011455,-0.4469086095608358,0.05563046852894135,0.5974468565185006,-0.10597587979342943,-0.14465905867378562,-0.3601250032998477,-0.6602229927325066,-0.11425323861934349,-0.11989548493511182,0.1631173233242472,0.11945762508959408,0.5806575872915156,0.11426825541659272,-0.007853487893657099,0.30456825477787786,0.09627244544692201,0.12122539124090168,0.1912193641840976,0.05328346504194829,0.05585798611060732,0.4558319793064674,0.4035659401360011,-0.21468345360867314,0.23881762526979314,-0.33227279370930907,-0.1948353761628045,-0.014323790438831445,0.11983799360133753,-0.08518366037786718,-0.8221735975726706,-0.503094719733541,0.13663509283373157,-0.5211858697498035,-0.03914627967977978,0.412458992111855,-0.28942958880984504,-2.6343841384368822,-0.35336428458740976,0.35118601821206025,0.0992185998843852,-0.4073100345646561,0.23640967846699257,0.3283577203922428,0.6082922813270066,0.15654650989872432,0.010166733731479484,0.16352225453047947,0.1905924688763659,-0.30168690415747856,-0.215360290376472,0.009861875632076566,0.16162314493124927,0.28529272751915696,0.32280206814868173,0.28270420282652864,0.15465774978177202,0.1845753952547979,-0.8269847511485782,0.056526211589319725,0.11720325871449108,0.003877707810039915,-0.13069439406552108,0.09231325329222573,-0.5641731167179814,0.2975621338574116,-0.09521617352469713,-0.610655970082642,0.21011363688662812,0.43092370432045524,-0.04288834097705791,0.6107784264513989,0.515766229281373,0.05016826497806377,-0.7164809754254617,0.7482673739667577,0.6325359839003759,1.1377741379858792,0.3407014618345308,0.16174549482269837,-0.2746335965670078,0.24533588212035415,-0.08539697318435563,-0.10079460100179313,-0.023687297803308326,-1.5076703071749016,-0.6418243028730206,-0.09582921032509387,0.011838197870396057,0.08184613998123556,-0.17116644074204646,0.024386539729541128,0.12119792003169702,-0.2885803514557565,-0.09494918406987587,-0.13065959029522745,0.18754924454054525,0.4471192395902294,-0.04691802030309797,0.1443856357317324,-0.24237818313686996,0.3552331793748821,-0.31314673238474783,0.006967531906421121,-0.24426543283010516,-0.35639530009107206,0.04013536731066235,0.20369702334892048,0.0013258633301607443,0.24058292674003523,0.22784745067919165,-0.3231984458098451,0.028075909336423573,-0.024795331762420155,0.36125899373656617,-0.06359513305038512,0.022086456748522446,0.4137116496050317,0.33046751345316794,-3.786281845550738,-0.4745759332859724,-0.3678833661300128,-0.13236414244939834,-0.3838523994178593,0.41188761967185494,-0.4257451926969411,-0.5567698227074965,-0.6891501516341696,-0.4668764687510992,0.2460751968666916,-0.31094097689913214,-0.42565312635635055,-0.009105255154010856,0.2158871001082275,-0.8549001940326012,0.31651215505015196,-0.2208309064550674,-0.4273421114577445,-0.1750572395833161,0.26302465880371306,0.1276131003399458,-0.08711031264101954,-0.6003818749070912,-0.30237422601807096,-0.37509063738782206,-0.634219156718171,-0.46939418504904723,0.11259804553238803,-0.19308630808908755,0.6123098822591647,0.5431738743505699,0.19241137241369444,0.21353156242068136,0.1907609545886746,0.17119440552889398,0.002903562696355615,-0.1840724320120438,0.8206101928239006,0.7206494221058002,1.0317131074501231,0.9429826732995779,0.16930037931317143,-0.04993084634810609,0.7893229927876247,0.38163817942421097,-0.043367384004115064,-0.6138994402736614,0.9513590457473334,1.0096514310548457,-0.43598692685168056,-0.17697261095168343,-0.1739106843547481,-0.18844405177237952,0.27703441996636136,-0.4549672503035958,0.34696677281289884,0.6977238500749388,-0.015350616672203225,-0.06430959589833359,-0.8772028680986623,-0.6516391781395057,-0.8762036914739001,0.34072370418411807,0.3807435969369833,-0.49197230571687456,-0.33722069105984687,0.019094067121674843,-0.7649923934267421,-0.37175419409923804,-0.44634358532853924,0.1371323326419906,-0.28550730759211,0.30081800501049955,0.5183810963467624,-0.31559681299708525,-0.09899531673722967,0.32653632821263234,0.10012380322432311,0.3900409121947483,-0.23341561863335453,0.40633697072468183,-3.267346539325883,0.21670161095624146,-0.06745550967584943,-0.26859854960514634,-0.22656389009901515,0.06623826933415268,-0.16752193427857132,-1.0113034079448606,0.22264636115283554,0.28510628314819314,-0.2239226722744203,0.5798509258813755,0.22969930864026122,-0.380360170536158,0.04638366978997399,0.13176282818073276,0.3912333912512752,0.3222720398908574,0.04011940305862405,-0.6252643361560908,-0.31964941316001777,-0.23855580378953417,-0.36133448013823277,-0.3360834876925499,-0.020977154326950846,-0.16828190959916495,-0.11117248275799031,0.03510020421952012,0.7269985353486247,-0.19103561385695464,-0.7336097315100218,-0.3900216126139389,-0.2245088661007505,-0.19594999431322427,-0.2203016514187289,0.1507809336350485,0.3325121937387759,-0.17604033618020934,0.37790057494300666,-0.10970886170438071,1.3632956322765346,0.5113201536486915,0.4147333490879357,-0.4677770797633904,-0.17095527199269234,-0.5201078844375293,1.0517252949398783,-0.2492909945068293,0.9171134177111825,0.28312841382293513,0.3597204364707403,0.281035670522707,0.22596260226709586,0.03018869770145936,-0.5259363293179069,-0.6140659175017413,0.25696959157697963,0.0689717794750054,-0.44498427210699504,-0.24395425713539642,0.02064993272190235,0.14370978340051718,0.2585332543472797,0.4245177615737582,0.6016064365192924,0.11460441950058099,0.4237665597328785,-0.263685835674531,0.24056085019110626,-0.5980131882266256,0.3810478171516965,0.184690739071981,0.07507433878206686,-0.8868260281361744,0.05572286179787309,0.05410050701633474,-0.6386409338472143,-0.24070839271777175,-0.12884863955358464,0.16103124798974572,0.24192937240652612,0.16956401325987872,-2.9879093170249176,0.3568887805431439,-0.12312499310842565,0.29138509562199905,-0.531696896981973,-0.26729247476527346,0.12983091934224242,-0.370031884990124,-0.08350615465630203,0.4064758894538575,-0.24241919369115825,-0.3240984857927546,0.0027516924474278864,-0.3835140586307511,-0.36823218012297254,-0.04782008914188082,-0.4889678918269782,-0.012723395684929984,0.02021818017388832,-0.28041328896309997,-0.03426521148668418,0.2404009359111442,0.17064067452352663,-0.10788047753387192,-0.057315900146422016,0.12267482217494668,-0.1197352272360622,-0.26532019319886,-0.5241419373342271,0.5241282282590378,-0.06920309735111713,-0.38561640149869725,-0.3797885580276426,-0.4443241684539995,-0.19785073072589907,0.11129404264494737,-0.5067917361835378,0.3985459513966906,0.07630610672445555,-0.25043335874160566,-0.11771311848434923,0.26508643726974135,0.7484213384205319,0.11616734180670356,0.45349009408307095,0.1189528866716166,-0.07586580974055784,0.05023364460642152,-0.053641093320111286,0.3872395417436069,0.2793263324070858,-0.2959382714749651,0.12479681789000642,0.510221098907809,-0.09370923102777465,0.21788555936951645,-0.28747441925577144,0.26029856473469004,0.8878822166678839,0.5244566003232531,0.24044399773649586,0.051544898882312146,0.8816138712687012,-0.0020384700298448984,-0.16797636044077688,-0.41034541186744067,0.16722440637913194,0.12394204495167772,0.000843066755356558,-0.3712678944810186,0.26469963611168756,0.19956499562094399,0.044581477791570366,0.3823647367926397,-0.02891706644701983,-0.3808814309175781,-0.5006464281051783,-0.47725728890864416,0.04091043295509676,0.022148875419374263,0.024313594500748957,0.09486527353569561,-3.1575814085237415,-0.2413028872039615,-0.0947293486252433,-0.6591328442359217,-0.38051935456937647,0.07113031831800555,-0.36385932833376794,-0.5909684242012668,0.07290640975656583,0.3545841591265706,-0.23717311013537642,-0.5018237936337414,-0.5474134034450162,-0.4946958515896532,-0.21413861245400845,0.02385089278119424,0.12814957042504832,-0.13968383239491514,0.16312721416605147,0.15357404712510295,0.399644430240504,-0.30617386920142703,-0.2989558793539557,-0.2529879230825217,-0.4329728667352957,-0.38137230647528886,0.1477896274158315,0.4516663411233567,-0.09043063527620586,-0.5306077266214542,-7.590657248200459,-2.695538554343348,-1.373493361127202,-0.5158172661019974,-0.06282013662688223,0.4467161274712056,-0.27577792988266236,-0.016690308703769332,-2.186507175827273,-0.3668566854761447,0.47710327508803374,0.4221971496840413,-0.5233556500423995,-0.026114664324224646,0.20722430124160227,-0.03614735036592371,0.2078133785930631,-0.627395516868714,-0.24119543345635575,0.4267945840058298,0.06387597123539089,0.029825989990279404,-0.21308004732389302,0.4209097792933342,-0.0608961242017577,-0.9018872935860516,-0.7222748325064221,-0.4804435890172418,-0.4121246095259179,-0.17411532872224164,-0.4625239183916212,-0.3725067616183596,-0.0790667388978903,-0.03731125744047162,0.06476887387710284,0.1675821036074041,0.32428967164934275,-0.18783314423941758,0.02362032858629489,-0.02883381185829543,0.4364798139205137,0.5846122678259935,0.5445611338673392,0.325901134795109,0.19803979484173548,0.14489467624093383,0.2631735527571958,0.626014555343881,0.4233553195238915,0.15324200605222651,0.34319086518124686,0.4863147723416144,-2.3809565618213764,-0.022788666719611474,-0.07802913512570131,-0.024690499373892474,-0.13135522178441256,-0.09031313137314563,-0.16542475191560319,-0.02325908686670702,0.1184376349658995,0.015591962277312658,-0.016757266570114247,0.02491558202223686,-0.031179565212401457,-0.05824525307802285,-0.04714500311011652,-0.08496893472937024,-0.016526909325971718,0.03738452193725305,-0.09468719320681487,-0.09599708716332904,-0.10307891042916553,-0.11789791802290824,0.10572880843972542,0.14958613197506043,0.0952632796135059,0.04005424776250467,-0.04807732644782246,-0.07148539936040017,0.0548535238666694,0.03013670130327066,0.03572445332403819,0.14669188187073917,0.5615830653871396,0.5224242252345576,0.35232503541569643,0.22859855037794363,0.1499824348846841,0.05207677411015938,-0.12973941358141422,0.05799742157959636,-3.331459907017853,-4.685314852173362,-4.47314935683066,-2.7226319008782487,-1.874056067444813,-1.521899080592222,0.009177548311654425,-0.038665179798593935,-0.06580704832613227,0.42914189435378897,0.8431580548113085,0.7002988991397848,0.4372846699267411,0.3788789214305485,0.25027713910057836,-0.02278837412880681,-0.0031417245619234217,0.03545259708208138,0.15433302287430567,0.09344376857570832,0.10500335178017213,0.11661814382521288,-0.007994451513443347,0.010085615666344253,0.046228342157377283,-0.03835384258315673,-0.035143058224763775,-0.005772053651709964,-0.07273083774588236,-0.007032916663099193,-0.03637238229342577,0.06025186630362989,0.015679932093583898,0.009571622157501413,-0.017371592784296595,0.06559521856689661,0.008376990442120922,-0.02880191880808651,-0.011350665782045952,-0.03713539285963738,0.0018258854190663187,0.10470940522257957,0.030224756459377774,-0.029912641022481697,-0.07129863695311588,-0.08663344736588563,0.00688959963379195,0.07542028526467294,-0.07254348050312728,0.0885182072335683,-0.143316148787518,-0.02805865708008817,-0.035907157907537415,-0.010237878434193536,-0.017504391289269255,-0.17593394232712384,-0.09179312210096703,0.03977387773400712,-0.13875851419238316,0.07170839213594499,0.19077950607824162,0.13131655680724869,-0.10116319771903279,0.07249908362122764,0.16869384522532616,0.08642603491859932,0.07158897403698318,-0.13260042721753276,0.13652133463572655,0.034588582953869094,0.2547252574108939,-0.0020415199642706537,0.16381554425961056,1.1517720533934852,0.32298991362468077,-0.06470275727022966,-0.05762095593943066,-0.15536624078998743,0.10896765827837272,-0.7410167781449964,0.09807140084618444,-0.03299268112477405,0.056709100049921655,2.3055369280230513,-0.41532830455978337,-0.24212397467182056,-0.11121287647423898,0.054469885804007544,0.05654753052515553,-0.3014033418105625,-0.18300797205505703,1.2548783793115472,0.4962035196431904,0.16951184973763486,-0.14041174740985712,-0.0005079855541631565,-0.31582138388847536,-0.14149483659765236,0.24912911325400267,-0.035428712178525626,0.09953045067218885,0.13802753271374318,0.051491051716337555,-0.011163917799172527,-0.002021563130661276,0.13291485115899793,-0.1589273354534192,0.11241123665588332,0.09197857505637036,-0.04185048146718481,0.08033116036283514,0.22968849769023944,0.12224117451077114,0.122009636234931,0.31433479815655735,0.24960809840552883,0.32869679663229723,0.06761874324184695,0.05121040252094192,0.12799817764705093,-0.18326181694250335,0.1425640571219869,0.14754811636553114,-0.03685844203036146,-3.7378831851124428,-0.15305537946109013,0.8253761911771095,0.07273430858740315,0.09068184280496097,-0.41375934934202535,-0.5510189784952475,-0.1841860111256758,0.05364652752953615,-0.7418011527918771,-0.32678312101508766,-0.21259226985069057,-0.9355533228209715,0.6100125364796345,-0.6926268422777461,0.16641471500239519,-0.29994161134969155,0.33644986647395003,-0.24011073872739086,-0.33735475794705544,0.43807869921597115,0.04342942244668356,0.03067657565507434,-0.6323803645347574,-0.4892966150923947,0.6143521152547499,0.06152207127839644,0.33267171983586974,0.1734786564313489,-0.23070789467379388,-1.2617903251563527,0.3145802508841202,0.1481545960899789,-0.0716791528487239,0.03518068332215118,-0.3624018273044821,-0.3125551123075356,0.08961734484390152,0.4311369071421406,0.4930034792319045,0.6517098401692706,0.6286697059604525,0.8985419604671323,0.3707709834005033,-0.31882595253315166,-0.09040006576960556,-0.07923964269288399,0.3336896090393511,0.38247433851785323,0.3149486994314625,0.7801232691098948,-0.3976012061799125,0.37267017231838656,0.044822001560146325,0.24597255054309072,-0.30561861670591617,0.41620925806138004,-0.20804717266773054,-0.7274257378025408,-0.17210815976602617,0.17456734435438948,-0.22093462845366993,0.5698005451636546,0.08152287701537561,-0.16360799652199665,-0.0911646213718942,-0.22108399903461848,-1.2012669395269873,0.35660310700193937,0.1879634723053273,-0.0789891392447292,-0.29862911340347387,0.12456307491960247,0.025250437368632143,0.035729743004419154,0.056353390273674,-0.12424268367825254,-0.6601881513775611,0.5565641249990787,-0.48168549624232326,1.1507555223670753,0.1377322974548409,-3.3480182869363313,-0.012933879588357844,0.11417529692619341,0.027501565336794022,-0.5063139742938882,-0.038571483223519575,0.5643450159840047,-0.21497878202379925,-0.02973531258030555,0.6130222092714187,-0.24470298289821965,0.2580991233562951,-0.6745382021709603,0.07349977922842031,-0.06848419996541896,0.7497294452871015,-0.27366842090384624,0.43332638253221323,0.34107672408861206,0.2796934681647287,0.21608710813059845,-0.2193621318318399,-0.12267720826702827,0.38805748328537293,-0.003690549492874824,-0.15502955832839704,-0.25921349636006935,-0.2237085798352874,0.012335492935720537,0.11752051465432116,0.19433141287513914,0.7230456899586284,0.08194110465132493,0.09013020952746782,0.6572239768157209,-0.07817540701147273,-0.33574193498270366,0.26643139485906875,0.3827469055605229,0.8302071980712092,0.8030092499620244,0.17526799243420615,-0.2109177816048888,0.602896390492268,0.3623287095779166,0.4950572023391949,-0.023903801701226086,0.2686723792468795,-0.508620098073735,-0.01942887427659021,-0.41570963473253447,-0.41484337812146155,-0.13093188032961228,0.13120106318684796,-0.09540993207241534,-0.19651158222504747,-0.3126123146646029,-0.20689204981147657,-0.2957323207516971,-0.1316727188193571,-0.48786650166195156,-0.6252942953396744,-0.6670782766000124,-0.3719448285441465,0.11804576670006844,0.0038265508091636195,-0.4456806421368127,-0.24715096725080266,0.4264387411932384,-0.002508968798423587,-0.38945790457966906,-0.3124969601265432,0.06390851420306157,-0.018096220818243344,0.04506287025080414,-0.2011310955077205,0.09078233569141377,0.1915425051811839,0.09351174437503448,0.036612608150648755,0.11798910622279014,-0.03812654287362022,-3.0843673173377404,0.5811064260931258,-0.5973275909482176,-0.31945316364310766,0.057843234703697656,-0.21808725344910504,0.03344362907768106,0.21926004309643035,-0.13394474920826327,0.47392373319304804,0.23102775199193087,-0.424968035473799,-0.09314821310488286,0.41618182917060637,0.3499882049190969,0.23023650191566541,-0.30301991049013866,0.054885111532838225,0.288954054750877,-0.27743408143823256,-0.14005808797083302,0.5904672985857986,0.004259584299957614,-0.06081498058659197,-0.04899190212814869,-0.05038428472478518,0.3160501739521774,-0.81347335420631,-0.3444697524755671,-0.273293915317869,-0.5987273242235759,-0.6798422411910386,-0.023450474645585178,-0.4838660222876994,-0.17163583774046853,-0.264243277094697,0.5507938736426794,-0.13469394226640463,1.0488012681206773,0.3109034865869682,-0.08575849944998824,0.0726011568626416,0.39297182164148203,0.6542484816525002,-0.21881047498228934,-0.13051857586946172,0.1699205789314417,0.028794834386455366,1.5206549080634788,0.5286975282476819,0.3359087447141876,0.1863642992104087,0.43541859682155915,0.10397423454871439,0.14409343898903046,-0.3019316553417535,-0.2980173758111214,0.2321134665790589,0.19158706596033256,0.5389516627312322,0.1057870463306683,0.03479054227855513,-0.185404224106118,0.3428035668834872,-0.5974403698719872,-0.6849884395447062,-0.17282530237935284,-0.19914103844316094,0.02205268684439576,-0.21152374549819866,-0.39251635407566776,-0.15496898516755864,-0.13665191627620185,0.8479169976214432,0.06410393689167798,0.23903764269158553,0.27711204764810604,-0.1730260768106841,0.15491425547707136,-0.09009714183188791,0.19540821505531783,0.3550660961766237,-3.441145327821917,0.3173104932704844,0.029709606499090577,0.08941254843069955,-0.2025150546928579,0.14123974613969675,-0.197513015749041,-0.12777112440596738,-0.18289678291013556,-0.06531801016370276,-0.49559644140622083,-0.16412878980244444,-0.08066551825422387,-0.17991835598856332,0.49616644901950596,-0.37335837105978753,-0.08213868569217914,0.5229082992272418,-0.10052887402030355,-0.006537693071060859,-0.5173350531830277,-0.8165834022075745,-0.4727497515538712,-0.2621722071317499,-0.5075878828732222,-0.20406379858116988,-0.20856885777276624,-0.12698432254532036,-0.323083199127574,-0.17380751855818702,0.1642309509729855,-0.6058730915902177,-0.5372759922818435,-0.8928786310915121,-0.42811485599215143,-0.46287046366030843,-0.35595804426291927,0.33022811259878804,0.04731538993788463,-0.6043372670986763,0.07707713828889931,0.6714703634138117,0.5254869117448062,0.691543363576026,0.031505903934314995,-0.5716051851924749,-0.12757714121839475,0.378341481418833,0.2859303927171153,0.4346613192708121,0.022339604348323328,-0.02403041493500608,-0.5426945571035717,0.4168052650947006,0.035648141438546097,-0.18612189584543423,-0.041264005364835626,-0.09643700281954973,-0.11661950579631601,0.10009685541328232,-0.17487267435859616,0.5206480733913091,0.10828232147065102,-0.14812528525488924,0.09917025377045285,-0.4372015932470606,0.3634270033399671,0.6393826762366471,0.24367988155379916,-0.08781469507431257,-0.40704711271705774,0.19548230655913534,0.38118774686903745,-0.641194577158948,0.17666674146363626,0.40013725838815845,-0.15683367167658138,-0.08804805876139807,-0.6793048763476015,0.49485416973881924,-0.15138303096665218,0.14274286413047083,-1.9581457114117427,0.002813682492205208,-0.13090217187856354,-0.05447837447378609,0.14510787209730272,0.30753399203426474,0.4100904619714744,-0.10482882889276757,0.343427921658744,-0.05653563556076236,-0.012239642074018354,-0.07529714823453053,-0.21569699480598217,0.13494663017300318,0.4052945649518246,0.2460768027831423,0.5315577089499472,0.34519679238113216,0.025053580026054425,0.0223055102216344,0.18495650956017715,-1.2613261923590962,-0.44683288724192366,0.057135652312985445,0.08453485416827453,-0.20195252162473107,0.0685664122685763,0.460438130607286,-0.4193059132310665,-0.44291773315712296,-2.9004327157915544,-2.5768036444483857,-1.2668517653715976,-0.6649513311065869,-0.423551305470231,-0.40327426857485127,0.1167676992918084,-0.32579855943759367,-1.739159476028395,-0.33172734188492486,-2.498381507843483,-1.427661754101841,-1.2774729977401036,-0.3458009746400812,-0.1872128514110775,0.4945770643570919,0.3758390530611335,0.454610894646622,-6.904101701797317,-2.9503537950795935,-3.018069032434362,-0.9876541579344543,-1.2007803663994088,-0.587638289771728,-0.15298074912356197,0.3096460658810269,-0.15075545801813653,-1.0016684288689728,-1.3490353248854983,-0.9742385927835621,-0.20625358591246906,-0.4428846929506017,-0.16893124730199877,0.05367565849942326,-0.43086492514140085,-0.291460453242898,-0.5472796576264399,0.10669936560958393,-0.3094169514077042,-0.13272381757227267,0.15368993547032944,0.26445284685782133,0.23690791067417097,-0.11112947758121501,-0.2526356843286661,-0.23451209440038992,0.010990246200646809,-0.0405319976538882,0.4090809247610111,0.18664795264485454,-0.21455450027350573,0.2545014225604664,-1.7033239876865092,0.01983042930426177,-0.2813449618524131,-1.01549380266437,-0.153921788936017,-0.05306129570135719,-0.4926713523918749,-0.7473646657833478,-0.13135259622095083,0.2522564737889737,-0.21562822894803682,-0.5328337878135586,-0.3758661425462824,-1.0583133151404904,-0.37771265781540825,-0.40487628670329145,0.02882195091296411,0.361683626870269,-1.3498834701877216,-0.34100322931896343,-1.0796333219137326,-0.27928470561110186,-0.2939949690074959,-0.27196818090357383,0.08185000131138413,-0.6636134103393422,-0.11362328019041412,-0.49684219729215495,-0.288680903731891,-1.0938180689524712,-0.4269560805951333,-0.5770351721547622,-0.5010151092836088,-0.09722138016071212,-0.056256822475900324,-0.5367956469576913,-0.6450242390294778,0.08358837706580216,-4.327075489607579,-1.5999250766908424,0.24252838168904103,-0.07169210496495144,0.169652470384556,0.2510448292085026,-0.6145509174616608,0.15367187223620757,0.2518655707045835,0.08805350619281371,2.5649883004826517,0.2329507549971208,0.0456659595467658,0.016367661069263822,0.5400942802693216,-0.2047970908679266,0.1114212837526276,-0.3326971192837757,-0.1433493353396566,0.34643860153636974,0.09897615167523922,-0.170780462159751,0.5457967251212236,0.06589838771057004,0.11233044183395002,-0.538094968415337,-0.4230189586417474,0.042859530237165176,-0.0739294319948795,-0.04245365279926626,0.20939695635306657,-0.5706361819790233,-0.17043782179368175,-0.30796252972871613,-0.2592316262138095,-0.511869366028976,-1.0933598149449046,-0.726572821532097,-0.08769101043467195,-0.11175445790756383,0.06481863006295076,-0.3912882358432445,-0.21656943057692102,-0.5176137492805489,-2.103206250146039,-0.05788942942433395,-0.020848426275092504,0.13732935360530257,0.15449328099932372,-0.07146436962855669,0.712677729898518,0.3655644555571368,0.24301048833303523,-0.1545700727435417,-0.3649682295233728,-0.033360292400768404,-0.1547171216658736,-0.6583776732688835,0.25760599009828633,0.1203246451786982,0.054598933900270506,0.36620050516051494,-0.4256283703094471,-0.051187459459173947,0.023081578534373603,0.09661110255213944,-0.31568336828072163,0.472571123056977,0.22340970641980146,0.07619304443688811,0.3154953116272567,0.27578278714741894,-0.392380526862522,0.08361006682052723,0.46962783732410046,0.25670822775709,0.5539865547706049,0.22030508810581392,-0.0332743087726304,0.46871138217115743,0.5394628320297981,0.0041330995889694066,-1.2250456747891132,0.1794013199387544,1.0999160769725351,0.17901887988438897,1.0225605334852597,-0.15627664949628634,0.3855371116108484,0.482324873939766,-0.005211522355940499,-0.7484607798371875,-0.14030653042596444,-0.34728636186460815,0.5429259809582481,0.38831684315447734,0.24411845341122337,0.15482001180154445,-0.24824026320522902,-0.17503875518981823,-0.25187090923770183,-0.42343027898144026,-0.2447143098291642,-0.23011673293883547,0.48098377187514646,0.10882877484172573,-0.6113868802219804,0.41799440703234947,-0.19283041445861318,-0.20734446924825084,0.3596824183793966,0.29232254410979214,0.2656088203230514,0.30321225440993854,0.07140440198294695,0.39024089141688445,-0.06805637882658686,-0.10450150561163016,-0.10109371016436425,0.20300550978855292,0.12307942715681584,0.03181040480406589,-0.21084949767202651,-0.41694734457106253,-0.35007528599419657,-0.26659499286414035,-3.7975332897234306,-0.26515586234122596,-0.1702193417700483,0.08568824917856364,-0.1496714438147521,-0.11285392641403198,-0.6854972113836221,-0.12560388827388516,0.8147829121527166,-0.21324824984241192,0.30348235725784645,0.030558904052047694,0.40526909980484654,0.48662640795710793,-0.10365044096062673,0.481924615532288,-0.08607874797888634,-0.9497576727492334,-0.14593357117655634,0.27299338327120043,-0.6188299163961969,-0.3441048797190875,-0.5358900462182927,0.4443799463043059,-0.04501652751809718,0.8275838100809997,-0.08907323969467341,-0.5996659268334971,-0.38324719678151653,0.007036251715800722,-0.060563470424831845,0.848847176409018,-0.13601667121403166,-0.19071381874613724,0.4774743843982689,0.11011646268474026,-0.2579517065873735,0.5924299766655943,0.259825075295323,0.04665717461367748,0.4173625459748879,1.438914554637114,0.35141776593810914,-0.20537976825099874,-0.48152233623110824,-0.319313172433207,-0.0991156850989025,0.279733684640555,-0.19880340683424716,0.7667552449282162,0.30929913830244826,0.05979093597497832,-0.09279468723066292,-0.24920412978831266,0.3121782833325297,-0.08727292726653764,-0.20015285439593167,0.25042767877053485,-0.22905692033822503,0.29997285854916045,0.27684318995773716,-0.5694122119934396,-0.498738820157251,0.0012340243346070311,-0.2452831949865938,0.15357476056230498,-0.3143741020734975,0.32084920782053594,-0.12848686149587407,0.08033645989263229,-0.3828349026996565,-0.12672906107703463,-0.3504653558263417,0.3932313699186326,0.08491883847052001,-0.05175790739191897,0.651050960853454,-0.6662966091401512,-0.1605101283404567,-0.3398911191075465,-0.30190097091041995,-0.22756896921775793,-3.3097027584072696,0.32989287997718597,-0.051880519361655504,0.4037091583119826,0.38797598399989663,0.3455240937734266,0.31299440381655746,-0.3006185200654726,0.05875806934173112,-0.24390952323825468,0.11592163366283764,0.4325401570602824,0.009772151809137463,0.08627113103039384,0.3361734201314208,0.09058006366093303,0.37666250983440375,-0.057691363588803855,-0.024029517893209097,0.15002728432427598,0.5965004148248216,-0.7475989430796911,-0.301823269543749,0.047265167852393125,0.04159475569777676,0.12946671955035358,-1.02409458766605,-0.04432395966918993,-0.07797726654181734,-0.018269791025036404,-7.234615625686139,-2.459413632869628,-0.5807249606194536,-0.0041008283422865905,-0.5296175734479639,-0.19282053187656614,0.026203891831216207,-0.18793178514463993,-2.14288931520564,-0.8950498636659449,0.9517657292598166,0.26726475241882475,0.06895993548211733,0.4167117292655717,0.12054674889293084,0.1416720739545668,-0.3789347165295858,-0.08509910840912605,-1.5965294404062556,-0.3405079382700013,0.12839600239307467,0.161166252931346,-0.1964049947751526,-0.05846693120027089,0.04817777883782,0.2664203989561984,0.07980510440086769,-0.548849147224417,-0.1970222701937898,-0.1262698965303867,0.2995419960549258,-0.2136285341936132,-0.0892264139113658,-0.13098364939916438,-0.3078008335622531,-0.06842106877748914,-0.08721895385499932,0.17591230255164644,-0.5214591465450649,0.12290308749255996,0.4527721698256395,0.24975035156918446,0.05436599928419859,-0.007987773135526066,-0.4890968849778612,0.2563058370501407,0.11609622413651206,-0.04879971101262695,0.14713478241825692,0.04397084589866464,-0.10379475634510474,-0.12347776236495271,-3.0174048923584933,0.31893169867230675,-0.07938894640123814,0.3134433400432325,0.06281671367921308,0.09623935634062285,-0.45661974306839365,-0.035937016263366255,-0.3272226333157057,-0.2679761743482522,-0.1994883565172978,-0.333215968238659,-0.3901870103784559,-0.7693178919805542,-0.34377037388022136,0.19355052630168798,-0.10445901959724894,0.1678479677558354,-0.2469245589019398,-0.20997112651623825,-0.25085656719722244,0.2509679865693147,0.17822503314148605,-0.01815381624747771,0.5170269660498132,0.006331005320023465,0.2736867929893034,-0.8502343701810803,-0.45866338483916247,0.2896737125969109,-0.036321949604780863,0.42644439750821395,-0.2531393763784626,0.34322222155010246,-0.32708601572055473,-0.012992645410001669,-0.11834692104664433,0.05964357158497749,-0.17857120193287476,0.4949592351534441,-1.1634917590821758,-0.5854735702622924,-0.8794591769650331,-0.052177594644971105,-0.09065762625784726,0.16019848580313922,-0.4711051525616272,-0.3365294924934715,0.30469829168411505,0.1553465621665665,-0.12461056487461447,0.049634968087215584,0.42680042164782056,-0.014927621488153157,0.16317995578937391,0.6347743293983632,-0.23175089122065884,0.023679326015408595,0.18816152612387893,0.17547350146802226,0.3138134525436342,-0.3786111763719482,-0.25352171882606556,0.3971294818605826,-0.1426734671167578,-0.12087048178872488,-0.37026310036840265,0.12127516900799486,0.015374043517856288,-0.4631959844285082,0.30042762237385223,-0.10745693322225877,0.4116939114500211,-0.02090091769581821,-0.11853667890038899,-0.2723824877911429,-0.012327959175412219,-0.45000023249635984,0.13852625704850483,-0.312735434286326,-0.10141490504182649,0.282787218640309,-1.7406242500395315,-0.08200046592173563,0.06843047590469796,-0.4064417765598473,0.1550352002497902,-0.12148584059873019,0.41158351656804776,0.4317616396371548,0.5371966400446424,0.03627478129749153,-0.17502867326863975,-0.39337803726012077,0.014569071040149541,-0.11873412149881449,-0.16396688346607194,0.44676639742152824,0.22958689011927433,-0.07032505262190691,-0.3708313602814443,0.07780702031025266,-0.31277426837277134,-0.05474702526728968,0.40928447768898196,0.16818837534015982,-0.29565880503544356,0.016580496860965323,0.29209118590935446,-0.16185162419711716,-0.014659242244370351,-0.24230339866566208,-0.08449846228855395,0.3794305002079703,0.1715226585161681,0.2684680916960998,0.23051058324642018,0.5270196664101635,0.4580918513352358,0.07153950557960391,-2.4879750808953256,0.17685583719432088,0.01973301258398582,0.391394629444857,0.16301878895978392,0.44346259715349856,0.1181898508178305,0.09250860705916139,0.26353668008635,0.1922574429993612,0.1277809321913174,-0.15877182779369184,-0.2566139502273969,-0.13884454789944808,-0.5874466725746056,-0.44624336748304505,-0.3436978070814832,-0.4846960949517615,0.39280788561376817,-0.36139611663889026,0.38982001050698245,-0.05031369352547858,0.2647416761369554,0.00945194385090664,-0.2207111834233795,0.058913728664519494,0.024531410009696632,-0.25679350660292966,-0.43667447826675626,-0.2487045239513831,0.049602499066725855,-0.16365233090131415,0.18274375477371202,0.7045599287664789,-0.29295895609941447,-0.48880717600292295,-0.3705290488038449,-0.02293350659414293,-0.2069565690535552,-0.014932082769200274,0.03224257700036226,-0.2330164165382072,0.010700798879576753,-0.11381897237990818,-2.9969756679443984,-0.015145226525278563,-0.6759873137068264,0.11849112813168898,0.4842478363109415,0.09177820336245723,0.1879954974495728,-0.207961647526846,0.3142121176013454,0.5254747447470745,-0.5975824341632298,-0.7059103073916311,0.21101982829000976,-0.0786331185365482,-0.1583148132746466,0.42293898205071384,0.07417816780074692,0.04201358749962483,0.07390342158694961,0.21323288518272152,0.30223863499898124,-0.6530299905774521,-0.2013473131086844,-0.0588816799581992,-0.4592537744449118,0.41199371349227354,0.38212583476849027,-0.20771394179652386,-0.5297982842708548,-0.08531870565671884,-1.5417259390239058,0.8253121057730409,0.6574879018013824,0.5606096065105476,-0.3642750548952804,0.31360183866067537,-0.20288496790862162,-0.04622360567698071,0.3727691797224051,0.008987413909004592,0.19098209798824578,-0.4840566819068765,0.3855816021261903,-0.27693169347882773,-0.9196354928345513,-0.058422532282861185,0.19544149638777336,0.17238806883697072,-1.0512210050574131,-0.4235462195732835,-0.6223470251753468,-0.851840680252032,-0.3759889114909945,-0.48465997753428774,-0.6870512232814225,0.15557667833469035,0.014268037399780395,0.011539420888899593,-0.9992702542125567,0.4822850509079076,-0.11325354853536877,0.034461972783808685,-0.140424054030749,0.3498389315350268,-0.28173930462642155,-0.8303758304189133,0.058846742687876236,0.19603585136059198,-0.4659871134021642,0.1395675826759491,-0.33642843114007365,-0.18661711096018516,0.3355811459678806,-0.5168647941100261,0.3923545433572245,0.17160768721668027,-0.4059409244742624,0.4320894053674475,0.28981346561934834,-0.02877333202272838,0.31584239491415944,-0.07711442328650223,-2.2627440395222007,0.39286206708347193,-0.3130464362883292,0.14518079302392664,-0.5312668668304107,-0.03443045968527766,-1.0563861927565061,-0.7337438910991838,0.26731082601352085,-0.3840446240645185,-0.3187308969144576,-0.41108284192465705,0.34882352061378163,-0.9754055156014,0.5024239832320044,-1.1894699197054976,0.23904956325110555,0.023349125120271305,0.3559917925856241,-0.1934417735431391,-0.7375007183060198,-0.23548694727530636,-0.09715773374060949,-0.09680951986824811,0.42209800478553744,0.21511075389410203,0.12702192457266606,0.7050042605242043,0.2536942210682385,-0.2184802624003484,1.6015870083491397,1.049427383308104,-0.1241215753905049,0.48304297113824396,-0.16399409837344778,0.6468267930157151,0.5739624653579863,0.21192132348498638,1.3127994954863427,1.2904821604928312,0.76602279425398,0.3986320149350488,0.040140449043533886,0.20378665110217184,-0.6497727116549148,-0.2701122919325983,0.34053930823253453,0.39023611265908953,-0.45695107565357906,-0.48127264700437866,1.0560641772634298,-0.07578706635485433,0.40197087916481367,0.3093686904953602,0.5214223641594744,-0.6454829197959908,0.09882259233712373,-0.6371399240349365,-0.85465651194254,-1.0442994022296008,-0.04102942700738076,0.9253516809215347,-0.34545706638090296,-0.6823083535582868,-0.22027774678904927,-0.33825536954561075,-0.27774018776073933,-0.26873986976531494,-0.27691435779345003,-0.6972956672084348,0.33706255284579817,-0.4572788302916382,-0.19434189758003548,-0.014651807446438726,0.3827101918413379,-0.1261983106028859,-0.6436340027052025,-0.013355211322246196,0.22322256576556312,-0.5172564206228991,-0.7524811432004329,0.02296526121084933,-3.998815360229886,0.4408268636266696,-0.16348744212693134,-0.3424849485087637,-0.25095054255642574,0.19124020137930517,0.5402225118430206,-0.2974333749887486,0.49146863653461087,0.12767938555701716,-0.08255000372298792,0.1869759694791559,-0.22110798739403445,-0.35189342155385067,-0.16089453423192632,-0.3938453878103158,-0.44855645071537564,0.010137092318548249,-0.05646811959431901,-0.2304632475218255,0.03456319598358358,0.09555043758044557,0.2561706966783285,-0.2554514495902739,-0.22075754046641652,0.10877656879286794,0.4787695045034731,0.10317062482706646,-0.12414795083108027,0.15817351038054706,-0.37112479013864247,0.4232293196210876,0.2436179721347098,-0.303109469353617,0.06185879830001192,-0.3129000573400539,0.09481817917118336,0.3308751576002327,-0.21931894948639602,0.40843665349514063,1.218114372422879,0.38898854590121684,0.22114266155998247,0.25999827530794245,-0.218966997700211,0.24237367502783272,-0.07797345231864486,0.10759424711224241,-0.244748012975768,0.24843830923589838,0.614456378809973,-0.02830939332235377,-0.652918687707889,0.08022466890893694,0.5210286352206295,0.3753459906763891,0.3748975819024952,-0.769128382554863,-0.7484642310280374,-0.16132386455525893,-0.25461365495870597,0.17939978988180547,-0.13549805891660677,-0.140114271932435,0.7124084597264736,-0.4777452462604284,-0.09244197730743654,0.052504802162684105,0.3078260629373615,0.7150824895745717,0.15278918836294436,-0.654736432485945,-0.35944133979135295,-0.39974465581623225,-0.3729602374896543,-0.30453287185702,0.08987975743074869,0.34118721433522065,0.3256611862202177,-0.2748378749581653,0.48181413767329956,0.1248883096188358,-3.201105151859408,-0.2559749160798134,-0.5916833046936197,0.5200373835865747,0.3605900250737985,0.08600257577251612,-0.06540667405737649,0.5502684581253575,0.05734647647479672,-0.45506662117072766,0.13858085596005404,-0.4231797585526441,0.05599855319623132,-0.11831461079168759,-0.42072907416727456,0.1693002809760364,0.24841790131029895,-0.08777113574956252,-0.5459949585894857,0.3976905397741702,0.14345729896331305,0.08498898272964675,0.10058079323878762,-0.2674320055178793,-0.5093119938851975,-0.32125832163019846,-0.06272045512496732,0.3137303399285552,-0.26835284323820086,-0.6166466195409169,-0.23217970786723727,0.49391988845279283,0.2436206239078426,-0.22042831838711216,0.48769731478305683,0.01993037573421659,0.22835593845731203,-0.08566621201516497,-0.05463893890375926,0.3357656167627404,-0.17519324964979957,-1.0246273967991564,0.35094085153032606,0.07717438100115995,0.8399666550448833,0.10319276422978241,-0.13528780129504453,-0.6381268943602796,0.21116360175022672,0.6154703181027595,-0.05121877484090288,-0.30998956687519014,-0.2179821852184758,0.17059680779780123,0.2463420602125961,