export const data = JSON.parse('{"layers":[{},{"weights":[0.13423205861649612,-0.3404210489120365,0.09548471204304797,0.19866836468155924,0.328357929389012,-0.23967008296448575,0.16464570151839672,-0.09859536297139507,0.02448785218711914,-0.04754609849085378,0.04096676580854744,-0.23198158386374804,-0.34212788144685347,-0.045812050518021966,0.2671144238491805,0.2732028615095054,-0.09401100063021219,0.21160642764411816,0.28854743751567796,-0.17225987425980444,-0.5209040177471429,0.08755212046193116,-0.005497382772012591,0.1630468645905502,-0.39255099462600224,-0.43589305130363887,-0.19738654003705441,-0.25210151412897647,-0.3086716175390839,-0.4429480617308375,0.32031037056257794,-0.4878678100622036,0.17663531049951336,-0.5542519366294186,0.34381423132621075,-0.025591693391112186,-0.29983558138032174,-0.02284365494322299,-0.320821270567285,-0.1954759571741202,0.3659955626686332,-0.31647396556411084,0.10507219681867688,-0.46612982385140284,0.20583206565553697,-0.2126608790590536,0.1748217500653915,0.7280321356013535,0.12365305282249614,0.3778543149454294,0.05747028302347507,0.14481666467604523,0.19433235323528048,-0.2530364834527186,0.07066061048752306,0.23247463570512758,-0.04449835722312776,-0.46551350242741885,-0.19779438244199007,0.3084775718525979,-0.0198903300768975,0.41426512142862937,0.25409935977052045,-0.03793938131637044,-0.18586043802553012,-0.10381436782581953,0.4479915014498356,-0.365280465491351,0.08219553765742511,-0.3810938111774619,-0.09656820095299817,0.05962741050302871,-0.18467362032007778,-0.3114160652494987,-0.008120972610740747,-0.27405259164977436,0.34053772686486194,-0.4989227734535666,-0.2826084957432093,-0.0202439906056396,-0.25291340380287536,-0.6482339142353245,-0.21389481728066795,-0.020374399580024433,0.19006510938648807,-0.18858892620599002,-0.17815457213875466,0.1708294102485175,-0.25465296636329987,0.09202150525501454,-0.2947913532024021,0.02081308683441958,0.3862161859262977,0.009901980810359857,0.09301574212007648,0.04611757849869075,0.3898862355266665,0.3231192936825274,-0.4502320768624404,-0.31931317919875285,0.3511129152367033,-0.32243481258314755,0.44601319142982737,-0.07661940187717396,-0.506716403305959,-0.2934690484847945,-0.09125042131524272,0.4303590573124612,0.48936978703283834,0.2527523680907127,-0.4109432196978447,0.4343412412938401,-0.057634093980338995,-0.07453756989074994,-0.25274922048376297,-0.3221509976508425,-0.19527062095469108,0.3417655455608683,-0.4649206668396539,-0.1779106239561781,-0.0975890661871331,-0.2878431894078656,-0.25588262517723454,-0.14048480591433862,0.4184522935153093,0.37217642815626156,0.28719197960801535,-0.13338654158589422,-0.42641691200418275,-0.30315902300680847,-0.1915190171531598,-0.16014989075056665,-0.39247361870758996,-0.07400553216826979,0.17724492366555253,-0.07726554307877248,-0.0949008342232566,-0.4007182644940393,0.2081920032586473,-0.2132183090175567,-0.40119611715383424,0.06177383181913506,-0.13575256549077525,0.09260274146757953,0.4601482682698467,0.13003163948763305,0.2126805408993695,-0.44233448368735034,-0.4345193708984631,-0.4257110488086802,-0.13176750137591242,-0.17563004580635713,-0.16134475479199514,-0.36590084310653703,-0.38060587278742364,0.12232736528825174,-0.4239625793400763,0.13073883319492655,0.36186847567015584,-0.02788748158442361,-0.4561698750004505,-0.1933752997087689,0.3549095104116157,0.10576426026242586,0.16177847722864744,0.07923526726899045,-0.030659879514552596,0.0342699975290856,-0.09533898796026492,0.047542448713203435,-0.0672096656851866,-0.25808961500205474,0.1913476489685715,-0.3542405792926842,0.12560795135113367,-0.05954114293093018,0.24428284356277158,-0.3097061814322349,0.08007802904118745,-0.2742469990157316,-0.17040069889846624,0.15760107105822768,0.16876384843650127,0.3731932705282765,-0.5447867423638484,0.15511112422207038,-0.0608275288420901,0.27582806641434,0.34306504710398567,0.2584549456137363,0.24719645076172056,0.31336534399986093,0.2384744517235709,0.12027044843557196,-0.068006834509276,-0.41319839771362277,0.14749398162965788,-0.17860307338073247,0.11675520948363205,-0.4561176748630699,0.09954656090832148,-0.005041788934360165,0.1532943361072198,0.5722209534866001,-0.008653002645000355,-0.23451699787401362,0.5041368579496225,-0.15223596835196232,0.25307110541404004,-0.11601705610056343,0.18439492437300145,-0.6522568125783956,-0.04939903067638867,-0.381327777523369,0.0793636437476598,-0.12400103897707246,-0.1163074040934558,-0.28275080458938795,0.1801789127906242,0.11970195905250021,-0.024237266286753986,-0.12692883650475223,-0.08010664077732442,0.056964130120342286,-0.2544017925231922,0.09461556598997452,0.31177166943011975,0.13431526276479538,0.26601772895555004,-0.029129151156005107,-0.23860526709719046,0.03480370807938444,0.118417951268951,0.3163009665366186,-0.41865239763237866,-0.41070924296725647,-0.02959927154102378,-0.1326360683818945,-0.10727174680635,-0.19827033757215556,-0.03356541153005842,0.1707118448532585,0.15475125106049176,0.29922997370244525,-0.3924460707434636,0.19980871996847913,0.26794846243238885,-0.17047029222318025,0.009308597054083729,-0.3742716138812028,-0.0729412631661546,-0.07264276933969131,0.3253596113341809,0.08605007539673067,0.4177350935032824,0.055924296231081416,-0.01425361071279367,0.2992310602466644,-0.032056423319089436,0.17153076995852798,0.27825774452122226,0.09414008509920072,-0.28839933200921464,-0.3870178806520541,0.3246116588652995,-0.4259426428944229,-0.1824419590624377,-0.24753220030765422,-0.5416352029444117,0.11574657976657245,-0.2857731850936186,0.44019200047382895,0.2805836741380541,0.12453398976640265,-0.41106656213297244,-0.2343348505273996,-0.4094701095200722,-0.35371834276703934,-0.3756776767874908,-0.4663476126783276,-0.2706437888568538,-0.3145367899035898,-0.09264653727575334,0.4288115738076006,-0.21949275020929843,0.09922195370401853,0.3109808945186041,-0.3873276754944939,-0.116448209645717,0.2926991300381335,0.08684264701925339,0.033494490414856,0.034756686453221504,0.18392761847393677,0.2243271750612284,-0.24710309904721747,-0.3965854381165015,0.3764290084241311,-0.33873240345452554,-0.3068947677287484,0.34614625268060323,-0.45661341996806437,-0.17374074757183997,-0.06998571844417191,0.2440262602836738,-0.39549417014189875,-0.30875218575949887,-0.16566771006586867,-0.3097219155294615,-0.3590824147408144,0.21816687769441181,-0.044999205323047645,0.2228737267518044,-0.0287620292427486,-0.5614442257130099,-0.004529990896120825,-0.5059886487673618,0.2637838770225435,-0.4449863222853525,0.07574355364806563,0.2959001089306104,0.22686084687258112,0.35319069143172266,-0.145788374382759,0.22901249502185875,0.38658530632334004,-0.3820175938794012,-0.21329703933688862,-0.027944200308794496,-0.08435569480371051,-0.33172879962144086,0.07375463635825338,-0.409601617901667,-0.1060984689506645,-0.3280838132535839,-0.3558792247643509,-0.16894376502866867,-0.019142062998274277,-0.2500955962428862,0.052157763445610225,0.05545352215082171,-0.4882852494881538,-0.033402119476052504,0.06987990737110021,0.04883782221714269,-0.2845602419507564,0.04110976288802502,0.03484094287255645,0.1254002639754069,-0.08157909320824527,-0.4977515386611956,-0.0404890312821826,0.045751334307958316,-0.06283470916701236,-0.06511657982147194,0.2655526935818816,-0.4321382794644239,-0.0829540894805698,-0.13907402596364193,-0.19198213832756958,-0.4582635628085166,0.06144093965819802,-0.36722224563123745,0.3081420591315962,-0.004961827956267045,0.02009576957846843,0.009024585135241243,1.0366373267724445,-0.2535098029651141,0.2353245515852453,0.1976939469433759,0.11369744754413397,-0.3695690224482615,0.22322382279371022,-0.12232162433495791,-0.37535057863067045,-0.2942754991733719,-0.4838943103294542,0.08283273949332659,0.12300547227585487,0.21378646764270648,0.24853145219591952,-0.03370456481204944,0.2818956085754505,0.07079930840382807,0.30126270511153275,0.3153877960498929,0.10778035331877053,-0.05968148623906728,0.018060798362893066,-0.049479821538974574,-0.21968280563789908,0.290902805831009,-0.5921479149824063,-0.0991303933234132,-0.20953977206282967,-0.3462661856820354,-0.3455344343571946,0.08414506334742583,-0.4703432099511687,-0.28883736128427245,0.053605181702881706,-0.16019085640443717,-0.206973007194549,-0.16073875839073837,-0.25360710813616705,-0.007675582993552974,-0.24966142416148895,0.44737678636740397,-0.0077554931105708515,-0.316705269847205,0.22809262106054173,-0.5525938028363526,0.34526739815457536,-0.30453787875941574,-0.17065289542816908,0.09860368135377323,-0.36587777006950967,0.29313590197012795,-0.17411824364841488,0.4831635243531559,-0.15691405715582157,0.0401589729746142,-0.22687291170761054,-0.41758053333088674,-0.4672050394683323,0.10169909702546835,-0.3689651381993072,0.36228810248573956,-0.29461727440353497,-0.28569357684802005,0.12967347903571974,-0.3325568054726532,-0.40636417820330845,-0.4718745183437863,0.06074177699187894,0.3722265232653494,0.4111878666333524,-0.2714223920693273,0.4280612456249742,-0.4247457507969707,0.179667725494862,-0.35869510202523924,-0.4973064922829581,-0.07796022266871136,-0.2230546985564339,0.023750851194827824,0.17333054333353437,-0.055379527233620586,-0.3138525168718618,0.03208380842578116,0.25775243507175394,0.138634381160793,-0.03924177820352368,0.24634101069443112,-0.3914011959049976,-0.12277653610231726,-0.26502136350105887,-0.12872047654511057,-0.22643305682597661,-0.02886029072512622,0.01016596993757698,-0.2829412347926887,0.1898380442815145,0.15894796702470443,-0.2936261290540786,-0.3535137669580853,-0.29094063802022757,0.0373279107650466,-0.29318753661807845,0.1518619688464067,-0.14875475920415285,-0.08965719966939745,-0.565604830197836,-0.3798862198736535,0.04839262725669619,0.245538768953016,-0.43191259661643633,0.06146076020541272,-0.30270554405136374,0.29168508854744857,0.1672741449018532,-0.16418990341461717,-0.3546340707613377,0.1009252362108741,0.07681804203239966,0.0994173443997778,-0.35142757925420404,-0.020825282035787988,-0.3165947030605481,-0.18929390163540016,-0.21827432242936878,0.2809809484860651,-0.048342513299787705,-0.18687297159495023,-0.10818191344166178,-0.42600298164173,0.05030385367981462,0.16616846162209303,-0.21792099889360583,0.10136498109266469,-0.11082545830326392,-0.16386768546895947,-0.10534888843521995,-0.14282572478826833,-0.4390107795806204,-0.36237121671584366,-0.43327020714867076,0.3716041475705585,-0.14860666005597586,0.36449455654763313,-0.19510772336143914,0.13106439992700616,-0.24162947328127804,0.30982987941081486,0.00042653956296721655,-0.22618569193891186,0.05589290580691959,-0.14986624960935546,-0.3958512419165817,-0.18444584812438344,0.4197647446709747,0.36236031248787415,0.17109944170199567,-0.15076750081942505,-0.13963709089577034,0.021830992096006287,0.32377738660316396,-0.025164141137058216,0.21927755684115324,-0.45168202930652096,0.07851013185635776,-0.21247234826875028,0.18811294828150704,0.31423350038603437,-0.17354296918397008,0.1350101839859226,0.13079097177330393,-0.40367174894178215,-0.03443100458235259,0.4448863066449753,0.04890671478239465,-0.2681337269773575,0.10555363294911084,-0.3232245194824974,-0.09012123903428175,-0.13071959673688383,0.3725773933727229,0.01251736586842882,-0.3532417102503101,-0.32538500613458166,0.042472473603045645,0.3179297117921662,0.24911973916049465,0.12714684129099976,-0.3085857140487943,-0.47511782331687147,0.2912746362073341,-0.2915235333227388,0.3591046151227262,0.12460452599022373,-0.16781698867383116,0.33128069680402955,0.032982921222160504,-0.11834959312056818,-0.07333187945708915,-0.21345686966081398,-0.42915150438558386,0.2359863442460978,0.07124898001575054,-0.30192936445680085,-0.3420143881301481,-0.32831956588908934,-0.05407033991154159,0.2505287981175597,-0.20113998752132595,-0.3499543626644925,0.28997713075985476,0.18108781554556797,0.0730275808269526,-0.33773179725796065,0.23298028380344898,-0.24075281498327775,0.1573692161757462,-0.09983985771078882,-0.31554647949459597,-0.44632116955631645,0.17690216478035564,0.021917104379835614,-0.031973318415027055,0.10622139751788987,-0.051814023226943236,-0.017076340818047996,-0.27779920212589604,0.11319183951230406,0.07545597425930024,-0.4669569250702301,-0.17513899053211002,-0.5122231268979287,-0.37750526217719127,-0.0673882816787164,-0.14919171378303828,0.251437456025581,-0.5409639280703828,-0.32845249779632996,0.011758433626462667,-0.16116739949893172,0.20225910743465003,-0.05541839360099152,-0.22496463908496225,-0.19816700918307317,0.22786886284612415,0.10476420012139281,0.007104524992041547,-0.06445577414556845,-0.518664853338173,-0.14778043769658994,0.29107262021316527,0.051025865904724986,0.22196732627729046,-0.06492509041399881,0.005024434435503131,0.020625208681927173,-0.14353293475938303,-0.36390453403637557,0.28180934322618734,-0.003298031249544327,0.020890296698559144,-0.06130849625685675,-0.045459781790372036,-0.06176381538330433,-0.2385266470028512,-0.25326763702094673,0.026959659710659303,-0.3182056836799105,-0.04505292518081904,-0.14195850056106632,0.10789057119948146,-0.43894627556763616,-0.3694026701618453,-0.4203044745899485,-0.3829500209700079,-0.43259212525567564,0.2439404871186227,-0.4339483805264863,-0.21271803944289736,-0.35786384762624174,-0.5007145652196758,-0.31905043781125375,-0.07697837868016108,-0.27005179879097335,0.29518314102430326,0.10651496743648443,-0.21852467382059848,-0.12601481951197896,-0.7668764496452573,0.4047863792049057,-0.11360486470984223,0.19648904093042496,-0.40394657407282236,-0.011756321636207363,0.08426179726607114,0.2576349243460056,-0.2786163025469369,-0.48607861534508223,0.08422365216972649,-0.0019015853132721026,-0.19844243695505237,-0.28262565165951326,0.21248499314377922,-0.31027920369426376,-0.39528426812535533,-0.06807565398873029,-0.346503323372909,0.006917123850399657,0.44100978937741847,-0.34403876955319185,-0.3157417385935605,-0.4409342802725968,0.296155571939568,0.22010070157912923,0.30721609629081764,0.33711865993241175,0.2093497866208979,-0.09673599228393888,0.12786910102267918,-0.37602140818930213,-0.2303084213484265,-0.051591650801061546,0.30230975256308823,0.3754155012262893,0.19514287298768468,0.21608020220015356,0.3278666597913788,0.4642204120661995,-0.15453004143154422,-0.14362914658371437,-0.037079713992076824,0.03549617152228482,-0.10785160908460795,0.33774901514952016,-0.3622655636394516,-0.07034175869151238,-0.2601180166313764,0.13750888237195616,-0.47658052739515794,0.2588315751467272,0.0030245290179714292,-0.1383382965005416,0.2842642669764484,0.490936553566982,-0.08135369824477359,-0.25149353895998044,-0.03339898649340102,-0.047943745344950585,0.17687465192374188,0.44861976308852713,-0.2929168064695867,-0.427703681388834,-0.30104177814232225,0.5108166966433519,-0.4130721070699819,0.37997135796127446,-0.37334143046842805,-0.35710686478103,-0.2695125112744322,0.06502135005778066,0.15531729098018945,0.033332552544284855,-0.31165424785675355,0.08552501113293856,0.06711581293558135,0.17562572781683414,0.2407953585667813,0.2965803842159097,-0.09433983204917398,0.11103434068110811,-0.2331624690992344,0.24041083514665965,0.3330583744741579,-0.3358090332662094,-0.011030100734082659,0.2255655725239765,-0.17294450593350771,-0.1279748433707163,0.4342547026999528,0.23503451224300143,0.3547381531402835,0.350989445019389,0.15985352273061804,0.3142781874753,0.46941413787143227,-0.2793566769991751,0.17364820566617875,0.2852709469925304,0.2866770807928617,-0.04321310394303584,0.19191159421934442,-0.3373158541510868,-0.16997405840373467,0.3946915169592457,-0.2021567979050534,0.27572551806584633,-0.45032454033639674,-0.3332631703181002,-0.4487539181087206,-0.0714519136901228,0.22133058941558184,-0.3256395729305374,-0.3151268763521295,-0.40781696674922074,0.2242141126964046,0.05243149008122765,-0.010130655483302465,0.008633643059472033,-0.47582866778250366,0.013576007251292625,-0.7816840160979759,-0.14894317913769822,0.07303377465287184,-0.498822322465274,0.3160760463443088,0.16572281242235123,-0.397730895462173,-0.16097095933352287,-0.304705911743889,0.012335619501213979,-0.24167146132914372,0.3855545477200232,-0.15324103745930054,0.03528946754263268,-0.35889801382583697,-0.08699500104548888,0.38097534201705846,-0.36904024333749935,0.034553880330804525,0.09045141321920461,0.1766177721722253,-0.49951102296499067,-0.21733604573991797,-0.056393343323546445,0.0588360669723582,-0.5643295586517832,0.3703294579925297,-0.29252295916005777,0.3278729555751043,-0.20306945137046142,0.24350102700035567,-0.055887159237985054,0.07590383128643921,0.2817564226141267,-0.08745055866405979,-0.12844309715227104,-0.09492278968760823,-0.13145191059105782,0.3296747592969766,0.165896130704314,0.0371301789956914,-0.1090334803774653,0.22715264993942708,-0.200495850865112,-0.2884747971669799,0.020849505080595365,0.2569843803208507,-0.1432176688938207,-0.31121626469884683,-0.0738214943572964,-0.3566514644496981,-0.22532519540236604,-0.03258343550523172,-0.15232000348450314,0.11273986320577767,0.07832305765016333,0.2510354382880306,0.1717679105083265,0.3008085667452132,0.04172481313978771,-0.3408622340741616,-0.43447984653807536,0.22638740431250703,-0.03139646640116129,-0.27629984404587465,-0.009354882782934735,-0.33654359501710174,0.11154959155369469,-0.3756751255910732,0.3679667660451973,-0.18930866315477096,0.0007254610142583607,0.6043203358724629,0.05497165480354443,-0.11016084575838397,0.4112118042612617,0.042630244892948324,-0.17561243401729523,-0.48548649906880365,0.3191279942704115,0.05096410354647857,-0.29905714789708665,-0.06315206725014468,0.2932230029842024,-0.09711869051942727,0.05447255619894986,-0.06829517064055801,-0.21743737631744958,-0.13453255911524478,-0.03834880963464773,0.46208324063247824,0.4083477437668199,-0.08537151639543511,0.2894736962317981,0.13363283329685882,-0.08788052866647565,-0.30439848515472584,-0.03294958294984577,-0.27017918026730653,-0.053797485695124804,0.4400305876827348,-0.3109209129554868,-0.38960312186951457,0.1607062534239674,0.1432201727657462,-0.2822594805854657,0.026817367537243113,-0.2881397900045437,0.08620039132848371,0.4294047312761732,-0.3020388313272002,-0.0939561768510308,0.37720294019843503,-0.41340163696394433,-0.27315518508825254,-0.47736603856657445,-0.2661567874982478,-0.2381052242705443,-0.01988322894439462,-0.02062613186412063,-0.1173369288924671,0.15356581053326357,0.27960082384574453,-0.05907146238959932,0.14740781429810196,-0.3679352691154663,-0.32061101033526335,-0.2414596638697183,0.26832849191498553,0.11605159336018,0.1025773162002245,0.37570826404357494,0.14906109479893712,0.35427637633259906,0.3791693783478127,-0.29907087014820355,0.30775788522993397,0.23516123976087305,0.29422758222321016,-0.3117056786714326,-0.3525549207273118,0.09824887916732158,-0.366840304339007,-0.488076721074677,-0.2451910141547206,-0.33980066539101544,0.14161510629092383,-0.12343439284329379,0.2064156157275311,0.259887735775738,0.007838779326111512,-0.38793899187522324,-0.03346732475219165,-0.49541609043420215,0.7334433618646276,0.13464267311892658,-0.2535690613798,-0.4213024140001711,-0.3185958168796893,-0.1860100238160993,0.3845753318915488,-0.28805994398014806,0.08847175448702935,0.3601296791441202,0.023745338143660553,-0.24130362202071945,-0.17774227997398204,0.01483425757916149,-0.41996509893849243,-0.19852842717833497,-0.40963835978394086,0.020657747394307122,0.19906986152216818,0.09341258029362426,0.3109555399655138,0.3313472368099836,0.35673861838604876,-0.16909266931066153,0.41748397446903607,-0.39480614935542485,0.2281320983507947,-0.008903622044478416,-0.05515523823890517,-0.02498651569833958,-0.5638745191846269,-0.21604629350661333,-0.41007736674139583,-0.44973433806832747,-0.30581166175057173,-0.37324847406000716,-0.17867878765814763,0.2463727194651491,0.07304223672250636,-0.30743790833095197,0.1575143225026929,-0.39123692651584085,-0.31754378515553705,-0.33658659088344417,0.012969326860327871,-0.06388406541598152,0.1022652635893473,0.20946736275590414,-0.10702018189345024,-0.09257750166499104,-0.037329764802333756,0.33308319822611376,0.24393735553403503,-0.04929810619919927,-0.3710198612651577,0.3125766935603446,-0.06766314354582596,-0.11553807785100136,-0.3208876482547242,0.12926683920589016,0.2569629997527412,-0.48426625373222937,-0.32656104246364237,-0.37349664387051607,0.42404904044019287,0.048248481474419895,-0.3393686049922788,-0.37719902624619933,0.29001250382257,-0.07810953713798288,-0.20592735887176442,0.18045432453884602,0.3342325628820957,-0.11315975629444049,0.358645473052918,-0.290149026029018,0.12720144001669473,0.018517283606362428,-0.2791183575033046,0.329901920945341,0.3631355385939813,-0.30945183306606044,-0.2785708624115856,-0.04874117800681809,-0.11007898495143768,-0.3304481354460528,-0.28212350244488066,0.11977451222787097,0.14918872761619162,0.33262675050959734,0.14073756367382104,-0.04720325571194378,-0.44776525835687975,0.45243169014474754,0.34489473615239336,-0.3204998118877937,-0.00873463207241854,-0.35540588697536624,0.3162207729173451,-0.2649228025227671,-0.2538510944641902,-0.41080353485731463,-0.20228932962852983,0.18195912371483275,-0.20154247121196878,0.18057316222670564,0.23268868741597148,-0.16028921064721222,0.09778368339625634,-0.45463583381950534,-0.42849511341600965,-0.294231058020799,0.2858268486333132,0.10469104253068937,-0.36219910576962583,-0.34383109666218153,-0.43072437630802524,-0.07423267994857323,-0.04124293671191774,-0.20053876905288043,-0.17671862904312882,0.32345105133268953,0.25688392466387233,0.07964561391039138,0.04466961220014793,0.007505796315555222,0.07884976903261685,-0.15923181820935411,0.0689333897363551,-0.5838539302393976,0.38133369351194835,-0.01026826304164789,-0.4282551847204096,-0.38687441320291727,-0.5304400738261353,0.12350334990002104,-0.10229891100494566,0.1533870084220406,-0.25646447015988477,-0.31651308601276135,-0.3023565196091521,-0.2819617010654773,-0.2934781960108153,0.3182254957214126,-0.04648774664518293,-0.037702750866989015,0.296444316213889,0.22529814512131646,-0.22529419027328845,0.28577687414870273,-0.1409425223670638,-0.30942984602388407,0.32666919839232966,0.14127718650366353,0.369500933064764,-0.02639183005077744,0.22502444051502418,0.18560513861128178,-0.13791749315146434,-0.04834852880298032,0.08621480894071076,0.07790918196332161,-0.18470320860602174,-0.45434079809602473,-0.3398539088177938,0.25863708964632426,0.14516682277450071,0.3791938652543805,0.5015349626169574,-0.5715515757804289,0.35576567145070925,0.053467564649919315,-0.39618538669259457,-0.3881599818236004,-0.4030348278699133,0.12180744797416175,-0.18128429808359484,0.06027798664942736,-0.10093504071269038,-0.16264077822235426,0.18190417541767093,-0.33780199343283634,-0.38787208078217716,-0.5547950363041444,0.2507923637543314,-0.37689714941126423,-0.2544419532040824,-0.010646905778777662,-0.28473159624297784,-0.5223622102669592,0.2680030930039954,0.37809033030337735,-0.2576066707523689,0.23974084402151857,-0.06365514070658944,0.24217799678248617,-0.03824493052349181,-0.48612376636511223,0.3071345895198203,0.02736075985198453,0.02273816634661549,0.016450762346017028,-0.4749034546439536,-0.39931704043564115,-0.4838773653955972,-0.20166334717258239,0.3734132265317826,-0.0069700235253824265,-0.01861712564136978,0.048375387984510874,0.1692477970168405,0.1328198143318882,0.28329750816733856,0.40473041431441087,-0.06331963858250698,-0.03557666538716712,0.3081724034251199,-0.2776524578536697,-0.10171854113628265,0.2626926298516213,-0.21103719413895902,-0.20889836142185417,0.375440017784919,0.23090038807959248,0.4313434148887629,-0.3150375889431906,-0.11517149401686402,0.06773639586756003,0.3561160132619484,-0.19839693391532526,-0.46958734689850545,-0.3015455004712824,0.26279171080580455,-0.1704381721647253,-0.40467094702038875,0.05442046256184252,-0.24558963849712354,-0.386633646353317,0.35816212268792497,-0.057405361438282974,0.4529659968532917,-0.158434973880398,-0.06735726072247872,-0.3384904764908941,-0.19051297690051117,0.20800925720941357,0.2331112448778344,0.23971975770963097,0.4111290352206792,-0.14873470629225846,0.13191822244552245,-0.44192673173477015,-0.37686570046616097,-0.37416173686821247,0.636217523139157,0.49603909897133525,0.44676949120543924,0.48760304017929224,-0.413832014878533,0.20351706803733388,0.13206332073236576,-0.29533040210441147,-0.32424058448478615,0.21392832112541904,0.18709152002359972,-0.21152043840044552,0.11431904086453465,-0.48608566489928773,0.08121850091334183,0.4484312451266379,-0.3777743393082781,-0.13245291199376594,0.14086439385239216,-0.1702604000306575,-0.23445687126355577,0.13951179517375661,-0.18846516222014215,-0.39441760785018176,0.1710744708726408,0.2810272029575497,0.06336866002911126,0.33852700060729707,0.3118660048628188,0.26684352893085056,-0.3510679014679764,-0.4746997369598645,0.09218636743506815,-0.3561585044933495,0.24652957275756196,-0.34414252714083865,0.28132916256419976,-0.14256551755015753,0.009029522401427856,0.438245983317244,-0.4588584293073022,0.17628085111809053,0.11363712837110243,0.229679695321213,-0.6735925307390778,-0.2774018763871694,-0.18906566611667108,0.1902543811995133,-0.35890439493661785,-0.37612962228620284,0.0833970024671986,-0.40281267284914335,-0.35423486297644047,-0.19212924651823635,0.25306025580612057,-0.05831631566628715,0.4146890123657825,0.09368313782091395,0.15719889259570533,-0.0651423109598655,-0.2421099465976955,0.38125373608465607,0.06289978471040301,-0.16727223372791034,0.050597901852684535,0.01810863891176384,-0.3035649869915373,0.35813920878162275,0.06980579010993429,0.37021025527520535,0.16775102425219146,-0.03663553152504046,-0.11746106597087289,0.3782965415894526,-0.5042198618352695,-0.572415120880252,-0.1644785317577189,-0.38480579265475706,-0.21811944994211388,-0.3134600581477269,0.2054190008498748,0.07159531030608753,-0.13127177788074892,-0.34318796344769076,0.8330204759175139,-0.13451395949331285,0.2531456661350189,0.2654586800192757,0.03396849293696061,0.1943638973496602,0.2214724508513642,0.43356152851997726,-0.19988208743213765,-0.4404582621835936,-0.21414564319580887,-0.2448717452602866,-0.36665430562876694,-0.25473913321001085,0.11441956289641717,0.10498393102394116,-0.34584044422897986,-0.13894480257288147,-0.0951194032628668,0.020015489397143506,0.13519509519732328,-0.14533299456156018,-0.12099076396852639,0.28750470904807357,0.06639360910027672,0.02768311812133187,0.10451219327963722,-0.41071084142192693,-0.07055518979692754,0.24728161749062486,-0.2758334653092416,-0.08081091711823989,0.2303430727151561,-0.061862578459168,0.23910726278004005,-0.1078241342413829,0.13362759988276296,0.27542222816521866,0.13338453720393212,0.2687139468668138,-0.36245690911197787,0.09798803336893461,0.5499037487806203,-0.4235022089105107,0.3188456805300066,0.14825193778127166,-0.2927325127216515,0.0432302697384371,-0.3493196872416298,-0.05596777838710384,-0.15058295856523154,-0.08020465591346873,-0.320589213000825,0.3820613790321914,0.017321081740603046,-0.29287085131016966,-0.43673474521929123,0.44304893028206926,-0.45824544534748723,-0.3834466731446622,-0.4006090974635795,-0.2101819869409489,-0.3941609924076819,0.3062227805800814,0.15257784559959683,0.22041945616949812,0.4010666355118182,-0.31543212335010046,-0.13112358629006757,0.05051877983802183,-0.2126562167827767,-0.1962952966105593,-0.2640727428434594,0.35474775641474854,0.37048164407168394,0.4511363447501298,-0.12978853636087756,0.22161541310406335,0.2881136638222966,-0.42876220608439897,0.3787676428322189,0.3945366332693741,0.7921919949602726,-0.04458572593636219,-0.16546177712227478,-0.3008339733344104,0.3292463241528004,-0.2659610553952612,-0.1990585280756178,-0.503449053633188,-0.045832718348337256,0.09170978595994456,0.02476705242768642,0.12855751893795236,-0.03817397136879779,0.3085087289831062,0.06436533930367433,-0.08378387730632524,-0.06187038342666864,-0.1269868447041791,-0.22700182630896082,0.1213985872298315,-0.11522881563587788,-0.4351291267469597,0.19831673732636645,-0.31727568546655704,-0.3034607311298105,0.1988332577949134,-0.11496719763621757,0.344689326915347,-0.3680960476481087,0.2960747595885111,-0.47384755381182814,0.3773014864452286,-0.016605539005755638,-0.2544104096273156,-0.12346210320488246,-0.5088631231504491,0.2807451940453609,-0.08542895387872179,-0.3039865838802021,-0.10013636797533496,0.03777769144237227,-0.14181459221863318,-0.567758414005059,-0.05199159308750723,-0.22440504658082883,-0.1800599110142173,-0.14652739654011654,-0.04429629001345624,-0.2556058680820769,0.2522695245637162,0.4362231005486872,0.029093264892363788,-0.2977117234544042,-0.28400771082020926,0.28544928797558417,0.18096590800423826,0.33714105622579454,0.1899766399569786,-0.13118922577663006,-0.3471963897420532,-0.14576517674818332,0.23166526937593707,-0.024673437993901353,0.12263975291144019,0.2644292460632017,-0.22718370905558594,-0.305069787251591,-0.06328521910278849,0.08798130281830333,0.004652216942491942,-0.06454616707966476,-0.17086258417429792,-0.4008543546871939,0.16063971407230487,0.10434582484372383,-0.22964642741568608,0.09131468938510143,0.3031247007774181,0.21566143754654948,0.040592360879231924,-0.21595454208127352,-0.29984945607315616,-0.7111323197833079,-0.740055861049631,-0.526770516782559,-0.14417927713396866,0.057958607250606295,0.0011254297651645474,0.24448759425321695,0.35385517185821225,-0.007089604248417406,0.32036993752504533,0.20391015738293827,-0.3017359128355272,-0.35507587508604366,0.15594192941873,0.11451097814325595,-0.32346124220121836,-0.2399083267369758,-0.21260634599028305,-0.40418651201322814,-0.0735444192246807,-0.26137864851560977,0.18924143160456858,0.15508144906428192,-0.44073423029441205,-0.2866200935983384,-0.14476906115089247,0.028644351954275588,0.1351223660263963,0.2114887394884682,0.02230318020375591,0.08105265796614217,0.24952300951565454,0.08768566449216528,0.13846966494341167,-0.3063440820963796,0.020189497642552127,-0.1681395336828284,0.13848333562672283,0.5279218297549735,-0.20629371240556105,-0.16544219410862054,0.2294887241744948,0.4225267430102348,-0.08175862256929158,0.1205352016272738,-0.3781478598374628,0.2645324281030492,0.4212649450291847,-0.3656698037589927,-0.3703144448921542,-0.17412779487439906,0.20621295588837546,0.3923585271009593,0.10007160968065057,0.18006374214827106,0.10488259130468429,-0.24202465605222076,-0.3198870349690136,-0.3217084727573143,0.05806189199839925,0.018627108715199382,0.0884635619043006,-0.17817175423784298,0.25220847262846835,-0.28809635815967416,0.12275845110964881,-0.1490312044918648,0.09100827877088404,-0.43599453830745744,0.28554029599925457,0.015659711619521288,0.3238979098274025,0.32894384752648687,0.1858891575507644,0.020206857049931363,-0.0812342849585188,-0.3212505466866164,0.17063132677186768,0.28274936714618637,-0.14856077980253474,-0.5835013327285332,-0.022731356899948423,0.23130389639465312,0.36476328591622964,0.3903463042222541,0.28341178329709327,0.15001940606158712,-0.3930179542940339,-0.17116150184279832,0.1837419371169244,0.4990002040334576,0.19263154624004045,0.19906040420845678,-0.025880911332987946,0.03820450336982515,-0.23258624417424079,-0.20183479438555008,-0.20689026690755627,0.22120988757387183,0.213939790082624,-0.14058219699139712,-0.37664659184924537,-0.3733654095016056,-0.08698274086347972,-0.30270782210764074,-0.06014996989448841,-0.12725810405123664,0.05344902137897703,0.1880905409265713,-0.20296234547629108,-0.070579156329108,0.1272535526541481,-0.14440124789289033,0.01657598064024908,-0.05963886069761697,-0.11909099560404053,-0.1447754012694556,0.19278608575579684,-0.04768136828970139,0.23672907975821134,0.1448146553845342,-0.1405921180630265,-0.3403112370249579,-0.07592304901615625,0.04708361579907202,-0.0025240199048609737,0.10860756115065669,0.2191412309691865,0.3994644782654391,-0.04210087378876202,-0.1508233778658972,0.12886689194956727,0.002289352124080421,0.3881441796615227,-0.16289732665767073,-0.29356079079402403,-0.2841364365623101,0.165900417754699,0.18705765674642622,-0.028243609169999073,-0.05349970115059295,-0.4135540554887112,-0.4530201163393831,-0.1301149503719242,-0.09420839764920491,0.23267317454720962,0.44089821333303064,-0.14689374715576464,-0.3257654284554223,-0.18834613587596827,-0.06537868022364152,-0.354835796860109,0.28618830203587475,-0.3993242136764175,-0.28128688836640453,-0.4258123442862378,-0.44083119671868015,0.2976337804502198,0.3621743178672309,0.2983485418720939,0.17855893650273819,-0.3861899386659431,-0.22256935330684718,0.38802254987965756,0.48676129098436927,0.4047172063257021,-0.27482267084245243,-0.33403525140172424,-0.5014852801509548,-0.14050933855319309,-0.12407935920314159,-0.35660883244145647,-0.4657384579173312,-0.41376640743384574,-0.4440490874913567,-0.2696510873773747,-0.03661176230677724,-0.30481633374511724,-0.19317250301015632,0.14246756130180183,0.4851430218289221,-0.3054303876299425,-0.290459598448875,0.3547855059773164,0.028405371443342937,-0.04573128416789123,-0.052592911545765314,0.3147594415997752,0.06160230543208702,0.2793632945452103,-0.27085749151722815,-0.1832274804688322,0.44622174711104795,-0.3958861333071104,-0.39350875500096827,-0.4680548314961246,-0.023315716957279,0.18956989599629345,0.3466561414636594,0.264444405755895,-0.24881202690681753,-0.1167781461442387,0.25102824430878684,0.30747297858203115,-0.0009613063878174952,-0.47532336032711986,-0.5711840078139432,-0.09936308888454848,-0.17918841566378585,-0.14614555340027036,0.26325714368525943,-0.005006431211943737,-0.20164545873264403,0.2918051699518809,0.10543209987203189,-0.09244244842028054,-0.3299876240847302,-0.31124279810150773,0.26824427648127525,0.1661820787276635,0.022581801391268027,-0.3063529143276731,0.030601707702405695,0.05605292587079843,-0.23728688549300533,0.34430383209020127,-0.24162238789117102,0.2670832088547983,-0.11471298796580712,-0.4472878410457625,0.13650923785666524,0.3892349617189153,0.38905699907205826,-0.14279326917347657,0.17290456614441027,-0.26393917071596557,-0.409490371265681,0.2249310725080458,-0.21814237736897574,-0.15302174701915613,-0.44013223950234837,-0.23884355685320444,-0.4229741445697156,0.05934094720331683,0.8809647257316173,-0.03002214387651523,0.19359528241808552,0.32096388797443676,0.18705225202776027,-0.20861339618559807,0.13366106285815502,0.15856461495275043,0.00720544327052844,-0.5688832962338313,0.09424354806329527,-0.0395128554193792,-0.06634109319411846,0.38845984561822217,0.15858392991855136,0.41797859420903954,0.16150690025333292,-0.45864024051161184,0.012577443500104387,0.3098170514737343,0.017279221578480667,-0.4442121203811434,0.42541119515699216,-0.5766221308444216,0.11637591996809774,-0.015138712763555771,-0.2968767359988297,0.24543152426873763,0.14488834523369232,0.20372257411099468,-0.06945177568921015,-0.2994052660272594,-0.16998258822188786,0.09644172980369972,-0.383789270587726,-0.2594363478632289,-0.11237397653398781,0.020886858498248447,0.23562076729214676,0.10529868822973092,0.17885359921368985,0.15657084705597757,-0.4899548835417709,-0.27031513994377365,-0.0953996576223393,-0.21121121164117418,-0.10405392478373747,0.1983590905945245,-0.4362573906252272,-0.4625572196293928,0.08378602686327595,-0.1890221048982733,-0.5316512333445318,-0.44995707499511267,0.06072590419090968,-0.04803385352720835,-0.44517339167693426,0.050074513309942566,0.24541695929338397,-0.14688407981209214,0.2759670241160713,0.31894380773044995,-0.021310115064699254,-0.38933259027916706,-0.19958325310271188,-0.4952897060776411,-0.09267858626231386,-0.18016026086210765,0.4434778803315531,-0.4351484835973698,-0.24875420595302747,0.20272715329843075,0.29763278669850063,-0.01880001813337371,-0.5816793292953594,0.3697460675397138,-0.16677813082956733,-0.18914701172650342,-0.34133569248081524,0.1849619083042124,-0.1850057501124103,-0.3794064118768689,0.7822857653019125,0.48109897813394437,0.005356602586469209,-0.2011482591269285,-0.1651279448672831,-0.13949004536393053,-0.4651328094325767,-0.38389062987396366,0.07518496986664773,-0.22521770388049991,-0.39365481279103964,0.29425075761797864,-0.3334594877621668,-0.014038963148049385,0.02556926757954344,0.3684787023628971,-0.22912635548167073,-0.0435071386237651,0.15145366987135941,-0.2827274649547662,0.17612463029134479,-0.36267147333119854,-0.47191641221664055,0.2500902173453666,-0.4574292762618519,0.4354049252657497,-0.39890837841942406,0.43142491341735734,0.01813709230150891,-0.09597183711099992,-0.15383788797277814,0.027662684594927867,-0.49542331020692476,-0.4242334043748677,0.06333894084808762,-0.30927103083345775,0.05843791966729584,-0.24095325410009422,0.34713734842020344,0.250497337255734,-0.37982777954307295,0.2019087082641049,-0.1252862138535501,-0.3243076022909484,-0.28463721583487994,-0.013004954954100116,0.37597052859911584,-0.19586119065274404,0.19665360012304886,0.31554068446540623,-0.37246503732133557,-0.05644965354220047,0.24796056380463302,-0.06901881050905712,0.28366916037282536,0.11253449404959796,-0.28921747241803036,0.21730923325856205,-0.4777984347283288,-0.3075146002988045,-0.47193259142749344,0.17122868565247398,0.17672111045951946,-0.025724140726877454,0.1366624120185657,0.0849594498177438,-0.09725459039266544,-0.29323273075399253,-0.2747109222449677,-0.1742176112210974,0.1901632986994871,0.019460834727156026,0.32924638361275027,-0.02221428036720787,-0.5570476450548258,0.2902471533075756,0.22522103023575757,-0.40023123143020456,0.18963000411812364,0.20718285334095368,-0.03105259830320774,-0.4074610893845387,0.39359952364989864,0.07508162788310925,0.1420119992730274,-0.2929282113123766,0.2561691998077169,-0.45836739547049354,0.3193489176705503,0.153869770376568,0.15567472289634135,0.1611152838426448,-0.19814871422423877,-0.2072636016695468,0.21264572735902668,-0.1710149624311267,-0.43344544794324014,-0.06882530634929965,-0.14688445266652458,-0.533020323490192,0.07427269679999712,0.2505761486683201,-0.47507089910535283,-0.13192167021479606,-0.37805446968716167,-0.4004147900071948,0.16157639094505535,-0.44050812425718644,0.018783502547573806,0.26354023725319314,-0.09572034578094415,-0.08827539183653742,-0.133682472443866,0.049890636110993834,0.3588509956616433,-0.42246750351203904,-0.34481903663482166,0.18581976336304043,-0.4150038625330532,0.36305809822473206,0.018298149762694907,0.3487456365067229,0.07818760282445697,-0.3891350068171245,0.16162298364320177,0.3888201966129146,-0.25790004707965625,0.19620907565946838,0.15100314006500934,0.05738839649632922,-0.1979229353439134,0.09419110256762478,-0.443814201083477,0.1731151170801353,0.1744295347279887,0.08680664517788494,-0.30230792064544537,0.09148504552428939,-0.2698271620089377,-0.28260047994061777,-0.47257767407960916,0.3464668740820487,-0.0618533927335127,0.10867908550598017,0.3521789256309077,-0.1806980737963403,-0.42000340219380783,-0.49993032276946087,0.39693766442659817,-0.24750994246783317,-0.11516028457281884,0.15397237340542347,-0.10749989111123198,-0.46621532993009324,0.11545956808166034,0.07564708297879016,0.1240756083104045,0.2917138147291313,-0.2730655548242227,-0.22913258412359788,0.32348863069008477,-0.06351292832339278,0.18857384856773374,-0.028430652809084214,0.5799620074524877,0.4303559674746842,-0.5356426275075247,-0.13030802777938186,0.2509001965370541,0.0451492396021595,-0.28588892175115116,-0.2248726200932238,-0.289739598813248,-0.23925411869977165,-0.032257441802793246,0.377587958591578,0.13168563276427708,0.25921685561361907,-0.22370515693110138,0.14727528360731287,0.3159519370507129,-0.11197203473814026,-0.08952184450413493,0.1614660022278698,-0.35547939963274733,-0.20977959250015335,-0.34938799578495167,0.3694583708331394,0.22659514567326344,-0.23597191470507775,0.09959766772207702,0.2705818400452492,-0.3650912866534827,0.3656644419893824,-0.17273128108961341,0.04890924327875549,0.06474884365576863,-0.13327267184901823,-0.19695585001602817,-0.317978412713958,-0.06485117306994279,0.17288853885595698,0.06087937571446387,0.35047904033088456,-0.11401681014022448,0.2517642281939483,-0.35813690138489795,-0.02640642098504881,-0.24499274149451367,-0.0786802475549345,-0.12869295496458627,-0.41271683767001754,0.3298945341847356,-0.4985912419747489,-0.45323774166306996,0.23454849451714416,-0.049464536525392996,0.3899216421639717,-0.39350355964753525,-0.38347996647050786,-0.09828718638973634,-0.45468212301845534,-0.03726361441685437,-0.5069663751525306,-0.49840446234326935,0.2120490990689557,-0.38709840027416065,-0.2729572941610893,-0.37127006570646637,-0.08796104984713324,0.3659551458329931,-0.35262499076136344,-0.2856688215325711,0.21584924297800978,0.3115007795915986,-0.17263941697054322,-0.24880299647311166,-0.45351423782652733,0.2736512171972807,-0.3008441386097949,-0.31921794054547065,0.2224999895008098,-0.3030722535666076,0.05014563893617605,0.1324792685592554,-0.015039255515082405,0.41732605761607433,0.13218128541180046,-0.5746367879023088,-0.17824342135166707,0.02507785062016399,-0.41303882135797143,0.32855658952153755,-0.28822589346149174,-0.12376289362419063,-0.43861237680431525,-0.46435031639620383,-0.24366917870472818,-0.3852062955309813,0.21375348658478385,0.17727047457366088,0.0896342900970598,-0.365908509028956,0.21615986512247098,0.3250137989016635,-0.1408068125024944,0.30939334620313985,-0.5457390224711839,-0.052551356517349594,0.040563662533252415,-0.15062023109431208,0.385653996793034,0.22068979964776753,-0.055373423662480215,-0.035167739287550855,-0.2473454973232615,0.4127858755263981,0.41923592511626795,0.3631695126440326,0.3533640101381143,0.2726350338342296,-0.27410241331279334,0.011430107890931789,-0.3284817950491559,-0.15298921722159825,0.24094347169460512,-0.3154739746681854,-0.16068039856434282,0.13538518477291517,0.349709313285142,-0.0929438538593091,0.11784782466091191,0.07720515635949149,-0.31196575254386766,0.2256100249840184,-0.17902180481572422,0.1994407502129936,-0.03422365500717475,0.27238101450187857,-0.19248958945947822,-0.18421933934347512,0.09385662581694189,0.06828711159705701,0.2408856505413327,0.018619258762128013,0.05738960771074659,-0.16545516982334446,-0.03215595023254948,-0.1589593966866988,-0.16596254926697762,0.21185468215613334,-0.39124766059285376,-0.017499869154948906,-0.23369992775634937,-0.10794271129968165,0.29176137603248625,-0.18678414663412957,0.041311214240738026,-0.20547182415351153,0.0798089087045737,0.2030902502283854,-0.23834815033829868,0.17661480418893874,-0.021480255739138233,-0.2955174481326527,0.013755162249711234,0.2569370800438619,-0.06609759519191909,0.21352053546460048,-0.5033766676895112,1.1536485244337642,-0.06664932572543732,-0.10915546921261583,0.21003997479849051,0.2149809879397603,0.2924052161112221,-0.29881581047071426,-0.40268087808448905,0.7647398848234633,0.23458975794634002,0.07249194804462365,-0.09538966395230815,0.101496897650404,-0.05691359136786318,0.2693144700222066,0.019916345431687604,0.09702531016007102,0.1975113695478168,-0.11480811702281048,0.2737816076299399,-0.06521277080006814,0.42231417731226845,0.16312175185194988,-0.3942631792087222,0.11487852361624873,0.3722350949070879,0.16502755821254836,0.11830995019200193,-0.2343173254829154,-0.054563170773760675,-0.3941471447646959,0.2810924261741861,0.19690257933350708,-0.07448638631633044,0.06970323791378592,-0.09104829948780872,0.06480341790925817,0.2183977662298874,-0.14753192647955057,0.15601975137802646,-0.13012739005218268,0.08358813676699921,-0.4814822990732418,0.18240389875474375,0.22942416142469785,0.2743605956327395,-0.36278047412672465,0.2912378862198294,-0.3574087144591993,-0.4045098779937755,-0.24572685660206556,0.48346044037874286,-0.024462595565410677,0.010787679561247694,-0.15306556663431245,-0.20962563026411013,0.22423704034791336,-0.27900053639297867,0.05219092821370726,-0.027321961235501364,0.1212490881884795,-0.45723482298464646,-0.06308192176535983,0.28172308286616987,-0.05288575967707609,-0.04813812865390153,-0.21387372462906526,-0.23874965875013707,-0.24750606711188516,0.22028576189057317,-0.27119959576814007,-0.35145348685690114,0.01788655455117723,0.24379997418608773,0.06744686483219459,0.17755954825196005,-0.35779041394635547,-0.1851940259371578,0.23031327039993807,0.32123577293328714,-0.12199539160426466,-0.26339181535650863,-0.37009691510715537,-0.41590104131144706,-0.3654194441241544,0.010007264008406645,0.3451389648762345,-0.552711872915132,-0.1678829403856185,-0.19283455896691176,0.11517920945467186,0.1710069619462992,-0.22945166274730133,-0.28711591536012493,-0.0033054513474045427,0.25531009769218127,-0.4212475071130598,-0.347665035678298,0.2416340870196719,0.46539332398706773,-0.31692504030751595,-0.27782730726119126,-0.11577718898110949,0.24720099153215813,-0.0031544601891663284,-0.46649606816661554,-0.22206737784104602,0.25217353368195294,0.3740676011884606,-0.14816911064153582,-0.17013437686447486,-0.4703499484260198,-0.19095288280826536,-0.3268431870461584,-0.20556831868662045,0.2957148102192361,0.3715691575917005,0.18282548489026626,0.279907604157354,0.138931330458623,-0.3174852588945623,-0.15586186731888033,-0.4403740504850966,0.008067562785979835,-0.4296567133154563,0.45413553080191327,0.2998197312077562,-0.42551430402025336,-0.38130209854956476,0.1542296196194473,0.06941293221163782,-0.3514791241246574,-0.1266661460138413,-0.3060062803911065,0.3116682385483891,-0.34488002718044986,0.03967763553178257,0.021198347981143947,-0.04286438661667335,-0.3120563204382164,0.17818788409654204,0.2725711376657093,0.28043960350734504,-0.07097613307280097,0.16765331143967063,-0.036183400992488964,-0.22521824101213092,-0.45789697865218437,0.3492455143967696,-0.1974263836827887,0.30832708556969823,0.17856275411095718,-0.4606736217499452,-0.23524439693825844,0.09204582336665114,0.0834186224358387,0.10316433168932786,0.03725132382387787,0.3581418274037016,-0.24050874687631849,0.35973363602375796,0.035004186726521024,0.15824857746693616,-0.1138473057436405,0.25138464216503165,-0.5044054255294796,0.3421715626257146,-0.47676761197989115,-0.4870899965679664,0.2640055138552942,0.09364104991002059,-0.055002423246969245,0.37368135227515253,0.36548405655229826,0.298309197905228,0.08542153488762738,0.30050458633208027,0.012392125995706556,-0.4509675605853057,-0.25133856014581046,-0.11085724203845047,-0.2533628006118101,0.26766977888160737,-0.4437664003071605,0.3038359393869183,-0.12787483250004458,-0.13695002446288762,0.008633973320714607,-0.18558694500450829,0.18094937757197951,-0.36436513709325163,-0.3825837005029523,-0.3906908508219619,-0.45148023249372443,-0.4355086680929971,-0.15047950375664168,-0.07926239257147191,0.18269863560281924,-0.4921328529106642,-0.32767035260894223,-0.13092717881626134,-0.22422962787285122,-0.2616950437263202,-0.5342849303793454,-0.4623250974256992,-0.04647586707003715,-0.14056997888971265,-0.25658433310727735,0.18398586388303623,-0.1493532520898133,-0.004184618971894249,-0.27907602586608105,0.06990312956149876,0.22023887935388137,-0.40119120722562174,-0.31048715502633173,-0.10874759101900955,-0.057368079804090366,0.24677680881164635,-0.1474142296350898,-0.5940685077166202,0.261358294410908,0.12183583767218192,0.06884047665676216,0.18083755761536852,-0.2957758425803095,-0.2017359272122188,0.33849315110035383,-0.3655903863396743,0.007929086045931556,-0.2689112900969925,0.2657131553905745,-0.09675326586813003,-0.08040200800272239,-0.3040872209725178,0.24221419883054937,-0.35042162103433067,0.0707389828449829,-0.05188287387983483,-0.003414705708478046,0.09251790256650844,0.049455707300998034,0.009533920198934814,-0.4128100111468888,-0.011798824200300472,-0.37946162860098764,0.9216668968076668,0.2087449422184374,0.16198912718125755,-0.2959179049412253,-0.44143302872988843,0.32004473979468423,-0.024621362191923856,-0.24146981468249248,0.32867074578030864,0.17259426453256055,0.054542724590600306,-0.00043625248004323626,-0.3656319610040394,0.16188530779731006,-0.2599035974974049,-0.15306634461435634,0.133475904146304,-0.4467277773613897,0.1122201325600577,0.10156547980328218,-0.2343319426269009,0.184438725647312,0.04367892517786637,-0.3866392378688582,-0.32537927110590076,-0.2674342829883588,0.41754034420390435,0.29955910262266394,-0.3508322272541354,0.026784094381137536,-0.10544212376504611,-0.19779482245042226,-0.3306897377969344,0.371744695208499,0.3040258106935091,-0.5772194772598579,-0.138853419038548,-0.05668214513048947,0.038973133563008425,0.09720616027704787,0.3752987412363083,-0.03962372651047118,-0.1868725419029906,-0.26465565218396225,0.44461427781897334,0.4352314848945534,-0.2514547257591497,0.24122397540180357,-0.21624820023406666,0.20113237586958255,-0.3089287273864048,0.22072589555580116,-0.3807398086320925,0.008775970999970373,-0.11787967924976281,0.2646327743040002,0.27862073688188366,0.2948149651963904,0.051405226184532526,0.42154975865947064,-0.4091746834685854,0.36255759891122463,0.03757764054967101,-0.2570319617933261,0.23895565142645936,-0.1167196372989672,-0.1701632625231428,0.08959275923544739,0.3717075223007687,0.34905046683680074,0.21367484899917494,0.14605735033378123,-0.3302696348756091,0.28407881402345,0.1861971399306753,0.17817248805453087,-0.4449441511899145,-0.23922391269521448,-0.02087462169725636,-0.4627547717811057,-0.7691394670781136,-0.16791466340572467,0.007428530743110743,0.2798054568935489,-0.18045549360515672,-0.2085542695049932,-0.42727506694836404,0.1092148515718718,0.22542835771142522,-0.21951993920365725,0.6660416137063055,0.14557980992345232,-0.009067454917510962,0.11981596461545381,0.11646959290889444,-0.06457880944821277,-0.18376727803956439,-0.03150201694371472,-0.3465416605266186,0.36920932472641343,-0.049305227341794135,0.4360738311274473,-0.21728133112215275,0.23680512294979364,-0.07510566093302239,-0.3205487951218901,0.3163484875979114,0.08419477538197748,0.03817437062023354,-0.29588986701520914,0.06744499939207393,-0.17836083745951334,-0.05222799395417993,-0.15438031770928656,-0.2795604205136349,-0.4055522051520921,0.08360958308400153,0.3345806394798833,0.06568640005551342,0.16240585410627353,-0.05024007200995783,-0.03396001390879274,0.06666319753346871,-0.3578092291668621,-0.12851849988359748,-0.14631814835459409,-0.3324500593368047,-0.43720504653251624,0.22578487541979056,-0.33773578338980725,-0.1600428641646433,-0.04266240967790687,-0.4020907934239256,-0.014922575313469756,-0.30663299322806026,0.33274620313465336,-0.2645678302339206,-0.4611720727269863,0.08135483356202867,0.3586858301544192,0.048677528069880724,0.3054939090355893,-0.19207122829967144,-0.12643807487026212,-0.25194017175518946,-0.3666768409935022,-0.3251479864854002,0.054927489895910495,-0.02924903613184171,-0.246805896218436,-0.266063865686876,-0.48698283663809516,0.1656750374054971,-0.16715307906463406,-0.3236417920953003,-0.21240212160586008,0.22597661369623168,-0.1401355786755151,0.10343305949901724,0.21387475378906448,-0.1814093577305214,0.3034748065231345,-0.19294533535611452,0.12268182044978498,-0.25434299750739514,-0.5207641143077397,-0.3622568991183162,0.2806739226517219,-0.3336318081978171,0.12770941974306746,0.04572084262445626,0.27370468178221646,0.07186827865980563,0.16249100754945053,0.1855653913341617,0.21611682089261575,0.013715248627800936,0.16601749577279493,0.2414824687844935,0.10593893328875935,0.039404483503460604,0.1418301654791763,0.17714779397102745,0.4508116073873507,0.25020681708094067,0.0879094035319689,-0.3459311951944605,-0.5371365550863453,0.0023534322890856997,-0.0783445050867063,0.23509296915772795,0.34668115682257666,0.2555326362576217,0.1883824969970428,0.4277714325761644,-0.5321116274993396,-0.29601997656531304,0.2905080315836476,0.1075748496702768,-0.5016720549504968,0.19810919082158682,-0.014152726052510868,-0.07773902999323748,-0.39124107361475735,-0.11197179988489722,-0.06509249026433313,0.06552212957586606,-0.3219954824166655,0.00578067342095379,0.16430694814549313,-0.013699209720379323,-0.41612049917860344,-0.49755041887933016,0.11822960811169397,0.25748691576906046,0.11317532229198476,-0.011786160242479568,-0.019564119814476946,-0.32858284843028707,-0.37762276740272566,-0.13701966715160652,-0.3960245793240368,-0.3250203502739843,0.30861388194105627,0.3603518789198515,0.014941720608604986,-0.17790043736811223,-0.47844923194966515,-0.06299265280991233,0.2631445114598077,-0.1813045429566849,-0.06396254199005312,0.3461899964409892,0.46762971982093127,-0.5070416524422905,0.21553899994656728,0.16750505969539375,-0.2463722425369346,-0.21137030929520073,-0.1274825824937316,0.10480604832874303,-0.14473934040581996,-0.1295107070239256,0.009454918176420456,0.01394474293476744,0.47411982691945703,-0.28587918031756004,0.20704066648806924,-0.006419340288564844,-0.28843053073947983,-0.08387464504806062,-0.01743328680160179,-0.4817596494528631,0.16075965690620322,-0.13392798502865488,0.3861489503050791,0.43991985836096653,0.4777545739102648,0.06994843676705256,0.1990423471243137,0.1526451394132621,-0.4248828516026523,-0.1597937586958788,-0.4019232332588187,0.2568321147703322,0.36056642862362476,-0.2028317805971217,0.20723067936261955,0.341693275139415,0.12466538785701375,-0.39475474006036687,0.09127712733888466,0.25122530297684487,0.013018291498998724,0.07475396741089653,-0.35001657476404985,-0.3814881235169196,-0.4837649855621597,-0.47656773095216537,0.10624382995200178,-0.1247456075015545,-0.07845107654357453,-0.1908457339742272,-0.39863897737972154,0.2937084769917081,-0.42993421327431985,0.05915563515526937,-0.4821655799890977,0.1565190379348289,-0.030848775167730817,-0.46836084729263855,0.04827378530482388,0.1596371491681467,-0.27725562101768314,0.4661708708791875,0.34426908311733256,-0.11798747252393105,-0.022572646751527734,0.30585887715817006,0.2557326828965443,-0.2576131195751199,-0.45028370344887686,-0.4164613272317598,0.03895433167607578,0.4027908669750887,0.0808097291755295,0.24122179342605066,0.13689430370255615,-0.1497227624603999,0.2990203158392333,-0.4779263296157944,0.07104650769548138,0.22891084590112698,-0.017071107154575552,0.11582603132242139,-0.14845914617083905,0.33704264332904615,0.3579172329981799,0.2651099085871616,0.34840395847561184,-0.0030962367689678547,-0.4593046672713753,-0.43386966371400343,0.08962477308746546,0.24262189062607425,0.11831690154430148,-0.5157244774249033,0.17305748869055668,-0.220144708483976,-0.26949768880127306,0.2272267076890392,0.11347149147420638,-0.4221489706353741,-0.40430996843332734,-0.363793831152089,-0.25487772161577654,0.056915980658618914,0.2547705198697019,0.0799817468486879,-0.4618606552158264,-0.5026220073610891,0.16788861256880475,-0.24469297076015398,-0.00004552058791002707,0.2317513130214847,0.41428027090146613,-0.3584447947393456,0.11514683700332994,-0.34115073339645136,-0.2823411752759204,0.3548089295712736,0.06715153218962253,-0.17083454885643337,-0.15597597192295035,0.14831312937300137,-0.2006290315300268,-0.03955206960509075,0.1845430522536998,-0.22974130599761428,-0.3206070328971808,0.31901947663134156,-0.11798932420879413,-0.2571545764743511,0.16735493894695672,-0.29414472054125496,0.3451417411898087,-0.3380654711969427,0.15944302010006775,-0.4258603099873388,0.29135284438819364,-0.5660884858319063,0.22561096621477217,-0.17597468632400717,-0.26667742628051444,0.36190013318397435,0.043932156698313796,-0.03185855911192605,-0.4326372820066121,0.15213946125813343,-0.1613097624724855,0.47998660556936845,0.058543082019565554,-0.27717734921389414,-0.4812258146996334,-0.45207269986433446,0.2854379327960228,0.051197978766656466,0.02401293020680317,-0.36385500701314055,-0.40374394926565044,0.3344931736846036,0.1869520733755508,-0.15368546535005184,-0.48142629324657826,-0.31246875008002833,-0.15430810732004877,-0.016051652203423267,-0.18880667166430096,-0.542654609974814,-0.10411973627877352,-0.47439253866621167,-0.26161361484163576,-0.27060959400600115,0.27822354656968995,0.07985192030379225,0.03220496023754224,0.18297359559895948,0.03513085405493056,0.6561940794861241,0.02346356849950109,-0.11936270424390077,0.13278583731359686,0.17369729606305662,-0.5009487001055153,-0.19708924071719777,0.0924001643270429,0.3675530540806346,-0.07946295535093038,-0.013420630365127249,0.3619624623345961,0.2259107232951911,-0.3844125148137584,0.11870494301268625,-0.12867721628580045,-0.19932966673536273,-0.3666479492682759,-0.1705020741892753,-0.32133748018439445,-0.2552486587224547,0.13644677102068375,0.3276193917423151,0.3104327335101781,-0.019517975299362406,-0.13185493036854617,-0.3801908257548803,-0.4792535074005225,0.007043996915954674,-0.08528449912254034,-0.3718022737786982,-0.28407567629404035,0.13644834164717778,-0.348086894695992,0.3825671162806058,0.13108299725095504,-0.10069302922443699,0.12315639821722792,-0.28262520492368465,-0.25430921977325177,-0.012853230598453,-0.1349244982228849,-0.3330062010755954,0.27433128152246167,-0.6452660106732901,-0.045763040951997076,-0.023278885192634744,0.06987581931117429,0.06093955374055087,0.06824173484046393,0.06520405266731462,0.05468311354804583,0.14072420257810161,0.182629311175209,0.11597267623319522,-0.027925898077638876,-0.05405921768413615,0.0353666995922956,0.07650746704893399,0.08556667189522396,-0.04247815418057588,0.08988445031053874,0.1719706129611819,0.05586994239822416,0.06999410854255526,-0.012827541686480691,0.016834675441023954,0.11403447727507297,0.239267632031346,0.15585852237794987,0.1263076569033992,0.1826585495894386,0.047157415739813587,0.013476625678921762,1.228914181822912,0.3804217754561142,0.134047180021674,0.09311506311501407,0.09196058759005712,0.03988516136469353,0.17810937575223929,0.14888467596291105,-0.17795424950871266,-0.004413774547915723,-0.9154545022905689,-0.2599842696305773,-0.37394779169529435,-0.05573772319854608,0.025421031830753844,-0.18997211538667585,-0.044569247919917995,0.020934178619026102,0.22552962807002952,0.20702627481081423,0.18321169087342937,0.13701944699726495,0.08790279148999766,0.1269369890052459,-0.044684825722546305,0.013494209191481426,0.07932333400063492,0.034230988342359096,0.15567371668516447,0.03525644336129636,0.11586029308585442,0.056521563540163966,0.058433262001923864,0.2552840092400558,0.015686670601620836,-0.034236771193005784,0.06777514194644728,-0.0745644518213924,0.06867820762564406,0.02099575496085079,0.0820223434078091,0.09778914612321085,0.044926966811668204,-0.052882679878899226,0.025075778386655624,0.03257044665005131,-0.03385926895766588,0.12835283190420402,0.0007777165437967106,0.07023347767555599,0.142617675849331,0.10696839101911522,0.5175175406240025,0.0648386198272616,-0.13965115241494805,0.15703963554635206,-0.034870295822879496,-0.334041288310063,0.11796495296980415,-0.33017450832796064,-0.22710026892550103,0.1680527562325733,-0.09918395112007031,-0.15359644474699136,0.043538318456570725,-0.23892032579295136,-0.12901842726395085,-0.40768123969337283,-0.20440290666730415,-0.2012573966402258,-0.2573938753546231,-0.245534577290034,0.10534798966313468,-0.013524999853267501,-0.5238371495501561,-0.07972284385426785,-0.27608366123768,0.08812504053258322,-0.27600922410193574,-0.44740859298974056,-0.19451022368386894,-0.025325927065670408,0.7979395966753094,-0.36821573016335357,-0.15176060947721248,-0.30378150976926077,-0.21420746218199394,0.254981397411108,-0.06751503143903104,-0.26058290304841764,0.4319506849561641,0.3463636012649355,0.303346922108146,-0.38515969654333,0.051248699782562884,0.23182080668443034,-0.4480635808697636,-0.14060855965533633,-0.28858550900217905,0.11646347903300033,-0.642498958610152,-0.6510724352879557,-0.47571586645756675,-0.06603568365406415,-0.05405595988167548,0.2996360309885921,-0.3458787209464226,-0.36457143357902644,0.16890714793258496,0.0734458080563602,0.1387082340581866,-0.19773087787782428,0.19196503649120392,-0.430050643019087,-0.20111640797882108,-0.25670502215529956,0.14742471837878107,0.15838817363950694,0.2243081413062335,-0.44572284193829664,-0.22785732085680654,0.21538930592695832,-0.1413599859060656,-0.135718666176585,-0.48207963582952384,-0.042885814226340656,0.4542542542285075,0.10927683927296189,0.10166576392808997,0.11706661536383593,-0.16310283119034388,-0.21259594477016414,0.24414553229526786,-0.36974316183786915,-0.13055794888043917,0.20229531531566908,-0.2979670307320875,0.25694599032266674,-0.3895002389348949,-0.13691797803539107,-0.44548060203453244,-0.08451178418699555,0.19699911226623296,-0.3554445598917022,0.041814022139108974,0.3349269364648618,0.29956756481280344,0.1758099530575154,-0.053123060165827164,0.08431194542514549,-0.15030668340133813,-0.2533297271215638,0.20317291631885526,-0.12063830200326456,-0.11876056614015627,0.29025374092175116,-0.2437784927887262,0.1965115432310128,-0.38673810354540966,0.2368630643231581,0.09307377419778158,-0.20558541672074945,0.2136066077462277,0.28472305687239513,0.5482499842588427,-0.2929075554621598,0.19428357285229478,-0.07665321369353467,0.018643992922839154,0.1460651401344424,0.3489238745627319,-0.32959447215578924,0.05240358389807909,-0.15382863091303225,-0.6916491035952838,-0.024504937931728876,0.240680210849848,-0.09979885563091097,0.32851980087162697,0.08909208692115558,0.22717225484739673,-0.5812160293604166,0.2985294618311003,0.12450788375825754,-0.1082095952413828,-0.3116492626579653,0.4555476552428711,0.3890845710128319,0.4202590216512988,0.40596898963819383,-0.2542139975911412,-0.002436104062142975,0.14040109993086727,0.27706691248417376,-0.31795739545509266,0.17720610090364503,0.11085491772482918,-0.3912242398519154,-0.10576257108476866,0.12085068037765974,0.3748962613853404,-0.4519616933181121,-0.08679727628401182,0.1716988475120307,-0.07110225438416581,0.25762022457379774,-0.3821485790940302,-0.41955643603149545,0.21016814248703872,-0.023327590483807142,-0.5149984229397414,0.38898292291943787,-0.1729281817649265,-0.26022824696831803,-0.042344948085713444,0.29752033778092185,-0.6305698741465895,-0.4119853485253678,0.25989491144343757,-0.14959307037536554,-0.4619643859948852,-0.02588972093628409,-0.1951596396318287,-0.18358973527906322,0.08956266355962521,0.08152759334135845,-0.17046272493307754,0.010638068633582888,-0.37394201661272486,0.468939052473405,0.5187982749551995,-0.14506094068180284,-0.2181097431042791,-0.03620969949270932,-0.15139402353796244,-0.03252390679292132,0.2974240575793988,0.134279550470936,-0.1759279583071039,0.050699348488857945,0.1048205785152003,0.10565709416817118,-0.02841100406648254,0.30913730022879715,-0.31611561765585056,0.211310814923761,0.6437767788771975,0.3674443372981197,-0.19760316434664038,0.056232647543799405,0.23900485170212904,-0.3422023487255285,0.38483986345385646,0.25179221205508723,0.13556507067630308,-0.0059714510730842565,0.11371276490137186,-0.12405428692263835,0.19900069219261907,0.46216409099449884,-0.13701299001725264,-0.4046697578877515,-0.14604015679304164,-0.42402402315922016,0.25525823316139257,-0.08936323027441781,-0.37239670078408854,-0.14459026688151214,0.30684658649606583,0.02731378450309132,-0.3553826758824797,-0.5228090326761796,0.28779595860021856,-0.06412329535077241,-0.022805914305822683,0.21753328701222352,0.09138950177791799,-0.2709183863008955,0.12159172489198339,-0.11669766361878985,-0.4148778862833624,-0.36793052274664373,-0.21073637435830614,0.17607770702546585,-0.48151137216944895,-0.42456466983325564,-0.041067115232112636,0.3742001579639541,0.39608476185187946,0.39446058222541125,0.3721013357728239,-0.03925665885629121,-0.29130059609646286,-0.0577206050641399,-0.08377892508636149,-0.13498772674433532,-0.021945376889091223,-0.2143448974945115,0.19904173897930738,-0.04438247359256963,-0.3102531736432632,0.19005832564697395,0.22399750062253218,-0.2875227372334531,0.3313871103460586,-0.10772155586370241,0.3195016366302886,0.3349507458290136,0.06628719349812989,0.2896828833541694,-0.07231731495930623,-0.25744923116635393,-0.4338615863002207,0.238179465724608,-0.25009858134318397,-0.1355941438763427,0.16519360555442633,0.1448947583998987,-0.0914507011962526,0.20335271951526585,0.3238779279551758,-0.07250070030119579,-0.5089519817249359,-0.5517226373913998,-0.13914918499550555,0.059994068837443355,-0.3410017666641635,-0.14772449445520355,0.1788130639300545,0.14624409889135084,-0.17229428047010673,0.19158383209874338,-0.4213728689968853,0.15719264520051332,-0.3823570493561087,-0.46394737419513643,0.15152683694748847,0.1078138705218643,0.5144000029215371,-0.45161204205830474,-0.15863404778545717,-0.007696656995630355,0.1454782328537609,0.3302064080132216,-0.42615497704617045,0.25129674859477086,-0.14503341828053817,0.37738230195349126,-0.523553193763127,-0.21197852662018007,0.05141753727663703,0.17733329150502528,-0.3887541073152843,-0.5362150752517149,-0.40234614054143647,0.3554461731371232,0.2607326343372525,0.11648007666254695,-0.11582024619762217,0.303908284692323,-0.4083964107482559,0.3022991243712722,-0.49031846454627237,0.24681432793524757,-0.20889119603104492,0.09275795394863622,0.27948457258422543,-0.33497800530665856,0.3212109238177609,-0.14035403264373653,0.3384064854141029,-0.14528487016760996,0.17324540429481497,-0.055311000527396695,-0.26704592729015225,0.2228409949868581,-0.32205718257237614,0.18857442135782163,-0.18439737323105262,0.3429421474405027,-0.3060815143178217,-0.31971421373311987,-0.0944124464261393,0.015373303043228155,0.30038534637880926,0.3057696259475296,0.20242751042693494,0.05545134378206116,-0.453834352031227,-0.25886482468270966,0.021060014527548583,-0.022902935127240755,-0.2831103319297013,0.06587189968131346,-0.18477529546452437,-0.28594997164514246,-0.42845777440563954,-0.16460361837707424,-0.03207501657597077,-0.18054859671347215,0.19548771027881845,-0.18991561877622748,-0.22291203645295604,-0.2616648503659719,-0.3601057414422826,-0.30657246432779417,-0.4261948041437076,-0.09837968418145443,-0.4247349430771577,0.04045941484664754,-0.03957744219172555,0.06303521503052185,0.26172979225566984,-0.23091555423282847,-0.44970585982509886,-0.26280676556482724,-0.1357501931344807,0.4180780441156814,-0.2619499878114332,-0.2969075684203197,-0.12163670751109874,0.007544434661737519,0.2227516392708561,0.38871328487888085,0.008391606153082487,0.23001905379138113,0.046776488481231955,-0.49498732052876043,0.3240459614304419,-0.36485868579383257,0.2182411731716908,0.29559884836167327,-0.01998054388584947,-0.1952356954320705,0.06225205170511519,-0.22969810569526575,-0.1509102188212989,0.1482673779813561,0.3153442343594639,0.21362027495851357,-0.31471386856421363,0.11203832593455008,-0.2090203647979992,-0.3961988816376916,0.11867835090177441,-0.3137217345752861,-0.5003385320165784,-0.29730811731973805,-0.10201038774643333,-0.442174716416271,-0.3548218218614999,0.4647640844747916,0.17450939570694163,0.0952179420854955,-0.3305805286099985,-0.2046950295469557,0.005499922906573028,0.26332227267834046,-0.27224387370192504,0.39073845072824465,-0.3416494415339993,-0.07212854782810225,-0.5918893005350662,-0.016809375206393397,0.07501720929924412,-0.03354944986638591,-0.10413937936029734,0.20870635208911248,0.486041179175434,0.33436999841688103,0.42338543447784555,0.3340788458249042,0.045766549974499963,-0.31662070145628207,-0.03408269096828742,-0.15435828367827872,0.33421274880299073,-0.354231278008612,0.33161345928393776,-0.307375639678364,0.1401097259908077,-0.02474538197952835,-0.21578121523200106,-0.07963173095789783,0.3478006701910777,-0.008590434439128375,0.13243599733837258,0.2812737023402538,-0.20920628603224656,-0.3289109686580197,-0.36939489247562374,0.2776096616802532,-0.6311351347319163,-0.618068460895295,-0.16528396616810107,-0.08198293049213923,0.10850646674403965,0.007320526607392841,0.39118955581163106,-0.3251237511695925,0.5385867716286015,0.37068352143904115,0.7624976078955803,-0.24216517127221426,-0.3807563955340401,0.203246323591614,-0.21168507935582379,-0.25477269354930804,-0.21627851456109365,0.4340168178159709,0.20974833980689062,0.4269238388221926,0.3434556588298686,-0.2679595842776325,0.2178579431814539,0.057827126867065676,0.1555172893506604,0.029434671650206554,-0.026826978067060206,0.21711197069422242,0.3382679981837013,-0.2254466960550281,-0.10826305002748689,0.3447710519402846,-0.053918956240045654,-0.22536899772857696,-0.17978870961512788,-0.3660235881962389,-0.07197848495889397,0.07623635189059161,0.20383197710153547,0.1828768586521151,-0.20317980233660826,-0.1301426176942636,-0.17020869582710496,0.09325504649926494,-0.08537018914814366,0.28422314911704394,-0.3802933486579958,0.2420141451089434,-0.32205517353533925,-0.1047699613025233,-0.028520263331009012,0.3372840440859705,0.05022148534528716,-0.06882574688404298,-0.2945494920079294,-0.4976345656444376,-0.5422862243712158,-0.4756614720659657,-0.3222384244830894,-0.24511784936628034,-0.5477912420156456,-0.46752778900499903,-0.1507221151038143,-0.22726741531783554,-0.1486250468384876,0.1145320786285313,-0.3992843170133528,0.16966112213040746,-0.2182194210504195,0.14141926347362707,-0.280568111571296,0.31603070644197834,-0.056624187538152355,0.289312190768842,-0.10657216946615815,-0.13751393894872835,-0.04337852281861989,-0.39482524973304234,-0.3445280784772623,-0.050655492320841246,-0.016998867484810203,-0.2699351043835043,-0.011857842441167249,-0.06362568690319834,0.16138309988577965,-0.16791624344461167,-0.399719295683986,0.10175903547511925,-0.17680652294688576,0.030058180463409797,-0.004789094646375018,0.24524598856067503,-0.3207878519552649,-0.2097874547580769,-0.4902706740754982,-0.3579865653393294,-0.0761076298029235,-0.004367598943053905,0.15340116923093616,-0.207345413567453,-0.20510693239792827,-0.06818656359955608,-0.12391041373394315,-0.36320556153271927,-0.0282498435245808,-0.40821490990926257,-0.4890624982314728,0.19348607648612856,-0.15395721763859874,-0.49817651842766797,-0.488137130643433,-0.2837985316919097,-0.24682431258362783,-0.46315792264362177,-0.21626137287891886,-0.2323146964373968,0.055492852825989626,-0.46436867659774217,-0.36697626580863785,0.11776976236775105,0.16120686011074573,-0.32345638893029627,0.1964765519195078,0.005543826976887617,-0.06062781581431508,-0.2746773681078254,0.22512150118394494,0.4368175204493308,-0.20535671871063121,-0.36922246056652913,-0.4557663377157153,0.05390947367504397,-0.04671458266030185,-0.33354521024842093,0.1505006013506585,0.02440930074995293,-0.5311810638159981,0.2933620111733802,-0.19934395367638735,-0.4579331113792988,-0.39474811652275404,-0.5373812482156658,-0.29375315937090657,0.008707716751585439,0.024960898108613377,0.07200734778474899,0.33605922093622204,-0.41881009531918206,-0.2540526983229181,0.362607112892131,-0.22486128330160834,0.1805737598264168,-0.2834692195222226,0.26421647939121046,-0.30552016658281606,-0.05420275303317357,-0.48969464219564024,0.12218457500812231,0.2703553489952296,0.19555070116567647,-0.1445284789969529,0.23944780229705334,-0.37892029191734794,0.24888049638289497,-0.1766661959718445,-0.0071424699768353524,-0.14757286908979386,-0.2740633736990955,-0.09958535021995923,0.29655425921133416,0.10718761856897138,-0.35261410300025114,-0.3921279946924396,-0.203758157298179,0.4914691926564937,-0.07520221429987711,0.3698084348139427,-0.04144684444078351,0.07170684931226486,0.009488692816233124,-0.21283588261853162,-0.10968747368577843,-0.18951059680267096,0.0744780020101091,0.04730667042106513,0.15717142117249602,-0.02367641092630055,0.25816613038723174,0.22411306382162094,0.17318376941007094,0.2998032556600751,-0.14008862105834527,-0.1799813817151924,-0.29144124713816894,0.28513802362057306,0.17544801303668645,-0.36234919243661945,-0.400309202139396,-0.09763013817263004,0.019173362130669697,-0.2691103285188511,-0.39752671807102335,0.3793888336284418,-0.15446446620797202,0.12577176183846164,0.24178026619452167,-0.49759204244369437,-0.2854090933826651,-0.31471608743452695,-0.4404397816200331,0.13361880775479482,-0.3527560256732184,-0.3548800154788786,-0.17135159374744555,-0.011851024146902957,0.06071801598598389,-0.09248327663647865,0.10493878954406158,0.031694648359762545,0.2827012873237449,-0.46551312024328234,0.38056239013301024,0.2764521630177105,0.12803431499153584,0.10267252161171486,0.13090765187108389,0.06925823242637816,-0.23950605826459856,-0.38435638401545186,-0.03992796643914613,-0.2482975369654109,0.12051662135099582,-0.3345384651235716,-0.10531172007213918,0.22097752535123516,0.06103890647636385,0.1211576118415423,-0.11246299425034095,-0.22247346455199704,-0.4254932007365727,0.24111436197106442,0.0872369796348097,0.17405793070892214,0.27932676707036114,-0.531123417366186,0.07198847937778886,0.8705315889205689,0.15233068408225964,-0.17020783244602802,-0.1557757397876456,-0.26970634767863094,-0.36706801273851614,-0.13237985751518183,0.3481649850536415,0.18457262796989438,-0.08807403789156097,-0.20888422798678508,0.3472112766982691,-0.36888748848275066,-0.3169003630547665,0.021233870562681455,-0.0777186969367087,-0.014122412386930188,-0.18620363282159164,0.13251297522089597,0.020244798539471275,-0.09311699397077662,-0.2878074781550043,0.37247416226043506,0.18824915784967491,-0.21695884848650762,0.14024792604021638,-0.4789852951226281,0.3831865759211859,-0.23079425601489015,0.21519517693284668,-0.4905715950619582,0.001113593733735876,0.02209057611671448,0.21372612488264064,-0.17178682312429688,-0.1557042551432003,-0.07978224024679731,-0.5226247097801334,-0.10922078367358296,-0.08433298604252232,-0.3476465480802824,-0.0010731654450853673,-0.3067484753568745,0.3441493551664562,-0.38345486243681476,0.4176834843018627,0.011139884709098524,0.16953484054968535,-0.2658130044767631,0.24214581294799298,-0.1934152917591629,-0.18601094318028175,-0.016454811161422854,0.06564616852566701,-0.37050391029758645,0.048964598632026464,0.030350647047390045,-0.15298060276943398,0.306969233322796,0.0503517097691047,0.20775950277034255,-0.14399058564770842,0.19580235226811507,0.08347017786947003,0.33302932670478935,0.0191171719939287,0.13581779991617368,-0.10269329936208145,0.17740387901974247,0.17866547175270384,-0.22825646992569731,0.03940631298986969,0.23049618522964133,0.043041935732630564,-0.07838127229112783,-0.008882828017090238,0.1847445196411742,0.26038132538174935,0.026839498283246645,-0.2552891707494923,-0.1474483276736139,0.03697586973663393,0.2790791744329779,0.07795077246168748,0.3859970452444383,0.15115565960060634,0.09149295569572881,0.06362723435306898,-0.2791539133810353,0.05796946004837022,0.06390014586675115,0.07539986300760221,0.041069584024008884,0.22953216526087414,0.37498677984994866,0.20966730504059689,0.37874205163992186,-0.12754487268308995,0.008274350330268519,-0.0032360885630734436,-0.642302568102115,-0.7314308104228312,-0.7866243138638465,-0.15821971887019667,-0.08128961770595786,-0.09019873075771583,0.1276747669883939,0.13008611896771746,-0.022092120547810363,0.23759414160110978,0.08173661115192095,-0.11320750440304249,-0.27085914968629654,0.06897345577227419,-0.18365501600300052,0.10865854002460806,-0.1122883873860749,-0.007187491056947734,0.07730482229345054,0.27430850443526583,0.11813766045753768,-0.14648061807223112,0.3894640703177406,0.14274406447088078,-0.14580129151840046,0.035539042862985495,0.16170284543797753,-0.10247857444408126,0.14853647427044966,-0.06046528930752696,0.060969588862670926,0.1078743562990147,-0.14848616320836683,0.04522220770654739,0.2772583209463923,-0.4705409532137895,0.16853032914077543,0.11009371270564336,-0.30164483899687544,0.10859706911194611,-0.3849071081739295,-0.13888789261606083,0.24410058609601076,-0.3494328226434661,-0.3175084580054564,-0.3499678016821568,-0.01334886919134909,0.3340101352517443,-0.47891062407726204,0.3739234458479818,-0.06936389138175728,0.13108339049527626,-0.08152632897113175,-0.4221535872181793,0.35198383107522513,0.42913363326752807,0.11108909682638439,-0.5270691697127177,0.15942695991171613,0.05799863878432065,-0.3033812994749845,-0.2126522657339966,-0.27483160809719265,0.2935877687608724,0.08862865701564115,0.3698835573106122,0.39332788880427016,-0.23640577548796404,0.13852134147262102,0.460222699413636,-0.4712193280919163,-0.13822139381880288,0.43267726061523143,0.18841856790808426,0.07689889172061183,0.00810397182543699,0.24695003165775029,-0.36140932614839727,0.2785311528751774,-0.28406420711979535,-0.39586879172031675,0.3946935988680857,0.24167513912584343,0.18008101593335973,-0.0023111569159921254,0.3539080088096341,0.1033451313519572,-0.3085273374629961,-0.2989390872108165,0.16969542352777975,-0.12156368459764612,-0.45838110601724796,-0.43736310280530866,0.02085270011855062,0.4413516370303808,-0.2498345170722201,-0.32831128680442734,-0.26094804289704016,-0.3242488318793818,-0.2736613187968678,0.20198576190381173,0.3249094460266394,-0.08499004868602854,0.23175290604839532,-0.1178181238363969,-0.32485495595180636,0.24212493445030878,0.18305633090036244,-0.41224695955914126,0.2811005319389529,0.02454334378396901,-0.22265859389805842,0.009519980371744622,0.17250746388236002,0.3723541852222224,0.22831577184690618,-0.48437190190496154,-0.36179740287329715,-0.0897339402284233,0.24085415779463484,0.438612853926136,-0.2177469508201282,-0.31774632795294755,0.0726694206534482,0.09752016128024256,0.1646860566026667,-0.07245629333961473,-0.09525555118524445,0.14116728695948683,0.3893901905441957,-0.2705065790702651,0.09480080816175768,-0.3654102322209694,0.35616505763617395,-0.26211791278291496,-0.4357549762786862,0.2722359942188833,0.3276294686487681,0.01489562861147885,0.1866084835058799,0.3888222761306321,-0.0467938198418188,-0.2309643092702207,-0.18110722173704566,0.15481687401464597,0.13796834084492351,-0.45910266031354885,0.21662050123931262,0.18409678513418876,-0.3011571463734559,0.21748769359269618,0.052511517336543884,0.09419868587662546,0.025771015850147506,-0.1163224277702019,0.36714442444321777,-0.49501126767976733,0.1004195520103774,-0.2490123543698962,0.2675007497549758,-0.3049908533883019,0.02530270643493215,-0.08457416045160344,-0.4460685283102921,-0.5783744006979774,0.14595224581138158,0.040655669150854085,0.2759526156395362,-0.035948791321328555,0.007913186026068822,0.09905540736321114,0.4341012360745001,-0.3510208550736982,-0.5247223958331356,-0.2595331464563476,-0.544753160129377,-0.10586363433672215,-0.30561995974832107,0.28270727967182074,-0.29127903671706595,0.06066525150934819,0.093301806695435,-0.03779516883431106,0.32213357198382775,-0.3859317283687168,0.21248125181754005,0.39995648294042624,-0.44465926425350216,0.049203605239432985,-0.3962060799997008,0.20368500688378544,-0.05953294349724392,-0.2906214933616126,-0.36066033954229604,-0.4263154559836518,0.4382094583434502,-0.3610065618465713,0.2734502302180973,0.285401822329624,0.03615331007219979,-0.23629200998457578,0.40009374872488535,-0.1379369074881151,-0.06372940808989178,-0.16049051792396254,-0.33975883931265394,-0.3520027289948758,-0.24364384066413916,0.1560422022269555,-0.38320111530180057,-0.21772728911009923,-0.12640939885693134,-0.33146690552339714,-0.5105251786400765,-0.4578126828868164,0.08780052470413104,0.06755454023106365,0.24406303140332702,0.10750755878393109,-0.14529097403213176,-0.404139226183679,-0.21464449066778582,0.28829678376019074,0.2977666117407518,0.01931507482512422,0.12443738570856264,0.3733289511933952,-0.13630840828700966,-0.5368314176021821,0.37677857853961116,0.2682128360194539,-0.18763706387313392,-0.3159069310935829,-0.26431729145987615,0.34403412369975767,-0.30213387134552794,-0.2870046238094931,-0.509682943778246,-0.08271843719771643,0.2372900837856379,0.027606050342217938,0.3579982966618924,0.37620990737981863,0.2626499271181249,0.0823985233878589,-0.34273699082169284,0.3582082355013192,-0.40607310455903123,-0.44233326134902873,-0.4778732611967236,0.32894620583746126,-0.25933330321318665,-0.2347440792677377,-0.43356875649102833,-0.3912174205482286,-0.03069043863011481,0.17134429899435674,-0.07746783045466551,0.3194189648982102,0.42339542754923526,-0.028924083598308673,-0.057070774038327166,-0.4760101420584075,-0.22798922008448239,0.45393689857024233,-0.1759212443941391,-0.17555472741671765,-0.20206684478108075,-0.41558226012547295,-0.08927418713003381,0.46181670364612326,-0.23104349251842618,-0.0902111779528462,-0.16104199025063626,-0.22766077698199202,0.04151079342208332,0.08888885552500875,-0.20752072986322853,0.08698955345619931,0.1306905365004741,-0.389152102551029,-0.18186689375176252,0.15334236982255817,0.30407317036740295,0.3076209261956935,-0.1063742511384095,-0.46782959598002205,0.13074297212213193,-0.21168073276219368,-0.2596156634622314,0.2003707408207442,-0.048000820273929774,0.15614333616320936,-0.4281992776833933,0.41099886479053194,0.20631727540004421,-0.4024528432298672,0.2806041688647132,0.251937866484231,-0.2713169063120048,0.17888267669219263,-0.158844726578777,0.23136609357607993,0.37423527176844257,0.1030658627278576,0.193978971907524,0.3185941533149772,0.22242531216625255,0.382233214774591,-0.26191870324941996,0.4757165787033676,0.2129244263416115,0.027249821281707696,-0.4448060473830777,0.30117008065532064,-0.0526694251414285,-0.12495613422327663,-0.3481886276771709,-0.3236246586955018,0.02425402825976571,0.3692564620102832,0.08527644080058108,-0.10032850118003882,0.23653464682691047,-0.22322251931617712,0.3248416897598192,-0.08474989271747445,-0.3289247649719257,-0.4066070385387657,-0.22190840162307532,-0.25471368257570726,-0.3435709034316814,0.28929032264767646,-0.3042450926951693,-0.21685902621806646,-0.49229658833289874,0.07021766306212679,-0.15646927595646765,-0.1959864701546548,0.29739336602220007,0.29783256718562934,0.07008177883373966,-0.14198410307447737,-0.08266350358855092,0.20102776176093948,-0.371021707286261,0.00530672468780562,-0.34992234176448306,-0.33226860790635354,0.3385279463506611,0.017660792519766086,-0.1435913299896361,0.30791514474993725,-0.19609624870113693,-0.34779037800166834,0.21607266377097975,0.029117235025907066,0.2461525863183094,0.05401538751399622,-0.18683995867772032,-0.10534215624021591,-0.12396398145930254,-0.2409516874215554,-0.20947117152989178,-0.08938314281780273,0.18443903768636197,-0.3727092450298685,-0.18894876472490413,-0.39721539620842894,0.15048703058978866,0.09572581044277088,0.1464525927701389,-0.13018790115548384,-0.24358316593493012,-0.015680303352099287,0.12849928705185124,-0.21645623999147764,-0.07703941357314117,0.22408974447556518,0.18322237846254769,-0.1508824185713163,-0.25702709708824734,0.35433603776804784,0.5317096342514235,0.032260436038696355,0.0832747490421504,-0.17463482391468402,-0.10079008164354539,-0.46285394667418284,-0.01128798303053738,-0.002452080944474701,0.10926918076610306,-0.3342720017422321,-0.5624982779275365,-0.29230624585919646,-0.21501909808510233,-0.2020935475926982,-0.3249938605697511,0.18921660486570754,0.20355525333360383,-0.41501064914100777,-0.3347860114796779,-0.3065202497095217,-0.08798600388899633,-0.3653564379779886,0.32518661843158625,-0.08072831178919729,-0.3110539376545892,-0.37229412778969334,-0.17584008834259082,0.22533069758496874,-0.40720709924991605,0.2780308968974826,-0.4230373877805819,0.10883141372057793,-0.24165622124261463,0.048107204943584364,-0.047336865576572684,0.28268374304084143,-0.2921734775967996,-0.04346256874210941,0.21488227212359498,-0.12799850918378022,0.37774083864130215,0.16947385063565643,0.0925910529046182,-0.02629693250143098,-0.12908840193286608,0.14664727384536794,0.32148389890951995,-0.10145021864307505,0.3001529740167461,0.0332731998461217,0.06917108019081328,-0.2419769877212027,-0.027026054544321537,0.17003170577689045,0.06293890105592768,-0.009061815154647844,-0.12549925931768288,0.12952742202229456,0.3457701603361964,-0.2271294439928207,-0.1334845370891949,0.23943621772969195,-0.46062557985659197,-0.24687525754039968,0.15837501359288902,0.28515574642439334,-0.43955499948645277,-0.1658122317812544,-0.442297713216697,0.3767387896931652,-0.22710966120346177,-0.020007964270202374,-0.3462996263929103,-0.4280013637022769,0.07203014798766562,-0.2889570021537435,0.09740655272296757,0.08932147774844695,0.12676689534880484,-0.30528752354234007,-0.15331283889042463,-0.01479581126136214,0.07033252352079178,0.36078135506190245,0.1404554880450675,-0.09605156868728862,0.0204242729576836,-0.3396217542045156,0.17029846441563457,0.07024973124989577,-0.11708527427737177,0.09272055437173449,-0.3850679605768576,0.04276258609628717,0.24336061284723048,-0.4105642709573537,0.20355238254689803,-0.07753035962074434,0.06846253477725857,0.3986616200549014,-0.3368373749148636,0.030356966124365333,-0.19894574537501586,0.0046942112526360226,0.3380738712806507,-0.4453237318421812,0.03411432673382676,-0.41696063027306557,-0.154934095003391,0.1935289717375777,-0.014983135910597611,0.22363151344738613,0.006490899192417983,-0.4095916440999938,-0.12490479369618661,-0.009970278692675432,-0.10816056556699695,-0.3920591691935425,0.04527339438347441,-0.002530518183579046,-0.4438238010213508,-0.2747407528410144,-0.0010638182417214883,-0.014452120322917372,-0.49568185560738076,0.1540349903558922,0.19748710112560713,0.08431791774159758,0.04668005565101573,-0.3499291558043733,-0.06420345301530805,-0.09623789360206941,-0.3138644137764615,-0.25375851926420706,-0.2896235275640271,0.3428570175468999,0.09137373550952484,-0.15731344558663637,0.023585395470256214,-0.2562926337391112,-0.46434955089600993,-0.2006805331520783,-0.10479687765432165,-0.3044259319075961,0.31519643593123947,-0.17491277198131625,-0.034660712269479706,0.11944487588250872,-0.1788061107762621,0.0817571796748094,-0.23480656497056637,-0.0954739674245131,-0.007812660577098807,-0.09945225626686746,0.4098476465502,0.027896433375109997,-0.4360676164009375,-0.08694207001799362,-0.08011251360470104,-0.28760694603603576,-0.008947894267205419,-0.45475475590000364,-0.33448900794992054,-0.1424832994162889,-0.34616112054964665,0.10313754113385995,-0.06065240287138308,0.431359512445651,0.2946289772469987,0.3587361819683044,-0.22135966457879577,-0.23278872449030164,0.3168921541459357,-0.19752066425037684,-0.3774996433462097,-0.16411358699111195,0.34535597192992623,-0.0859440384522893,0.29488763205373003,-0.3397927335206957,-0.1594844332194612,-0.4196031986103567,-0.12294342851715301,0.7126815797731763,-0.27760631982175676,-0.22995844066659502,0.5349136901029548,0.2731428995283206,0.3940946549980193,-0.09229950388616708,0.04304041571904714,-0.20235962502064578,-0.05290213917546969,-0.02838638659285747,-0.39899463931150275,0.2675341316150619,-0.04568399309964676,0.3582003127632885,0.2691726097658157,-0.3572355431259847,-0.3653452300153002,0.33912600498010054,-0.4117991050572765,-0.11150143553418956,-0.22602712504362105,0.2898828462538077,-0.16479991752233772,-0.04689306277491184,-0.06655083620125361,-0.29821135928167725,0.0711809177487382,0.22752596180548282,-0.04901424513298372,-0.368155147450664,0.4675313071338242,0.13709888085791397,-0.23548514242484767,-0.1923384391272344,0.17890512764258518,-0.232855652281751,0.003815386903987654,-0.06618366392696391,-0.09536966634300115,0.42352841745964986,-0.05949226479481742,-0.17164711772296354,0.025754270392161195,0.3754460861665554,0.034025665663276944,-0.21528920414740227,0.2301117941343356,-0.09383383687168015,-0.3007254986534849,0.11053008233807134,-0.05017143860002837,-0.1045539108638041,0.17307663881587285,-0.21209001525947135,-0.25829559137827224,-0.23150806170967841,-0.10182704830942585,-0.02068733075149889,0.009099801322292511,-0.4458210620096355,0.21417122794322496,-0.3175778612150928,0.3285372083620985,-0.0018374348506569088,-0.14007864322547328,0.29621196402049754,0.09439404397283578,-0.12491079172634036,0.18399689293059485,0.35128474239038915,-0.172175959555436,0.17272262726672039,-0.25714120353881104,-0.38310572654588826,0.289726686569915,0.0016627517696484453,-0.19023246754630882,-0.15048849598620515,0.30471140273383557,-0.033206513716921265,0.16261687062430952,0.47968808522242856,0.20862347840166182,0.2734840934802868,-0.35886048120232233,-0.35437391852215566,-0.4287143763981646,0.29070008200466474,-0.337738872027074,0.5983749596740443,0.0924952698599356,-0.37409228144682866,-0.16304375722013884,0.36564239184266223,-0.20303527278847053,-0.3094285912909002,-0.1604133465449465,-0.15455559254180512,0.16024910509324639,-0.4372262512805378,0.14655492381088464,0.10840241914731315,0.023849003125921225,0.0872195845694281,0.26857803435659133,-0.5773158438253952,-0.37011091315090117,0.16513348245021336,-0.43233274912055064,-0.3024845428577597,-0.4269904070511446,-0.13243586177159805,-0.034576967369005264,0.07295475317593408,0.22808335408304195,-0.38782087794805264,-0.21004133952448406,0.28227052180595585,0.16792263185868656,-0.10172547945675038,-0.2938235386900529,0.015672782223382958,0.19673698526872563,-0.07490871687025447,-0.2376798273909602,-0.47715012965868986,0.3338459085461663,-0.31772519037852875,0.34365912401289106,-0.04792534853755839,-0.0582217777840888,-0.46131184898781985,-0.41623110293159693,0.18223793436637045,0.5083225475667297,-0.2699363476421204,-0.05978834431973781,-0.27658956810492275,-0.41015683083018234,0.3094800645771455,-0.06332419273739189,-0.19374594120181823,0.2909866944366297,0.08093953846086659,-0.09052629209437109,0.2555713982538557,-0.3210277852143952,-0.05734763589609622,0.08653555393965008,0.02283216390136872,0.3703081432849367,0.19837279517783254,-0.2141753601028099,-0.4239581068084194,0.07448772357433849,-0.028594841782427684,-0.533741707238783,0.05323145893374045,0.21766113562794434,0.3882174122179362,-0.1860509475167084,-0.3406558823635487,-0.21334782814430653,0.13270599525944238,-0.11915921745479123,0.3938672768211258,-0.4689523309066436,0.14089359378942554,-0.20475011105151592,-0.11550344743296864,0.20151995342675202,-0.09939419055019628,0.502410774059544,-0.3413706657745487,0.4280972806517077,0.0959243484099134,0.14622720564690342,-0.18668758540728603,-0.12399494444663589,-0.4078391800222727,0.29656519718098984,0.08089342788867662,-0.3386578974382295,-0.030688434628808915,0.33336784851031437,-0.3844811687681108,-0.2324490449869271,0.37070955807236977,0.04763950515949683,-0.23204057600365702,0.20089194105306132,0.15757016648886776,0.12488834556563691,-0.21845985010635677,-0.23732279234166748,-0.13356515941609728,-0.09155802368545293,-0.3956010103608765,-0.16215522675318525,0.28424778566441244,-0.1992477723607821,-0.1381443265387347,-0.18038602885058194,-0.047743888166369264,-0.21683155083228664,-0.4497341306024457,0.28984287296518535,0.3705736280001502,0.2178879682804049,-0.15139579258054053,-0.4085743934918292,-0.23319131097253462,0.3030256116295819,0.3402439168920675,-0.20030038829454413,0.05349132106863063,0.057877886562037406,0.07485749882454332,-0.3717620908053243,0.14560331663700585,0.30780623283462893,-0.058428569913025884,-0.4354649434289997,0.14863351589011492,0.20226333372114572,-0.16871578939120194,-0.4861649721065725,-0.27257021298671585,-0.49984230026929766,0.40524102043399957,0.3170264783353692,-0.30810708546314525,-0.26636920128970937,-0.3237773778800004,0.13361522077703658,0.3160705652245248,-0.25697528380347356,-0.26769790993686016,-0.4758923355280629,0.1847159831175626,-0.09936614185128508,-0.2811380014473191,-0.5026355720309722,0.3460987258655542,-0.398911567343842,-0.29452119288892376,-0.0015208247244000556,-0.17932801252293878,0.10364484394334957,0.09346523433256618,-0.03556566523116673,-0.3689771263698145,0.3241397527814385,-0.28402826452395524,0.34162646984007283,-0.3525457957750502,-0.41812507491350875,-0.2728801201327901,-0.0010104166874659614,-0.20473656517498093,-0.15014023854623162,-0.12397678590022791,-0.34221188978294675,0.029847340504282293,0.31489631606201623,0.09354363192760701,-0.1478433796956804,-0.4617203718691233,0.30562926615823227,-0.4555483659155285,0.06441573572988206,0.36288925806318045,0.25327441969754455,-0.37150403780536556,0.13204216782663203,-0.16534619833342698,0.4069178805704411,-0.25748234139993514,0.14442375498627016,-0.05364119039395714,0.11016954464113334,-0.13249146664324923,-0.31167736531320883,-0.4099336585338156,-0.015976637442041475,-0.46124744087319774,-0.2765705749076808,0.09342570290358261,-0.5267784484990397,-0.16654122101009863,-0.05228057288230092,-0.2664328519244794,-0.005172343920044677,-0.4864752402476022,-0.5221222689288268,-0.3074870578344693,-0.29249595862804534,0.07966398126395223,-0.25542454014079125,0.20688548535966808,0.2267718000825164,0.015685750004120376,-0.03746561113435149,0.04539925203291806,-0.43171015565777066,-0.15857834677197677,-0.04635211511899081,0.0008038702835503821,0.12867367247395783,-0.24673761144966605,0.13221509048183402,-0.013429229085958106,0.30766039156506075,-0.11190466299342375,-0.19872480570747286,-0.4702845840212306,0.3743536753175885,-0.19957742075806895,-0.08298028386916484,-0.34528864039391255,-0.509064352394975,0.07830244320085718,0.2520585852114974,-0.22668027005755143,-0.06969482672657992,-0.2003480034290087,-0.20595378703714953,-0.29768746443674865,-0.43144390654300246,-0.30593088671129387,0.2675066635646209,0.04542175794139789,0.16966054770366917,0.0589146303340825,-0.4756887048904979,0.11669527477659258,-0.22009193759903029,0.01599940088056036,-0.24982030798606758,-0.17811442423194324,0.08268243396706472,-0.024210253209992948,0.2896205245485767,0.1806526371823648,0.020305635259459314,0.18828789971538323,-0.08913998217730104,0.023063450468101626,-0.012769726381549848,-0.23837455938717966,-0.3062177009465582,0.043432089871062625,-0.4496701270259944,0.23718316859516395,-0.06479976306252994,0.24923245653884507,0.3129527838624189,-0.31082189979888314,-0.235789076613804,-0.01573891641124526,-0.2685898979572172,-0.5336068615289393,0.21864269000735614,-0.23247042587199504,-0.5207494593421815,-0.2934868533423517,0.022508672033749746,-0.11211096504969317,-0.0013158823505272643,0.2163359533566175,-0.423912902020147,0.21726745088814872,-0.42390399742367696,0.24226448329167594,0.13904542753019258,-0.38810478064801535,0.01753862392082024,0.28936286736307115,-0.4368951461847271,0.3703675090135042,-0.07315052158622132,0.11426746416027694,0.21747109585356897,0.3230184282520383,-0.28781970022251535,-0.31276064749809906,0.4085953941716329,0.27767184920745774,0.2958194909480373,-0.3810735608829312,0.2146647612847084,0.3306440402528383,0.10581799630458802,-0.01603722766837031,0.04592757296501798,-0.12836305776090454,0.17733173120911014,0.0030049095891955396,-0.19645265807810075,0.07683646787111811,0.03268986399156264,0.34888249429075746,0.3444276807445427,0.12687169646417845,0.171437433501929,0.38286122181291726,-0.3170997342372912,-0.13423916378285541,-0.09985426446933439,-0.10924905273556712,-0.5245246141183493,0.06749609741734978,-0.1566175884026363,0.24629567071048825,-0.1848426549981094,0.31630543420677887,0.059771857697171506,-0.11660989294338521,0.2136122724450748,-0.20871847189784024,-0.19768699403862208,-0.03232264212733518,-0.3042569034318112,-0.18617873794226955,0.32216411062407113,0.31320190613204196,0.3635841724408621,0.09876196836569628,-0.16784564840579289,-0.10314317998008707,-0.37609875814576327,-0.009090833513787042,0.003927685701387519,-0.10273386520120746,-0.10458429089449879,-0.30339497326230647,-0.49146184285193684,0.2899816057540335,0.335058153062517,0.15081366609690458,-0.5140210946209232,-0.17625209247969006,-0.3916661960989283,-0.361168622591648,-0.1487168455098385,-0.0772510737151317,0.07735288030698831,0.39337402377779906,-0.39203497128054876,-0.3115682935668377,-0.034486982463185135,-0.03662321257456178,-0.1632556260676204,0.03476366285537665,-0.10305439720318135,-0.1696988071587073,0.10083816920557291,0.04856851630537311,0.05921192296875196,0.1701948946209401,0.2690846264579685,0.14127492733717198,0.05252755303122441,0.06499946411727696,0.14379164952632245,0.03312038082119556,-0.0014738027306906178,-0.25760094593149657,-0.05584919539963326,0.2566075946999416,0.04046872388707395,0.09569826585312594,0.25484095163227155,-0.08384897019890786,0.016516029941808265,-0.08797147349785553,0.17680134737100572,0.23091242377025284,0.3936189709062344,0.16275599635610452,0.1515431013942916,-0.6565176823845652,-0.17849201186927371,-0.10814356482343464,-0.2400184144209037,-0.12743462036259295,-0.24666438263953824,0.3141095208267768,-0.05780608288176657,1.025177845885677,-0.32188981982055553,-0.3514125758411393,-0.005489671869704683,-0.25838089821011384,-0.10712091918588351,-0.3345605031825174,-0.10363763205789794,0.21149562011426734,0.12159455750502554,0.6804366220685558,0.257919332153583,0.45494782081887347,-0.24050650624448003,-0.24877724115145844,-0.2985918543647441,-0.0029664345335002422,-0.040065041206325015,0.019291907379078557,0.1718696143083351,0.14151643457503063,0.29521973639148263,-0.014063086702979488,0.20947028007976526,-0.1613600566825396,-0.01585232111074819,0.1422707010158373,-0.05925965614189618,-0.04481188499060554,-0.32130476038436834,-0.008142086340626459,0.1747491875694411,-0.16578898416948581,0.09392156066205107,0.31334208403217095,-0.06879981634800061,-0.07714454095648658,0.09340944878001775,0.22558645081915837,0.058120669665664544,0.41169602608184025,0.09806089784840237,-0.08185134061640742,0.20290779992166452,0.3925423662053114,0.3235053868695181,-0.2826437556022075,-0.5133060377490021,0.28615546241717654,-0.024196278845953795,0.13065248453845685,0.1927030379787335,-0.0103912516588173,-0.3304645796049115,0.05483446023655396,-0.3291050744555087,-0.42026585912093894,-0.3711793381207414,-0.20050686130144338,0.3587143965614266,-0.358242368704431,-0.09514450864874498,0.29114880246691766,-0.3121885940417138,-0.3672385998523184,-0.2355806287381415,-0.22837119311509801,0.06071032966479115,0.43226468838052673,0.35239936046916054,0.12448749087296306,0.3400646894635418,0.04534618840556098,0.24349652631563526,0.20154661640348742,0.3506968245656919,-0.29063205153365224,0.4460940312510404,-0.06905252652448682,-0.35789068922157513,0.01660646826910694,0.30914463587258023,-0.40963369167239394,0.1303617509965259,0.7342102912263715,0.04532122078955789,-0.18712527228729436,0.06915891502346089,0.016647758534526227,0.28052333599136814,-0.3620693656580663,0.09341434500071753,0.27127662070269337,-0.036253195364265536,-0.3520666346525322,0.09110277299159451,-0.3613528482859573,-0.4765218581649306,-0.11861004665418862,0.12364994241476825,0.2976257081857702,0.38643670452708756,-0.09176126905596282,-0.07966753053469729,0.3594463532762309,0.09313348196327487,-0.17038817577727317,0.19647483226410115,-0.16952817319506885,-0.11923271747805222,-0.03950140804635029,-0.21163017255857802,0.5016542759704578,0.005637581211228978,0.13430092429656515,-0.15600426396025205,0.3647458502579695,-0.023721676953175813,-0.31460844934625826,0.15853692843762004,0.1447976323674653,-0.08144922425445437,0.04942675564133746,0.04741317635954291,0.35174984903620027,0.39274681243404785,-0.6336714081465447,-0.3097510439979557,0.30288819827945546,0.14131246000009717,-0.2796249280181436,0.3084833644533723,-0.4941365548818016,0.12091441136092106,0.22600557284095518,0.10551745560973684,0.17677172801720165,0.21145732173742696,-0.26270764725595536,-0.060905510553483956,0.03201068712990594,0.2993970860732163,-0.21222902372824554,0.27288852832487565,-0.049441670684000245,0.05452595551919182,-0.23049963853085237,0.2171805652803401,-0.1278536107550365,0.05616166817234836,0.047617799090692636,-0.33212389139271875,-0.3093823181405852,0.30661229058523926,0.3036476342981007,-0.12576672480637713,0.3793979500180824,0.5340782395244268,0.23827304077687964,0.08033656922409232,-0.2896540351720727,0.013220345898167195,0.18998107205845666,0.12970158008928462,0.6985144980012467,-0.35796790652767113,0.1307613048021341,0.517962954833935,0.10879965707092734,0.10648929466333125,-0.1764921289828073,0.10710204815970838,0.010824708960637657,-0.11627529822541258,-0.7251271520738799,-0.48841646483982326,-0.5276465312440686,-0.24213083987343523,0.004510687519870928,0.2515939834162746,-0.33561411496717214,-0.3037090680891478,-0.1984539338742202,0.16142514719854834,-0.23086402101072798,0.31295322097073947,0.06770870014904329,0.22743569439771863,0.19617191251407276,0.22926278130467426,0.07438110963045426,-0.11455752134344593,-0.02172640767224712,-0.3629967329811003,-0.32037537841585373,0.11693626495145663,-0.11236653906865712,-0.09192308492708914,-0.3141622329913384,0.23107601830131205,0.40174199484020134,0.12607254225000755,0.23473075597204812,0.04896913443556743,-0.14583670786244482,-0.32791391252909036,0.00128045803218181,0.20645390794383398,0.495848861934214,-0.455171482471149,-0.23580064339175438,-0.19568132297713212,0.033031919367935335,-0.12344093482363994,0.2655964376115707,0.19148492001190323,-0.14677069444652874,-0.08727659745068567,0.3617738073113907,-0.05204405090689905,0.13648717195382,0.139422801278043,-0.438988913978825,-0.1494361858720011,0.24654771411694515,-0.35623638549953934,